<?xml version="1.0"?>
<opencv_storage>
<opencv_ml_ann_mlp>
  <format>3</format>
  <layer_sizes>
    450 64 32 12</layer_sizes>
  <activation_function>SIGMOID_SYM</activation_function>
  <f_param1>1.</f_param1>
  <f_param2>1.</f_param2>
  <min_val>-0.94999999999999996</min_val>
  <max_val>0.94999999999999996</max_val>
  <min_val1>-0.97999999999999998</min_val1>
  <max_val1>0.97999999999999998</max_val1>
  <training_params>
    <train_method>BACKPROP</train_method>
    <dw_scale>0.10000000000000001</dw_scale>
    <moment_scale>0.10000000000000001</moment_scale>
    <term_criteria>
      <epsilon>1.0000000000000001e-05</epsilon>
      <iterations>1000</iterations></term_criteria></training_params>
  <input_scale>
    4.0714131839360155 -0.2935320942586539 3.5068447189814727
    -0.35319807084844851 3.124573333151019 -0.41543503235307355
    2.8437239857450849 -0.48940676369513814 2.5224546612766723
    -0.61097958951889786 2.2758427500248506 -0.80522192730064013
    2.1430242501821262 -1.0383278257178969 2.1279495130044892
    -1.2266240117453346 2.1420424927446109 -1.2494479869089661
    2.1733129319047775 -1.1072695543046209 2.2387885910411169
    -0.87575072157306777 2.3971097248467315 -0.68509033280016163
    2.5691835335430082 -0.57289840079415932 2.7956216129763449
    -0.48665574822521512 3.1770560190940587 -0.40557418890715385
    3.6603114205931386 -0.34413242215200657 3.0579418508856082
    -0.43888851701678205 2.6858150836646821 -0.54408937495382115
    2.4682692306690859 -0.64793395232175033 2.307665800311399
    -0.7964552662891301 2.2087431355728619 -1.0386113040918314
    2.2588271186426843 -1.3980196277621497 2.4185385909936241
    -1.7516858902010113 2.4661947137564013 -1.8075178876585867
    2.3362892363448231 -1.5087479625897398 2.2242889876786811
    -1.1417898372348441 2.2353385341905572 -0.88106575452367997
    2.3391363167582107 -0.73011803040241885 2.5130552841557021
    -0.59075704821556474 2.9656965940642133 -0.45489671546557731
    3.3242444563261278 -0.41401114040156806 2.7818391746657114
    -0.56230214957374469 2.4106931298212344 -0.73331856213661961
    2.2749535677812962 -0.91504651928932657 2.2073440264768247
    -1.0999227863005123 2.3161375982246906 -1.4220144684856091
    2.6589182960232889 -1.996186264666743 3.2568598169343752
    -2.7663156251725285 3.4612922084753341 -2.9839364284319565
    2.8666449175461168 -2.2522107437921441 2.4283337064973756
    -1.6260777402824775 2.2553051003472389 -1.228594561625953
    2.2286253892165302 -0.95531760617063355 2.3975397927617981
    -0.720548144031529 2.7848790387339717 -0.5281838361630582
    3.1624196227369028 -0.48392120066388988 2.6345327270035983
    -0.66728055760194749 2.3441423942424215 -0.90460673714279316
    2.2622007542163574 -1.1488292311339792 2.3206418520576504
    -1.4031379447903454 2.4766375737989819 -1.6909600403646863
    2.8188116308053468 -2.1771763724195825 3.3295094797146634
    -2.8206530838513677 3.640542652923211 -3.165701488748073
    3.2495369302751946 -2.7027220848183151 2.7309669293857142
    -2.0663721540754403 2.406258620934949 -1.5570500430730614
    2.2749007470275431 -1.1681058660859132 2.360722294072533
    -0.8390043640355257 2.7493873312682795 -0.59210568466334679
    2.8831165572766655 -0.56338336152305057 2.5217819665921839
    -0.80317312416736253 2.3092454813097287 -1.0951603214798198
    2.3789704201667288 -1.413416750709559 2.492034135452351
    -1.6823132454452292 2.6154147745279084 -1.8440138091088882
    2.7381200713424336 -2.0226887158608609 2.8708249148928777
    -2.2330530375198596 3.0449983739358122 -2.4591469446954477
    3.1437379630845137 -2.5536158837510241 2.9786420978985211
    -2.3593025889954946 2.6988130210760208 -1.9676077975021482
    2.4071225253721247 -1.4713300420341067 2.3532213309816123
    -1.0123363122454747 2.650649510352129 -0.67963931466919003
    2.6745263892167799 -0.63161372290323825 2.3891106150795451
    -0.91090870075864849 2.3340112192606264 -1.2760205098399542
    2.420949465562829 -1.5776622468741226 2.4939468408056302
    -1.71882896936736 2.478407232653085 -1.6460577514133869
    2.4462508546696227 -1.5580416585301231 2.4299147481882688
    -1.5524555029180771 2.474061900219283 -1.6707390587797519
    2.683752297344562 -1.9727680920757424 2.9316516186114532
    -2.3117653169452499 2.9815116450780637 -2.3575589594257567
    2.5922910244280182 -1.8041475294015481 2.331368180314314
    -1.1652342932797917 2.4976897827697666 -0.76457239333563498
    2.4897319737747972 -0.68411049276525904 2.3362552711150424
    -1.0130410514184405 2.3416473902409667 -1.4269030553477795
    2.3985492376613688 -1.6300440509589225 2.3768563518566501
    -1.5826943713664843 2.2855692449048375 -1.3071823086216712
    2.2641043695388925 -1.1226592091956809 2.2444516546577824
    -1.0458909345835417 2.2667154994984582 -1.162774391783131
    2.3774460242348359 -1.4994426377602241 2.7099819448299596
    -2.0716747012094565 3.0139978633002378 -2.4640293568976532
    2.6940864498910657 -2.0196724669407935 2.3110567613126642
    -1.2929392055971409 2.335810455686985 -0.84636099552676702
    2.4189210055421855 -0.71935233098508033 2.2929708973677578
    -1.0538620923787858 2.322847399886542 -1.4584826404328763
    2.3357144390925129 -1.5653790068694571 2.2888567424934294
    -1.375832372677543 2.3107036192234518 -1.0658540917215993
    2.3720711897545295 -0.82791475475205645 2.4705886788874141
    -0.74014397374720531 2.3928408017541809 -0.8464743263454132
    2.3203648264724452 -1.2214984617740359 2.5402930790346452
    -1.8110403371318042 2.9085358254730829 -2.3443051903806391
    2.6802819793903496 -2.0602188569066096 2.2767452130129384
    -1.3628556399495793 2.2160329690733085 -0.90265496065754136
    2.3843767449041304 -0.73812990282337987 2.2954622009975996
    -1.0481616866889751 2.2885695381710249 -1.390959221259003
    2.2671352103900388 -1.4129960788537372 2.2655901698032341
    -1.2067736425456808 2.3781696883992098 -0.87540394469136773
    2.6490473915769779 -0.65885965748900155 2.8008673768833043
    -0.55943128126595298 2.5854739910494158 -0.6780439650814547
    2.3034450729130005 -1.0275793136569158 2.403481911354207
    -1.5674815399067654 2.7142955144648844 -2.0746172593226175
    2.6549479145275305 -2.0110376952966784 2.2470145783893694
    -1.3598335442422025 2.1724762923521181 -0.92060465694913285
    2.3908390711027185 -0.73297609744993764 2.2856870364661352
    -1.0115134224567277 2.2395494927403119 -1.2753728228181991
    2.2433133177324929 -1.2818612665299729 2.2736059186747246
    -1.0746899433069002 2.5309785016226631 -0.75927713801386687
    2.8489292708309506 -0.55108757862613988 2.9833558714887163
    -0.50618088159627073 2.6538413166044292 -0.60386893598764035
    2.3219461388047908 -0.90741692718934575 2.3121017887336621
    -1.3483573368420956 2.593434251229159 -1.8368587427039338
    2.5533934563097711 -1.8453329821520066 2.2184959840681922
    -1.3031226466880312 2.1523642548388748 -0.90517382858962014
    2.4337563119117229 -0.68200228101705196 2.2894319276760204
    -0.92918373540162513 2.1854702076652242 -1.1650967846340334
    2.1824078452958413 -1.1962142610201816 2.2424722768171299
    -1.0606506011773351 2.4416899448626728 -0.78692185242097556
    2.7695271845214222 -0.60187816142814399 2.8525264245544029
    -0.5512301209231254 2.566265800456407 -0.65173803228252181
    2.2743779372526958 -0.88388228890333154 2.280170758254104
    -1.2689027868807912 2.4825647257012844 -1.6602017112134553
    2.4669220171605128 -1.6868487693610901 2.1867765469927098
    -1.2248807246124034 2.162634278387169 -0.8727939196851201
    2.5456455640660134 -0.61396546386833284 2.3201590026859149
    -0.84649572703374032 2.1537838125244835 -1.1004484847508027
    2.1338835394755824 -1.1832246614677173 2.1749158595438107
    -1.1216188239961777 2.3033802012091322 -0.92579615690021144
    2.5205442753652036 -0.74879037905796375 2.6848243339157962
    -0.69207559077580194 2.4347581243565419 -0.7874132326666099
    2.2565291758577892 -1.0021097258100959 2.2460346871997015
    -1.2666846634035631 2.3934294302621435 -1.5230424250739836
    2.3377553359730054 -1.460475616544687 2.1960519015669147
    -1.1156053505025885 2.2138514655211843 -0.81049816069536884
    2.618141695354435 -0.55404020504668217 2.3538658633962508
    -0.79379734389540058 2.1616854582123515 -1.0722784315039899
    2.1402536249151103 -1.2066507362029588 2.1512883448249203
    -1.1995804300002131 2.1934332130991558 -1.0648190206186277
    2.3355263865928855 -0.94903599854428722 2.4480985584213144
    -0.90922783754400438 2.3425637330859925 -0.97963516887358781
    2.2121110258027405 -1.1372804873468729 2.2244249964323961
    -1.3058654408869872 2.2767314852878475 -1.3818920987854404
    2.2267531685563151 -1.251456547434542 2.2101414585312447
    -0.96864124336272717 2.3141787409248415 -0.72302893533668089
    2.6820181868556885 -0.51931830070938423 2.4144440120893975
    -0.73511997084653702 2.2091800300453639 -1.0028948048794328
    2.2037780355229364 -1.2052560738345128 2.1925755830068319
    -1.2819553920051467 2.1755012104845939 -1.2113136891851422
    2.2319375358592239 -1.1674926145485336 2.3467972131599302
    -1.2007539574873078 2.3197172987791181 -1.2491858598775116
    2.3258112458289202 -1.4005800922369096 2.3606704662094997
    -1.5233016220108211 2.3106480029969565 -1.4079959503567689
    2.2023629727810405 -1.1371806002960765 2.2378645631922658
    -0.84289292021811679 2.3963567681978635 -0.64368957112308101
    2.7903469999868422 -0.47979557702873382 2.4933635561153471
    -0.65192531820020527 2.2794125926510493 -0.87197522697828533
    2.2397415247164081 -1.0938413334553543 2.2198088224275074
    -1.2379844803502784 2.1688996346746188 -1.2119573494339331
    2.18638169136426 -1.2316037551349031 2.2686594921031329
    -1.3362238861298512 2.3454603304621005 -1.5030274250135562
    2.5329478446930085 -1.7929773312391961 2.675829247912537
    -1.9694403812789583 2.4784470073946339 -1.6601114507607231
    2.2218720606418136 -1.1908110477620231 2.2280059471724716
    -0.83389956319545966 2.4045950892505918 -0.62279688036619207
    2.8949713469069169 -0.45371179208213103 2.5862984940151899
    -0.60294239914535253 2.2891600786437114 -0.77152860815549518
    2.2326990540609133 -0.94081731087066844 2.2353631650681716
    -1.0817491586873966 2.2104275705100997 -1.1120516991945237
    2.2084812391365798 -1.1594756593580815 2.2400027583589504
    -1.3007179826230117 2.3497137958093024 -1.5717443167062262
    2.6002513831151566 -1.9594426200068222 2.8490249530624747
    -2.2449003717529523 2.6213928426797053 -1.926730282800623
    2.3181390454722939 -1.4278068532691746 2.2264490593943567
    -0.97423664199986493 2.3610628731431631 -0.69087949912007485
    3.040056653898731 -0.43897188367929274 2.6339660733407029
    -0.58044538525262801 2.307497703412202 -0.71036230722182747
    2.2429443278611454 -0.80116009214786588 2.2797053442627098
    -0.8747285873578321 2.3412243179644086 -0.92298485582241718
    2.3203815712992419 -0.97362892130306045 2.333178250270207
    -1.1478443245491101 2.3406284290802311 -1.4406516041779345
    2.5719395209265059 -1.8797461341715545 2.7854019777973922
    -2.2080199862713137 2.7564024394108739 -2.1512828704066314
    2.4534748147186218 -1.7196333182042969 2.2444885558985859
    -1.1627381573213391 2.2820461312286211 -0.7951431723834036
    2.9110723412686772 -0.46678235460136558 2.5942778738434331
    -0.59572307192637797 2.3153510648242897 -0.69648311382632
    2.278910311661801 -0.72709847777242098 2.3577602311878976
    -0.73749148356340954 2.4999503359176121 -0.71467154385707332
    2.466221225559976 -0.75634928513609101 2.3616931519849378
    -0.85897171567451414 2.3223534723772175 -1.133117413860895
    2.3896672547088804 -1.5174716016517167 2.6523308336664138
    -1.9778749980667181 2.6988110094901967 -2.1045089474198302
    2.5407379094723099 -1.8984424740322832 2.235383118210251
    -1.3082962919642513 2.1866004023936547 -0.91951280657963907
    2.6726624554478522 -0.55313896888042113 2.451749404342674
    -0.6863093332270287 2.3069318172063986 -0.7706560233624089
    2.3261338728920578 -0.76450595925474674 2.4283475474465401
    -0.7185551118635376 2.566539526742976 -0.63511253515988708
    2.4797462709621736 -0.63156887686840801 2.3924021804933679
    -0.69710957406964058 2.3158323319094634 -0.86111301726457934
    2.3419470113645118 -1.1900087035717812 2.464505651666598
    -1.6104303452017135 2.594667595812147 -1.9094998184415153
    2.5874060427213816 -1.9715530126068674 2.2587754311570767
    -1.4504518970391247 2.121926726040448 -1.0392986170056762
    2.4299477168539374 -0.70636365767165077 2.2941091309444888
    -0.86401793207401389 2.2560810728323868 -0.94002839455128195
    2.3142421480196291 -0.89822076296188746 2.4221419848647896
    -0.80009129868973405 2.5424088522332577 -0.6437839892087448
    2.4599690760726398 -0.60733117294987438 2.3851705285021612
    -0.62067522505456318 2.3706541418640565 -0.71345079855084736
    2.3491318555874199 -0.92159077349667529 2.3566054606383071
    -1.2912989637757806 2.4668265624759238 -1.6847432682804855
    2.604218655800397 -1.9929935797129135 2.2954483002197539
    -1.5688659645598533 2.1217779763243216 -1.1491004180492725
    2.246539211345056 -0.85555169120769059 2.198197439618053
    -1.0495728151710984 2.2296158501508327 -1.1540650145488383
    2.2880038467236457 -1.0849505225033018 2.396654432776955
    -0.92255343973490533 2.526346837004553 -0.69286427055406397
    2.4878100011993789 -0.60511377137782019 2.4560077268121234
    -0.60268730142884153 2.451946524955511 -0.65731294484906988
    2.4084383415706423 -0.79937911717213983 2.3106137122927355
    -1.1190146024021024 2.4108578319151284 -1.5567067229323666
    2.5876985720246926 -1.9557120398247494 2.3088271631561317
    -1.6144011291426303 2.1213026567191275 -1.203393511462759
    2.1784333383550059 -0.90484930317873002 2.1708619616169074
    -1.1243363268178108 2.2209559941245529 -1.2850255687573089
    2.2553692035211088 -1.2242449290533486 2.3518670539618136
    -1.0411341830293028 2.4692262777788474 -0.76811098734778149
    2.5032305548359983 -0.63619780890952204 2.4926739413758594
    -0.60327081518827708 2.4840947389517822 -0.6600882814060719
    2.3829004007990036 -0.79690647063186226 2.2721065534095684
    -1.1086103607974869 2.3866991777765234 -1.5386052319467882
    2.5539427438784164 -1.8983460090138233 2.2748067345221918
    -1.5317359863865418 2.1198304433781163 -1.1511757496174182
    2.2587781280732009 -0.83157316656149249 2.1965988473008449
    -1.0489618045472193 2.2266388855070463 -1.2797923409999714
    2.2827112066852364 -1.3091801979799942 2.3360334191266849
    -1.1563741255199191 2.3878615521692255 -0.90423698336558556
    2.4335174375557704 -0.75292934877961881 2.497849460751151
    -0.69632836459692582 2.446421790277546 -0.75969884242769681
    2.3356051940467917 -0.92278985057702501 2.2933985940735311
    -1.240848298378546 2.4416782288888008 -1.6369429767302432
    2.5071171566108141 -1.8132050576290379 2.2369939456931629
    -1.4076969778634782 2.135033947114624 -1.0383598633973168
    2.4563346741034384 -0.6982144915995161 2.3046127373436684
    -0.91743879216504853 2.2262957980395788 -1.1757481738983089
    2.2670865138321532 -1.3079592489219676 2.3110905697780892
    -1.2761751284231946 2.2871233212022419 -1.0874149095999424
    2.3014514256035783 -0.94044818358565596 2.3334872196184557
    -0.86498842498590567 2.3194940694961246 -0.94974967145346267
    2.2728695708607645 -1.1254034882800523 2.3324457584085181
    -1.4489650912304854 2.4918992647920009 -1.757622822788476
    2.4689706533991154 -1.7432968823191832 2.2166821548648468
    -1.2724277322319488 2.1919273757460438 -0.92211069807821566
    2.852522851066424 -0.55924223368192438 2.4622727912235596
    -0.7782314746384722 2.2649681829038517 -1.0540661830576188
    2.2897701468863536 -1.2963088220711456 2.3241064567410836
    -1.3941083333559603 2.3024455105363724 -1.3437859032372761
    2.2744977401674182 -1.2244681732508615 2.3004494908057485
    -1.1702408242289017 2.3297389267071611 -1.2661794889131417
    2.351702627243466 -1.4424678854349564 2.4344196745749014
    -1.6801504401356242 2.5144351822302506 -1.8046255647879523
    2.3867324307389706 -1.5761071744520483 2.2415539104092281
    -1.1446199097883532 2.303283965127465 -0.8089698826038737
    3.3236126105891879 -0.45828746185100366 2.7179776760125764
    -0.65611091979599234 2.3210017062696155 -0.90989874607010324
    2.2827424648052612 -1.1938480790601551 2.3320180421540293
    -1.4314761426015774 2.3653194115105389 -1.5283829836885772
    2.3785904145229479 -1.5432644806339193 2.3697854244455754
    -1.5089904671517704 2.4615304130780276 -1.6224252838760946
    2.4997111129265024 -1.7304662171277949 2.4949074505455036
    -1.783099480005139 2.4018678581605126 -1.6314775382226736
    2.2889563063718539 -1.3472945319146863 2.282672746732703
    -0.98258242405189489 2.5073910412280447 -0.69953027276685975
    4.0974935195787534 -0.36785401696986419 3.0676760893973545
    -0.54031124751734916 2.4586606221692091 -0.76540192606223745
    2.2732590620620114 -1.0489570473180958 2.2740866338367227
    -1.3215091325229413 2.3788344889455271 -1.5658325030028137
    2.4364588499972344 -1.6849939852926494 2.4661657913175286
    -1.7332216826999471 2.5088979645925953 -1.7732820161878049
    2.5003217784337415 -1.7589196267615965 2.3765745788629937
    -1.6059022576170663 2.2863332520416471 -1.3763532311873823
    2.2539272415547025 -1.0875817448275296 2.3947721206511923
    -0.80647841641987972 2.7949497283369911 -0.58342984667076692
    5.0424247117401748 -0.28771620353356719 3.5841315351385292
    -0.43810336435608305 2.6644528133846261 -0.63214084967405326
    2.3084366080499983 -0.87027955147955616 2.198015764012982
    -1.1041741353568604 2.2614975302951934 -1.3540017829255178
    2.3520737932766607 -1.5563877059336846 2.4067694879157462
    -1.6722536779322845 2.4098640752604341 -1.6637700261237363
    2.368438698874626 -1.5471467060490549 2.2418397513860095
    -1.3075316327570357 2.2159379182966892 -1.0921690514366571
    2.2839529766144602 -0.86571709499956684 2.5684142649067105
    -0.6499725981581681 3.1285809381448941 -0.47603378377028782
    6.7177533774768952 -0.21320302689917486 4.3181501751249902
    -0.33210188261287943 3.0735648197183849 -0.48945167880033241
    2.4878342907915201 -0.67131138886699526 2.2616937114219415
    -0.84292928621724406 2.2074427260999157 -1.0465629831732863
    2.2005777626701772 -1.232747223046927 2.209731733095821
    -1.3414777476716346 2.2105042729739033 -1.3250246154208012
    2.2221666396127953 -1.1852200480103381 2.2243405591276968
    -0.97699641312998498 2.3082902518164321 -0.78380123393503165
    2.4945616247889251 -0.64154961201081862 2.8665546473021037
    -0.50168573289717633 3.5923546514199041 -0.37536439757161744
    8.0663133994942644 -0.15985426858916002 5.3626437687482076
    -0.25602036192349542 3.7900620690879645 -0.37682024969453376
    2.9170329431406086 -0.52142953070498277 2.4450492782217794
    -0.66805147048159552 2.2580990311228626 -0.83944667374804538
    2.1590910233341738 -0.99432600016637107 2.1211391348529345
    -1.0749366344316471 2.1263877280242021 -1.0549102781351665
    2.2125361811554893 -0.95919709724580682 2.3407598136586065
    -0.77827974292288871 2.5807653663761565 -0.60233105212908145
    2.9001585816031414 -0.48650313602341216 3.3595357883633485
    -0.39202844477707688 4.0341522785271344 -0.30904641242698944</input_scale>
  <output_scale>
    0.52631578947368418 0.49999999999999994 0.52631578947368418
    0.49999999999999994 0.52631578947368418 0.49999999999999994
    0.52631578947368418 0.49999999999999994 0.52631578947368418
    0.49999999999999994 0.52631578947368418 0.49999999999999994
    0.52631578947368418 0.49999999999999994 0.52631578947368418
    0.49999999999999994 0.52631578947368418 0.49999999999999994
    0.52631578947368418 0.49999999999999994 0.52631578947368418
    0.49999999999999994 1. 0.</output_scale>
  <inv_output_scale>
    1.8999999999999999 -0.94999999999999996 1.8999999999999999
    -0.94999999999999996 1.8999999999999999 -0.94999999999999996
    1.8999999999999999 -0.94999999999999996 1.8999999999999999
    -0.94999999999999996 1.8999999999999999 -0.94999999999999996
    1.8999999999999999 -0.94999999999999996 1.8999999999999999
    -0.94999999999999996 1.8999999999999999 -0.94999999999999996
    1.8999999999999999 -0.94999999999999996 1.8999999999999999
    -0.94999999999999996 1. 0.</inv_output_scale>
  <weights>
    <_>
      -0.9833296253850391 -0.51411886815665542 -0.039719573156223403
      -0.49308566091508027 -0.58550415477481199 0.12227465172660729
      -0.130968042006605 -0.0037242216741433104 0.59327655203735385
      -0.62969130454917666 0.38639172036570085 -0.49799452308349185
      1.120553368122464 -0.38445678930025712 -0.84837486217557401
      0.38751246763987063 0.18264831171677454 -0.34700624400466468
      -1.2410103270128496 -0.7322288536314393 -0.16550478056987913
      -0.41450522956610342 0.2691917276600726 0.75941716741776821
      -0.41518306748750078 0.45362235707194593 0.15009550937171828
      -0.30019117691385866 0.81489815033979562 0.37332124456853166
      0.21494227071211297 0.55972835287056522 0.16206844858506886
      -0.222215912119264 0.49892932999008155 -0.34402594962769661
      -0.019764413202665605 0.042396814522821097 0.3839170581292633
      -0.56628262940593133 -0.35132099709630332 0.098204519964841544
      -0.4585751604664951 -0.36237943969854458 0.19714320716005609
      0.42561659220803427 0.016627911989611006 0.16561366762784238
      -1.0387595971799093 -0.31648504823618956 0.84828291016698343
      0.36275285504910065 -0.72790736335168382 0.13054984289373864
      -0.39080231059406734 -0.35739120863847984 -1.0884563501479461
      -0.11967527138466837 -0.42919184084507317 0.19283168151760663
      1.0990869921162563 0.49988423633436158 0.4489041019022636
      0.22670252526596521 -0.47272375140796552 -0.71751467462620611
      -0.0064949827963957764 -0.36234467352707106 -0.11244955914115576
      -0.11290294890969844 -0.39732511283168392 0.53179573937652891
      0.096267572683449557 -1.4983299595303623 0.60171789018726096
      -0.49651491785749929 0.74396607953083704 -0.30306987526481233
      -0.2656050141033654 1.3064751563256014 0.2498199051146455
      -0.40545509678882602 -0.34554822611163089 -0.59250813440277084
      0.024367412476299914 -0.15212524102488154 0.13055945932719468
      0.63050686828672642 -0.34179302848041071 0.26266295979925441
      0.26383744375034784 -0.21685225040871742 0.45876188224569875
      -0.030613821477679447 0.39403508833476164 0.60630874242965949
      0.034723547732453057 0.04824428472997782 0.040569150017003917
      -0.23224955130667116 0.24415955628048064 0.3063140693562782
      0.41900430887354806 -0.32853354378378935 -0.026318672042168454
      1.0082350261468931 -0.44777700514749608 -0.097296164176982974
      -0.062809616987526434 -0.0083888433381972757 0.11194988631059971
      -0.072239633502278494 -0.44783022208895945 -0.13886627871697399
      0.8788357278401705 0.32531343407875629 -0.98087175880111999
      -0.096979392103681075 -0.24378024504668216 -0.33987859789067787
      -1.0150219415743356 0.013869234093003941 0.08104675330891449
      0.086720848725578267 0.75757604566751247 0.030528619599425759
      0.53278194497039211 0.6641003505811176 0.037946606917717313
      -1.0289565126602132 0.085523464133841612 -0.5080211847067102
      -0.16347304418629782 -0.075220516558611547 -0.4688609636176696
      0.49786832380916318 0.21550489865267508 -1.3917842050441915
      0.80632325899807689 -0.54794227702597997 0.84521615534220185
      -0.69918055344496388 -0.26149999068284252 1.4194802374501305
      0.29664160139804469 -0.18880754961353866 -0.076583470126116882
      -0.50487864489741396 0.087044274960383181 0.22729149514921693
      0.092407418924714824 0.2701832165694843 -0.10617329493822478
      0.47482803535639923 0.040702376866439294 0.0079584720879481326
      0.31117028530344143 0.15463635374648466 0.33769238921507122
      0.71057860409257656 -0.36201670257374491 0.26494271263682206
      -0.13027756413367564 -0.34149215370765446 0.34322745023230428
      0.13798476373177362 0.93632830001487599 -0.018886083517689313
      -0.024538557877963121 1.1664269585249851 -0.35246228938719937
      -0.090048060142518274 0.042160489183238566 -0.020633353778397714
      0.090562929647174717 -0.13739264346097413 -0.51318244714614925
      -0.16371731627266686 0.86031169519402007 0.36870854222376925
      -0.6522523374537722 -0.28589836351267128 -0.78669871908615407
      -0.14974321713025837 -1.2863326817435325 -0.084158078669430494
      0.43424751000643308 0.15480618303798574 0.40539091331798283
      -0.030849231925247817 0.41131350671868078 1.1721928224128062
      0.036231574538022636 -1.0936778620872429 -0.295873741706977
      -0.065457042359458234 0.11090687764667363 0.034742965175806349
      -0.44317162883776223 0.70592224823293981 0.38428491805118803
      -0.71080454985634201 0.282999895600069 -0.42711970086997536
      0.33389330793583383 -0.063330812806358106 0.094896873538323434
      1.275854226490174 0.57169944950087015 0.32300157643810623
      0.089927464360229262 -0.32986181316117413 0.339604825802304
      0.48447509755280338 1.1101195492257045 0.70074023182361922
      0.038749448700983936 0.36446706040789634 0.083867917116466656
      -0.15615706345072558 0.10465319508799824 -0.052639286274730787
      0.33198356516016309 0.078275685189459043 -0.38111033791915649
      -0.13482083706401843 0.074224361910045625 -0.90871473692448834
      0.13132799815613999 -0.21077431629607846 0.5241676533694356
      -0.14382753402860471 0.097724929722415435 1.1686277376919065
      -0.44191639852884856 -0.42451144258485263 0.61806619264977181
      -0.20458990277167469 0.84976588527841734 -0.34453974143407962
      0.25360352741342029 0.37573962009222517 0.94985269709210873
      -0.27387035466490783 -1.1588964763303899 0.32822898363316239
      -0.16549718997285509 -0.15443660294641171 -0.4533644157401131
      -0.5597571438361294 0.15137078696902756 -0.69014059580727316
      0.13348435515360993 -0.099909830995126819 -0.23611883235293116
      0.47075592774781011 0.037784767695161259 0.41709552145725964
      0.91252739463636146 0.68236075734413115 0.52524942751078574
      0.38443424468453347 -0.21652442366194433 -0.61817282509535221
      0.050848246130255466 -0.87369754520418408 0.31610835446398516
      -0.38238443945040446 -0.052390929328814777 -0.075314602322578209
      0.22033142538022582 0.33712167214747019 0.77775028209462049
      -0.17009576661949971 -0.23654566661131066 -0.49973819833166272
      0.40441198595420336 0.39016289492866552 0.87393071574546233
      -0.062621349756300473 -0.066731059527146294 0.54870029766369677
      -0.49305049110473453 -0.24479633345751195 -0.19356913490271829
      0.46791000979789327 0.1775265588739163 -0.20034854285986942
      0.046831358490155614 -0.1898047857546897 0.91926504495935446
      -0.80853527996265784 0.42712182822272138 0.052330791376519845
      -0.016754420622443755 -0.32153319290662258 0.11432757872412455
      0.59555359890876036 0.66599952943727769 -0.48463435820050854
      0.83828703431023599 0.48278360695084827 0.21243372334753646
      -0.31807130708948395 0.30740940513644183 0.33795266592789353
      -0.054656038720857628 0.050234290527342233 -0.62333189979681081
      0.25955085875435424 0.07679958654933805 -0.057234459138942734
      -0.22751317961487813 0.13277133030985305 -0.0054168718035133923
      -0.79919506167053522 0.28039927570419276 0.44019982100633692
      -0.46786838649836376 -0.027862634408509467 -0.32975144437853476
      0.71398368010947655 0.14011910041241721 0.77021654841196929
      0.44301275481139152 0.44170657487936948 -0.41800379669911997
      -0.62305609212746937 0.10264734526848319 -0.45618837393565287
      0.088979716168082604 0.058671607473750186 -0.075809616585544831
      0.063754167146176918 0.52396583499641103 0.55876227372938758
      0.19511648742622659 0.27213589843959701 0.037159530484578804
      -1.0353201565609729 0.010434126219427587 0.69704374450711515
      0.26571947904974769 0.2424577639969813 0.45146596655558513
      0.71472977075809796 0.39492486325750137 -0.068174628203303209
      0.061928749692828779 0.12329582101830816 0.011573482380213069
      -0.24997520876129475 -0.058348728755112482 -0.33589072636516021
      0.81263272761183947 -0.6269323471294066 -0.27386385413864017
      0.081980930532989243 -0.21959996460245762 -0.37480592753191766
      -0.39783627392445209 0.17540975415854101 0.19277105977172951
      -0.54389366438164233 0.8225652199685527 0.53754775273018485
      -0.54114871239007489 -0.67793570005192094 0.45905223400476214
      0.45840171249335582 -0.25378193529745208 -0.932055270467819
      -0.22221062697970256 0.34750438502451209 0.06273726605299762
      -0.22934975465062998 0.033222190209913634 0.020136146551058321
      0.26626502725237394 -0.29192649176300428 -0.26667006788977499
      0.48198935958958056 -0.67831913904117791 0.35041806051188601
      0.0042653636179031604 0.6569919978573513 0.16545727637956006
      0.90363164420747988 0.15541979788988278 0.25380217938579847
      -0.51349008381266537 -0.23712486573686056 0.21214752774723925
      -0.12339343228725019 0.2016386421081828 -0.12197078869022347
      0.27154453354831226 -0.15305149377876026 0.2370559894472381
      -0.06958927099649935 -0.14713327384747263 -0.19604978828238551
      0.10781304339860069 -0.53286399750415669 -0.12053002202872949
      -0.98136510990241765 0.42484636148140487 0.41880376079603271
      0.24766825522413011 0.060529247865445703 0.03142822677616039
      -0.31238461516761701 0.021585479727743759 -0.039183417710576464
      0.15227715463108821 -0.265506675750666 0.038847585810665768
      -0.21487919473071132 0.61174300812961846 -0.35151190489519879
      -0.25989878714422066 0.16086538449812016 -0.17813094853769848
      -0.20775645579980495 -0.74077531220976056 -0.075368904717176666
      0.17490819133680988 -0.2407457195471189 0.66462638366042615
      0.18517524985521117 -0.51334742155696378 -0.25743404982199253
      0.64329374552743568 0.33924372769970002 -0.12907120038186987
      -0.34110041016180731 0.47390403984395074 0.10182650426638992
      -0.19535375048669501 -0.078275617618588825 -0.083963002849787305
      0.073230588126639046 -0.062644802490357518 -0.030386033698135355
      -0.26180587777907072 -0.19613845917325387 -0.15356843571624437
      0.32062957182926566 0.23285856978619657 0.62501077780385872
      -0.053290999350414113 0.94187001908711776 0.14729009130318457
      0.13739129313418919 -0.5228002196756294 -0.81460679182438533
      -0.041142678718458614 0.0560580866640219 0.016245937851135824
      -0.015902726209699566 -0.20853238243318764 -0.17861171455759692
      0.090804469623343695 -0.81591712425215124 0.024680919028013216
      -0.36477974998785773 0.36005736719712617 0.1449476644580989
      0.18001529803787805 -0.70125785671009755 -0.11464365281243241
      -0.35188416601317402 0.21317217907175673 -0.12251659751068296
      -0.48555338955781852 0.54377822462460479 -0.76200585438759727
      0.093582805363465513 -0.25470233450173235 -0.17261909857143232
      0.34556176655334736 -0.21894481907061994 -0.12088573463122683
      -0.026891905468436134 -0.37940202343619295 0.071506248319540819
      -0.042727466241585167 -0.45500296477127367 -0.17844731686723284
      -0.27728967737566362 0.48242837076987316 0.33989957560116207
      0.51662853410872822 0.13996489422407654 -0.20363558774414939
      -0.40769256208479659 0.79167601573233337 0.30277884021469498
      -0.65062301583109106 -0.1930336375582537 1.1815436798824912
      0.10138404741380515 -0.55533268718285878 -0.029625874831922843
      -0.08584346993742438 0.0063117833071076003 0.1868426898307384
      -0.084226605570708338 0.092521379012242388 -0.1900455521451247
      0.027404314474070747 -0.30454973792573431 0.18452029626574951
      0.69747903469274863 0.11416336829041557 0.85042160007319523
      0.018219014087047281 0.016021758465714471 -0.52314559799497706
      -1.0947329882446186 -0.092036267274928599 -0.20516820768074717
      0.12082897864875308 -0.28912792890005817 0.026825060101549645
      -0.045612302827223498 0.0092539349104251694 -0.46022682268521631
      -0.0094123526726617914 -0.71082805553014305 0.046389128404265928
      0.3445001102092875 -0.21111307531956963 -0.55584114715494903
      -0.37095297887716788 -0.24703182094214077 0.35187292707129209
      -0.053401947390837187 -0.47211898233680083 0.065636975128741198
      -0.61372184240156047 0.079505096049514321 -0.058588338359149436
      0.039693448574163445 0.54571635889024916 -0.018706669459049325
      -0.22699247470034423 0.29882155797221072 0.18206642855204863
      0.26138935513903455 -0.30152865851130628 -0.51723707884409464
      -0.091910316433580191 -0.16249912763134819 0.57870205139279096
      -0.33645497604031616 -0.015468615525352837 0.15154813385561042
      -0.43631009553251304 -0.13523555899643541 0.17906809088953624
      -0.075237416254595027 -0.76445950807211616 0.13082601102733799
      0.52083634727500161 -0.090327978918456453 -0.67182643238554651
      0.19096988038053789 -0.34139633490611199 0.16173323502397302
      -0.16726536149710919 0.24089925108213922 0.49453508261348583
      0.068013545517853588 -0.096653692696769059 0.013865836404688515
      0.49673484034321846 0.50673364812458976 0.082016685791611407
      0.60921258835216396 -0.13755836172607724 -0.088532606860211735
      -0.048168792137586368 -0.11301963176669046 0.38721360107859143
      -0.013636123205638607 0.25294351043303098 -0.79642319033807907
      -0.073898220912891791 0.33360681444108503 -0.52961413652791745
      -0.11413756234661847 -0.20886169087528178 -0.44216390094362934
      -0.11756597975240726 0.10694751039883456 -0.25788314512288801
      0.42128456078937571 0.34092361140388294 0.067385063188460423
      0.7384966836139556 0.48084636507638884 0.11353408644880428
      0.011979887782326259 -0.20280639694876726 -0.66996048649615636
      0.18079874741845489 0.05988042494377091 0.050527621472724611
      0.3552662059336788 0.14759465464157762 0.22871766390362519
      0.51083752139547522 0.34214601150686008 -0.21073789733194551
      -0.48422822514248015 -0.47083039885893246 0.15034616489005895
      -0.071066296641715598 -0.72653179021631065 0.13605228378289205
      -0.067252310486778766 -0.41445773495185734 0.091071946240819046
      -0.15464971585024556 -0.36459401864300134 -0.25060738151357981
      -0.53941767762638471 0.73510859008906071 -0.27658930777837032
      -0.77249340550412571 -0.0061426282546103257 -0.17710487308938733
      -0.12262044222266016 -0.11182992330625821 0.4356261360849582
      0.67420934652928055 -0.089336754291517106 -0.22608098582856218
      0.19876368087950907 1.0247980297904768 0.41127121871605621
      -0.07911934002490674 0.74282500933221296 0.19420798627995867
      0.2944396134047661 0.24998046797590931 -0.63174468121547411
      0.43198697158134886 -0.091177587783107014 0.21776741473853711
      -0.75763916672855591 -0.05162141989886411 0.2821542778769266
      0.29244451298094098 -0.5144444453596837 -0.085685459496308486
      -0.45073415914424242 0.16099819870282966 -0.23611332972195465
      0.16299112446332026 0.76238418516281226 1.1869237681307592
      -0.084082086538172535 0.19562510053362644 0.7354765264737253
      0.059917364803384568 0.24047484539003061 -0.71011264769304927
      -0.57361562469245742 -0.068864462246319966 -0.13410791400887573
      0.1624912391120619 0.131979626735474 0.31300400829951192
      -0.15031344006524144 0.86484750524029808 0.078290589095307769
      -0.080875032758131141 -0.73125264360070552 -0.46692695120160249
      -0.2993199810446931 0.029420037583307957 -0.62206114438636062
      0.31002530752867086 0.046911759712120069 -0.28342618084981358
      0.36439567653771932 -0.34188583120403665 -0.35277438868426886
      0.2761114604058445 -0.59251789623673268 0.12062812258786672
      -0.048034366099894581 -0.24323929243271364 0.23888279729138975
      0.017395795646078505 -0.060199924860522731 0.44205780804197881
      0.35260785424037733 0.77634336205123144 0.40577617436473207
      -0.17756270924900749 -0.50617547566017362 0.8144773821166591
      -0.36382108396601465 -0.45324977733115296 0.37129806338993387
      0.079094903702928987 0.18104946138617961 0.094806808913952517
      -0.18486428725964368 0.56892041673900196 -0.074346159369520243
      -0.17351156061187756 -0.38019210670898151 -0.10934294020262418
      0.1985334263699445 -0.41400900337683283 -0.37853580292026517
      0.13257525873442583 0.093377267206938036 0.092552026061725662
      -0.47096928923151182 0.3607231875562607 -0.086676721489805736
      0.95674120402425145 0.049674073566180359 -0.001195845054302659
      0.86093869480405649 -0.3015718015213581 0.28082079495138851
      -0.42304631280350796 -0.90723011608587711 -0.43203852116375879
      0.00095843139494155877 0.14593781846185266 0.2426337337909393
      -0.31164754899675656 0.21883804441752092 0.20499201932555275
      0.023430008147159256 0.38305893345012287 -0.16690377191590428
      -0.12081884760058029 -0.72653034091911461 -0.089185465810680445
      -0.28044050920572161 0.26066480504495115 0.16958007693516983
      -0.12775276101696884 0.57190097104999826 -0.38923046392986127
      -0.060806904045570605 0.20071702794205956 -0.026649794289391949
      0.027613008843392989 -0.19619009605530138 -0.31857874453904883
      0.17866528604054044 0.43121750323751784 -0.11178283555215422
      1.1819199043027362 -0.040333248034404391 0.29066371490698395
      0.3437216496798764 -0.35711821984039971 -0.50635115185629875
      0.42567213757055994 -0.0065321996352209156 0.32961572136705064
      0.38719869662598877 0.13019790883020102 0.29394243180739521
      -0.043834970447456524 -0.26540563144679546 0.64123380750577863
      -0.24708632027120667 0.29853574545151224 -0.27955737849621237
      0.46675121844635931 0.43028519288609857 0.12188439116038559
      -0.6155099961079129 -0.16225296242016535 -0.054156872526365585
      -0.60602838064855435 -1.0716306500314341 0.4524555755905007
      -0.61228622606821437 1.91437192339374 -0.33815784703953916
      -0.020605844381103151 0.95866577222185068 -0.063147553437447518
      0.13801938103584308 -0.16952623984127671 -0.077017338428206836
      -0.20921107998929425 -0.11775490523194378 0.26860980805380164
      -0.071020897926984253 -0.19723814153828997 0.15041121269357041
      -0.30800263863196775 0.52102623537681125 0.60794682989576943
      -0.20519073475761671 -0.52560656641994608 -0.48878408628626779
      -0.089115053936560162 -0.074211350162372861 0.27879920623371879
      0.62320860327033489 -0.59799278387934574 0.48111347304217345
      -0.58836484071369377 -0.24174408740750331 0.44076858842074718
      0.21898549448514931 -0.32650315331385343 -0.20849215828486259
      0.31114843571161516 -0.38202173968694098 0.62940768561519966
      -0.046717409835743191 0.56837154643040155 -0.31032863573940728
      -0.15147224465717565 0.75922945388002538 -0.053769474848306735
      0.63616645378602865 -0.35280569471549983 0.27960081445942364
      0.54050894099366464 0.17677171320347732 0.18671261222295923
      0.27471685240903043 -0.12770659198495113 -0.18213545670484366
      0.95274623166465788 -0.10204104448475186 0.69221995152032989
      -0.52474798432344194 0.42875770534998625 -0.087180097130273818
      0.32954524934365137 -0.63938175247310547 -0.24883426410812448
      -0.063801472111036123 -0.80707960636166343 -0.96400935506285368
      0.57158896227568945 -0.71496492624060881 0.95645573331282552
      0.040263298493435941 -0.10024761034828671 0.84386146855194943
      -0.047656663904075636 -0.23070842584167134 -0.092154545643162944
      0.24387124344150804 -0.17782139518690152 -0.072504830542169107
      -0.058074235656837954 0.32015569611690098 0.052250948274223413
      -0.27091579571587826 -0.48192759763444992 0.47109989524638252
      0.46075538068807326 0.10683323139251104 -0.57636209109256664
      -0.32078026745430349 -0.04296161878363243 0.097267651599902166
      0.3807490171444935 0.65448672307374556 -0.65375233166934865
      -0.1785249993493789 -0.79416592288380383 -0.18367486959023835
      0.93946672115452645 0.43885255856600514 -0.34597997012156534
      0.13755752143716585 0.19690759899955348 -0.32514564027610038
      0.42663486758396396 0.18135252797355489 0.51811033491242919
      -0.27316376626052996 -0.023240081180055445 0.88245586816760213
      0.0059239177026488921 -0.0050979264448881975 -0.17715229273519198
      -0.3298770667807433 0.048818764768316127 0.0084217578048205507
      -0.13312316208142846 0.10933138623535554 -0.047764879531691957
      0.17501371934616511 0.88760774383549934 0.039735334118908561
      0.7208454464255617 -0.32917401484964659 0.48689297992655906
      -0.3492486615073977 0.12426289302668797 -0.90142667520403597
      -0.59115654623132563 0.04684741916825752 -0.76890602476228553
      -0.60654409319550462 0.52211781903486953 -0.58963886726165671
      0.73959978286712025 0.13799262622965497 0.17211213576319756
      0.86058649554738575 -0.56275601185492408 -0.25494925928199386
      0.0075333463262064419 0.66266402953343473 0.25010934395347367
      0.51321087245057195 0.030521267196093233 -0.038431540603018691
      0.54857566017613513 0.016340249346214031 -0.33448020042023674
      0.23082964330674816 0.83864787967095056 0.32277571505146463
      0.14051078351846205 0.27282488716934539 -0.096390725367657096
      -0.10123629697742717 0.4876619572163543 0.26686795134368535
      -0.77136420236993275 0.45492691449920969 -0.90168679074485347
      -0.17072333521445332 1.1510612540035601 -0.012704954551872627
      -0.081934674568614821 0.46210475587938615 -0.23491359760139779
      -0.2257849440388506 -0.033855757568437443 0.44990294792150431
      0.53446042609337452 -0.18905372989760721 0.55822256097591594
      0.5526516011173801 0.25881882769941972 -0.21126397361457611
      -0.46488109193981131 -0.44288607812808256 0.099321409734388272
      -0.57175342898281212 -0.30545608564446086 0.076500184001525903
      -0.12404498242580726 0.31717958757632098 0.20955483086112495
      -1.2093614393341168 0.65207185351224561 -0.33670558503719972
      0.85987527615178883 -0.025297268748508382 -0.46978521588070965
      0.35939119431617217 0.2067593810250842 -0.52189807594460413
      -0.88241469532818795 -0.46325431449083027 -0.17731298477857399
      -0.43545590637831016 -0.14944794758446514 0.6698714193299059
      -0.23954688355127648 0.026741103989286127 0.23755479606097141
      0.021192477922893374 0.44433716454141076 0.44525006695540159
      0.21531031689887917 0.49518914119445506 0.19443228720493499
      -0.1132209096930674 0.20943473579006455 -0.24258072252308191
      0.087569633652446979 0.1956116921757636 0.092647118007340198
      -0.49788346190863425 -0.22041862624214806 0.18113192041392742
      -0.52064865356862877 -0.13382813754439643 0.16382915021111519
      0.18589395368748707 0.082059300970024465 0.10365120700439073
      -0.8037447688645688 -0.24320022540212047 0.6577003101043829
      0.54270906533233443 -0.56067170962065294 0.017636393479318571
      -0.2340312922311992 -0.29314758024098564 -1.0182581172289376
      -0.060544685002915974 -0.52840974641065264 0.046914305542978249
      0.7760214697403085 0.30769731680271861 0.61940874201360752
      0.3517836096221667 -0.14474416031543194 -0.80762904915005818
      -0.21121480998937062 -0.66567394781794231 -0.10744467313081699
      -0.37177331304988437 -0.029071570265779625 1.0604970380696388
      -0.18344533768520468 -0.9727582807179973 0.39711738271152897
      0.20549834071410103 0.67873171347633432 -0.42070571473141577
      -0.6491748239219165 0.94036874542352122 0.29266140220051595
      -0.60011623781912049 -0.075975615383903114 0.27481568933069606
      -0.11949071258545246 -0.22559252591053114 -0.78582708806898671
      0.68851553309359781 -0.24206453983244883 -0.12925497362951044
      0.1028435558640947 0.21018411569947865 0.1181012851086944
      -0.42960755395413869 0.80007753078367394 0.58731075288570866
      0.02664758125804775 0.21602893293367739 -0.75687279829969345
      -0.14929305848838095 0.048991655813923306 0.12434051919342567
      0.30605739316851216 0.22703892618152174 0.13312740966565748
      0.6931011610799459 -0.99535455474970347 0.029718134219994922
      -0.25832103686258845 -0.50222702849628886 0.43538585642349148
      0.14131143837478349 -0.004530638344804932 -0.04462401519990896
      0.58185438772107556 0.22104176650932997 -0.68216279097938171
      -0.16677925139973823 -0.47539580484842686 -0.20271862958591319
      -0.83804110005667576 0.039054799139511147 -0.36108601060102091
      0.19966554059511366 0.49063945988508662 -0.52064092787832017
      0.46640661327220617 0.59535180991882364 -0.03941019137513662
      -1.2242894813164733 0.05552434354384439 -0.33118066197036916
      0.10245825699651231 -0.41006232780106666 -0.16979838034573036
      0.70949067993055404 -0.17932953437610025 -0.97836242127436379
      0.59495958883477029 0.14192742645973247 0.81072990847587711
      -0.86545007644372929 -0.73327855775942863 0.90643384555154616
      0.37119450307511287 -0.43115901293958497 0.16432540341788718
      0.49509530869342933 0.073038317863050276 0.50719978438752489
      -0.51273327193027218 0.27564509320879677 -0.0049518885797825499
      0.41786393779971787 -0.56912222960117342 0.25282645930855585
      0.095653554783960093 0.29700378441580677 0.90892736278421704
      0.69482067271675008 -0.48606896668781463 0.21427881243153832
      -0.42120871165803264 -0.37839162893250733 0.49890036230296081
      0.076309664269934546 0.85305668191162587 0.5645014177147436
      0.13931164024781298 0.99026870576986836 -0.59275837779053475
      -0.3326627416595761 -0.53753186228535421 -0.66248507671997037
      0.4406736252532974 0.0074073155220462372 -0.038479165500460329
      0.23977895538620919 0.49925138641502331 0.055983403334070009
      -0.47556405470192947 -0.10133197532871389 -0.90420412151567131
      0.099265709381482492 -1.1076017439577526 0.18369969799852029
      0.62529015430423107 0.48715493272683225 0.47047052367984188
      -0.74271103135213634 0.10155675827216171 0.92516456173019801
      -0.14040291613531139 -1.1895861441919156 0.39354453967791142
      0.40400781928826007 0.3326334938608933 -0.062697895163627462
      -0.14940746541371228 0.84553941152608403 -0.037249568571107616
      -0.28424904423965508 0.14134748337375344 0.23845786903993252
      0.41164421576683208 -0.25087197390617438 0.14543792412843587
      0.94918592705487459 0.46660999842390816 0.1664930149149374
      0.40777150692435638 0.3623928118831154 0.29897165295022676
      0.55067664977968922 0.023332456861283806 0.55134727813945794
      0.29673644600219995 0.71897307834769941 -0.41313387783282846
      0.049763873082896551 0.0892376749748231 0.33273567447089991
      0.83121661702819738 0.045329268646153428 -0.3595986029886481
      0.15701938883296793 -0.044948808606387329 -0.77598840427577476
      -0.0020243365426961361 -0.2595291046151566 0.61851838973286866
      0.23801457518313915 0.20360607326050961 0.78755329115235284
      -0.34567644722236446 -0.40536470952654868 -0.14500367404933429
      -0.63317512197782866 0.87383629908310456 -0.3840406895667699
      0.42355620948079947 0.61942616132204753 0.56182451563306424
      -0.072570440557168103 -0.87485432789340289 0.50089175486356896
      -0.29079082078614255 -0.021641571915723218 -0.35853470412777189
      -0.053801072157486661 0.28716273020026145 -0.054776528860185011
      0.2732956293025085 -0.6873349488857996 -0.41132739938068297
      0.29764320197689675 0.08391374926276142 -0.82831914725509714
      0.10547361896582055 0.87357563184493259 0.56521510615314952
      0.21243697296255176 -0.086585869993309403 -0.12078406556439
      -0.16133207128249669 -0.34793454947187058 0.26057736106683271
      0.31827479185683888 0.33717734623102874 -0.046194567376211512
      0.12517689327363737 0.34611676110446199 0.37228753056202046
      0.25421488913627016 -0.13764380314865818 -0.060475631759191892
      0.23914505093406871 0.054805858002860613 -0.11768651216523601
      0.17981873798070958 0.12088594645694369 0.85596778058466205
      -0.17743330277839711 -0.098986841602748329 0.19801553159347923
      0.099156170323819973 0.93565409231466246 -0.3890507068568424
      -0.38716843319336447 -0.046975432052176996 -0.1591426135920416
      -0.93107720239391378 -0.44381246990541268 -0.18643044586725194
      0.21309682096611707 0.019084868895471743 0.18849645044012653
      0.31085767733991887 0.19252147782408185 0.011358414916078859
      0.69689522799262771 0.19378821107508409 0.66634824977932716
      -0.31320349241753098 0.28029448250989225 0.40196744524971195
      0.072493897043059558 0.44453964856577788 -0.30255374961485249
      -0.022207643163295321 0.18239787845675548 0.18180610838774797
      -0.49006191734652477 0.52763015844694694 0.12635268327588911
      -0.45814627979289224 0.11246117382708583 -0.28546597270860946
      -0.041443268058607055 -0.10845349040881259 -0.056557871817112831
      -0.35590783789064029 -0.3510560456176095 0.4030393149324249
      0.44187072026382884 0.027155845320229997 -0.15707031768285215
      -0.27869172987493168 -0.12412888099541376 -0.29172537418815975
      0.086677508020336955 0.21273187385531023 -0.087606918664509731
      0.27467590621774901 0.276282288173889 -0.10192263539308093
      -0.17419613347263641 0.17121229065127919 -0.36551393028352891
      -1.1460909590807069 -0.033343880083285225 -0.01242381839243888
      -0.073203596394636902 0.70431611992653798 0.37949957358359043
      1.0956355376843654 0.3245654622106251 -0.33347211360328038
      0.27696272782579573 -0.43345396453791607 0.25664716126010634
      -0.53459765369913814 -0.52329330572075206 -0.064624977411777751
      -0.14492487162300879 -0.87630969089263944 -0.38919280830204073
      0.088645692877128285 -0.064157116354562199 -0.021808902581371265
      -0.4939999994517249 0.16562920729435646 0.0060768631350013496
      -0.095038247111668694 0.71072643376256717 0.053631575634156027
      0.27146229104545239 -0.40844593728953954 0.081085877271910606
      0.28842856066793743 -0.20763721872215454 -0.29833974567751476
      0.04150768336659226 -0.078770991192531878 0.43773254152884089
      0.14677538946254046 -0.17484000420015691 0.34988384337642559
      0.42737498363438609 0.059076007554717848 0.084331006351978863
      0.44486569899114148 -0.08447063779548146 0.36496129062338201
      -0.14305256433681202 -0.010788695787650229 0.88177875695356123
      0.51069957091249563 0.3209728937270927 -0.042512485614253283
      -0.27966882839412988 0.13299805768880024 0.047258601652271248
      -0.2260590513547005 0.19251991827560827 -0.71729221806749655
      0.25236626777398513 0.14528658541140946 0.13958863466348409
      -0.55606848745570125 -0.66744611092398654 0.056012686715246625
      -0.48185995670193149 -1.0411170487279027 0.17127744885508053
      -0.62435117481968083 0.53602922915267837 0.32037894518902399
      0.07565267453397756 0.68749450937981427 0.25922689432343904
      -0.32148862274332457 0.1049407329853851 -0.11205076162576338
      0.00056915955004204041 -0.34756637541732538 -0.18613881001411675
      -0.16205554068577402 0.69673172173489484 -0.4909329148113592
      -0.76285966226992241 0.32533721107303121 -0.11435357859372448
      0.060916530199346022 -0.65670147261394496 -0.078223040643857281
      -0.049305442605846864 0.66387881228121148 0.55424718589060251
      0.046722857279267248 -0.11945307047175556 0.032971643889258682
      0.17465439361667268 -0.013906833269715984 -0.074527858571293543
      0.43971339766206324 0.46721327587990386 -0.23927038728204914
      0.023213493943970851 0.041865500869055522 0.072491669278119619
      0.31211372788404301 -0.41380004926267722 0.1560448615004284
      -0.40454797194032971 0.29005659602900774 0.23200090504358237
      0.24143581444824735 -0.0011223017895045078 -0.37633452566565462
      0.50475361166378097 0.57932036731443726 0.42434468227007888
      -0.17146079473289635 -0.24665447449425901 -0.5758059101727997
      -0.045986031672227992 -0.098723604019643418 -0.040437695843843768
      -0.57720240216201457 -0.16820866717404201 -0.079695252453500662
      -0.036904392039653143 -0.91969267437520508 -0.59818484092805846
      -0.049239378863171021 -0.099058041498244986 -0.35523741904478029
      0.42275403445249909 -0.29924482658130763 0.14099018228270188
      -0.41089882850620618 -0.1016764470242999 0.4560727153934227
      -0.12016639990315726 0.43373742924073849 -0.65048620398806556
      0.04411501249732621 -0.4005589736714244 -0.25851162795176169
      -0.23877343153428043 -0.5226703157645024 -0.063716942510827948
      -0.061404143310853324 -0.95771214629609691 0.037816572976556467
      -0.088217076967715871 -0.18894057506600825 -0.083230031249133932
      -0.25917985732129484 0.34172236848486087 1.3135154972588681
      0.47572919800485536 0.085445948814182687 0.01458051076263572
      -0.058036369837008175 0.51272421694247627 0.035515373616116355
      -0.82961457396410931 0.58470798299236382 0.98806206241213934
      -0.32413817880628931 -0.2803449636404563 0.14122818730381898
      0.16876117344410371 0.3710919504112849 -0.70002561241765371
      0.025017312343263896 0.074924151031130648 0.2401790095906573
      0.41189721845155236 -0.27622118245528232 -0.036934366452729857
      -0.42407126355997204 0.46823584465163831 0.43845924257954033
      0.34403642246731653 -0.23705326536878649 -0.25067943996896397
      -0.84979587069091411 -0.080450474510736752 -0.39989033466388962
      0.13475083256689707 -0.83860239833179229 0.088328392667505029
      -0.046315603654274139 -0.11634923912525347 -0.62964101592012045
      -0.70430939522881109 -0.40966826870867173 -0.46458637142676723
      -0.11072343832618077 0.063240769102414607 -0.055713702442959853
      0.093301241233425189 -0.52147550415890853 -0.031569900173083712
      0.65676839844303159 0.11689563546332651 -0.12306478850095599
      -0.43081623332029184 -0.052392860715834065 -0.25218536376521627
      0.016734823892544493 0.012612908570530894 -0.41557526084461988
      -0.15178405438429882 0.0612081566817234 -0.35354680185588244
      0.088340808318723194 -0.16290577326189204 -0.34536438390857821
      0.035411562687790651 -0.2048414861964 0.39021052322381983
      0.6320250976763705 0.14002590965010803 0.19080754346884485
      -0.24851138759734442 0.34543279611606115 -0.12036383589633257
      -0.35817601268313004 -0.99990730379946013 0.77285481694661906
      0.30225806834504843 -0.30669820244159091 -0.25297869797206923
      0.43230244598452139 0.17828202645697946 0.47681418080357374
      -0.79655334989573412 0.32433407087148652 0.4780164964672346
      0.41863716646312765 0.2856320189559643 0.18011541213127885
      0.19632626787677199 -0.19802101706595757 0.44782277347195382
      0.20597372019754087 0.049270914432657464 -0.054798474708395786
      0.17453477822253269 -0.40494955094822721 0.39985307745040549
      0.090703942221786363 0.36294448857618916 -0.79359670101119129
      -0.024164972424934254 -0.077363574848922298 -0.64487077437462481
      -0.13463476183653125 -0.39821192510497588 -0.62425180017950155
      -0.35043513083954997 -0.4522366320148461 -0.27346154675953577
      0.0267885980065832 0.36374912506575985 0.029658135481155371
      0.40808240094866 0.99417348806594086 0.18978708385265872
      0.30515097466952312 -0.28082529753787677 -0.6493572873199368
      0.14244017285954588 0.0091687842943048055 0.25552948355071486
      -0.16908032531311951 0.39329520662285056 -0.0031271761675848689
      0.2772997621790087 0.18376197420576118 -0.035693311335224159
      -0.10596327341269718 -0.52531991828828473 0.14357347393764236
      0.10228016983016894 -0.55313875080542918 -0.32908169239716489
      -0.049102126791816574 -0.4119425982045512 0.45540378765224809
      -0.35567608200908252 -0.59734106780478291 -0.30094193412900172
      -0.11730174900717699 0.34926358238165306 -0.091543657080326274
      -0.76764445553876837 0.068457075375170928 -0.36220735164257345
      -0.21575529291745543 -0.19079746718374946 0.61813546632490413
      1.0718943992196885 0.10299278433895165 -0.14496975785671351
      0.46293687426394048 0.51915597904822841 0.21615198685894402
      0.40876310364250101 0.63917037376731722 0.29721588703157481
      0.47332953726644195 0.31660959585359227 -1.0103196066172122
      0.46092688179790142 0.14557703624270071 0.24851476906182293
      -0.61917658711850654 0.30851920110247855 -0.064097211932910583
      0.24081047205631054 -0.29141509665193177 -0.044693510274314029
      -0.17488497561934482 0.13896441174349491 -0.10754220424520368
      0.1713769705730484 0.93211240288689334 0.8544736484035047
      -0.33838901867259191 0.19624041558259742 0.998276033320742
      -0.028602620631321928 0.79456457989541229 -0.89617052086756033
      -0.45008229145632683 0.097629159974560745 -0.087781195148710175
      0.5509359741540627 -0.14048234263888068 0.64865833887433744
      -0.33250911109053971 0.31339794786272207 -0.061716702709582516
      0.079558519269594105 -0.27592418960276816 -0.43732828713597055
      -0.2016192880185442 0.030890912929233568 -0.39292446331749481
      -0.20456861938060067 0.46525050976412291 -0.45758810938049072
      0.5556130308930104 -0.18239673610338386 -0.35348464428375481
      0.31584749307838461 -0.54295685642895208 0.20854184918339336
      0.24192839078774905 -0.44777419894611115 0.063512412379911842
      -0.52226064768806535 -0.01733679426948033 0.18283266592508948
      0.17694523783874214 0.71230813557053219 0.14402751714719994
      -0.20726486349630022 -0.13538231728293765 0.56342213652301554
      0.23200348732816406 0.56926360105354112 0.57105955532010633
      0.18350283022920139 0.49320033730030705 0.44909232073557914
      -1.0856763747150175 0.59504328912172366 0.12961962761290918
      -0.16716734797339722 -0.50634856093458558 0.2669393857070248
      -0.07886222168306492 -0.46179130957278341 -0.34263981450682568
      0.018136124245352329 0.14301667931132303 -0.19363265006257077
      -0.14850850883616259 0.39704798280694287 -0.33469573720755452
      1.1600617341845145 -0.14327925222047541 0.0097191936072265669
      0.91689011723538538 -0.64566562372870229 -0.19345976580726049
      -0.54412301291720444 -0.43284611187890332 -0.148702187927127
      -0.21740595275162397 0.26922042857423067 0.28935306538874495
      -0.11181154664587317 -0.32532995599243925 0.50400312772245526
      0.32389419413709492 0.71166087170567671 0.14619717688671402
      -0.40598223118337734 -0.64512347146497384 0.17610456291211291
      0.03384455514500629 0.11203448750322431 0.45245254524447398
      -0.52595243571949912 0.53171331450898751 -0.13163546731128276
      -0.012015109061924602 0.38454676878122851 0.31950193273375943
      0.11964543282658316 0.07930287976742191 -0.37910318241669649
      -0.0061320778145980467 -0.067810703467186068 0.10609360153661282
      1.4065721920484353 -0.021419163708922561 0.57221084581653647
      0.21821793459311517 -0.18693802931710413 -0.42352244815087708
      0.14894640575867585 0.11400401228983675 1.2935610504183574
      0.59313209313345161 0.17700018941592924 0.48246061492457221
      0.33212068817829327 -0.54157792785068881 0.7433723827912857
      -0.15969325018660169 0.2456208352608413 -0.61652044044656229
      0.84795099070347701 0.18340751264962984 -0.32344099065095916
      -0.48415218334729987 -0.42826120177060711 0.13771078572463438
      -0.79606774816421166 -1.0078200200092251 0.52833250177212365
      -0.82346377901525902 1.8574130788843868 -0.56072817442392842
      -0.10308595668446911 1.1297078594399188 -0.30263010697090653
      -0.40881762820634021 0.018498509385181182 0.24498045436351809
      0.17549920305870259 -0.19867207434602585 0.14422417102825752
      -0.10798625790807551 -0.3391652032605405 -0.40607004038954359
      0.16280209881791155 0.55811505466331768 0.74229480368914524
      -0.15380766278546079 -0.66236435713573827 -0.5112150070623227
      -0.17482484246946139 0.23011683757517451 0.33651510999418227
      0.56490856127157218 -0.75280360257743362 0.40338739501927895
      -0.6566889258442058 -0.31201080024449118 0.45079870343531397
      0.69466455717324016 -0.25282419084358121 0.055034697321323767
      0.10192588834486488 -0.29835075577352199 0.041279496776528646
      0.022241687614918841 0.96243469306379892 -0.17474269252956448
      0.20635187198320518 0.48476267953447849 0.15913876215676856
      0.3174246281876239 -0.26953018359905562 0.87341749925302137
      1.6832719408963273 0.23696377310169894 0.22733576941156525
      0.52552971032981888 0.26326430991073507 -0.21144015097144905
      1.0969642682344432 -0.18003926495807246 0.63021046104035872
      -1.2471449069554019 0.72407995928866253 -0.19868182247467189
      0.13850576475551232 -0.90031198442543714 -0.55686485252849871
      -0.058323158666530789 -0.95048110582601597 -1.3696934129413416
      0.91821591043696671 -1.0659032769501515 1.1443147267309866
      -0.58443544473641162 -0.47053061849124556 0.98547090839156337
      -0.1754839991440135 -0.8717211814977458 -0.33098190503837277
      0.66013631452085098 -0.094254203301065431 -0.20813725614593162
      -0.10737911987340967 0.33052714582554094 -0.019750677714474932
      -0.72222563040214105 -0.059166885807020078 0.53667786951995544
      0.37143704214884304 -0.023477082703839927 -1.0135578946100063
      -0.50113008562531969 0.088138870306005673 0.45825451415599644
      0.62018112919702661 0.50745097940947315 -0.78311287809591423
      0.10365922584528907 -0.85414187971262989 -0.50719929171735334
      0.76527569511409743 1.0138441883693905 -0.33348825357430406
      0.44309915398161054 0.26281454887236089 -0.17210881895475078
      0.25221419506037296 0.25600000165961873 0.66213698919878961
      -0.11342672522562049 0.25989765024444256 0.61716214546715364
      0.24839802763213326 -0.098674789948382344 -0.23114200043505825
      -0.052431806301717045 0.53662823862968345 0.062345728142759897
      -0.00015880523361644282 0.23143730656193914 -0.051939835572302452
      0.043030880882716803 0.93085005397643061 0.093242631715433677
      0.69220589683488543 -0.76764256354129135 0.45158106421069144
      -0.33927156545399695 0.066256275867969852 -0.87964118981549888
      -0.61276626421467484 -0.011907970225950974 -0.79630045838252583
      -0.8484940960941264 0.70127921806871607 -0.78943473775187911
      0.71624060163488212 -0.10855826316048926 -0.10752350190746568
      0.87965577810639739 -0.5143142264992594 -0.55048298488428016
      -0.11133879996171214 0.66723630214430385 0.086603649934393095
      0.3313001196964272 -0.089841546662855654 -0.017432989280912366
      0.60115505379669032 -0.21777560784205921 -0.24961480021005034
      0.48268622214668999 0.53251185747645324 0.31413447437493669
      -0.25665213822903216 0.091954882238455743 -0.045010501344897168
      0.12241607966662854 0.56043676621196192 0.26719766366551612
      -0.83179204832363285 0.24707891840980478 -1.125725566099596
      -0.35496116924545351 1.0697930477511319 0.37323977275654113
      -0.23098870385225748 0.47732128834929466 -0.16474523797065538
      -0.13546681845261163 -0.16715846461546688 0.36374450845708556
      0.58432190291346398 -0.1134675206134657 0.46277882807269383
      0.47174363891979926 0.22340786917767141 -0.074797210876862474
      0.32718180616446446 -0.84718440523410765 0.18492523708905767
      -0.076398358802744384 -0.50640578515857648 0.15967253045223789
      0.2963592536751124 0.28212819046771492 0.034969445037564981
      -1.6531985258770037 0.72343508434969472 -0.18586181489742423
      1.0759273507620164 0.28224645570691059 -0.2465096404411907
      0.72625460370897554 9.0976617715829149e-05 -1.0148446990044229
      0.049790002828033864 0.18945008467118421 -0.463780744036629
      -0.014712475963714718 -1.3625646289143352 0.82169016257568506
      -0.47740557872679457 -0.55782772776078204 0.12119425933112662
      0.45536186011927654 -0.091515209110445472 0.64409758125796901
      0.64469287253796703 0.18108812997837459 0.19508898693361884
      -0.3614282705434208 -0.39789876422388226 -0.20109183289206461
      0.17876930830806653 0.032526825049956444 -0.42552397364506239
      -0.024924223714177875 -0.27201355675891709 0.85993215470961593
      -0.83513938283364564 -0.057267141521593283 -0.21630788258595918
      -0.14083742884800651 -0.21517252699751629 -0.43372692752229464
      -1.3699899790297161 -0.22526565644440144 0.80778824255095316
      0.6146516294373523 -0.12786747379305297 -0.71514973624212785
      -0.70443892925708151 -0.065076944781939913 -2.2411026309313447
      -1.1685651551044463 -0.82495088379004244 0.32771298427623941
      0.57353568045604553 -0.027380674970121369 0.93084147149487018
      0.3215659058156014 0.025789424912540528 -0.91363221584136167
      -0.17729782523510218 -0.077039922255164234 -0.22140219115019333
      -0.080362574729666236 0.37398356489582507 0.8986047646395191
      -0.2862872567991846 -0.71665234286437274 0.24982509412916795
      0.51419889914646666 0.67690735266354884 -0.38284752694608198
      -0.57022193326232007 0.49387357916316682 0.15865715919698967
      -0.69217320672652094 0.15464316583946147 0.88821322356900434
      -0.32474341108889326 -0.005554548669513425 -1.0726809450087322
      0.78404670880945404 -0.4579101846611644 -0.67931840998888637
      -0.041554239763634086 0.29062990282813872 -0.30114052355363929
      -0.062535597301751553 1.0217554594256593 -0.1162413180040969
      0.15407183981796529 0.1680769632841049 -0.81763053300556887
      -0.25565171874299891 -0.0048074086223056957 -0.13240420790826168
      0.28596081330325307 0.40846585327483292 -0.053370884191788585
      0.59278551909632815 -0.89535366465536137 -0.035638809224327751
      -0.087506014918941125 -0.41494140901957116 0.50541284524017926
      -0.37087359369733425 -0.040411229729046906 0.12610950825461345
      0.81252687228033271 0.00057581046356628112 -0.47754915521827096
      -0.092097556345840464 -0.6671940601914943 0.01275212580134206
      -1.1314895756530534 -0.24641065245461155 -0.27628661825054462
      0.30893366427564489 0.37867999572341166 -0.72618134009574009
      0.70250484847674044 0.15053080167440283 -0.34334035994729639
      -1.5340320370745997 -0.5064510791930158 0.025613047269587422
      0.066486761360441959 -0.0037250418492273465 0.15050617463859373
      0.57238957531060264 0.078351968268316086 -0.70851242093568045
      0.37570100068981804 0.64254724525074758 0.68634613715521908
      -0.42557302898365162 -0.44059508779247619 -0.16635646148906835
      0.075450584150108649 -0.16124057716913967 -0.0064360311323014962
      0.71249567818054549 -0.016033883141470924 0.18120367059926334
      -0.53415657762136637 0.32683301568794715 -0.11762415047876901
      0.1502349730367086 -0.48311903002249706 0.4935141029652787
      -0.12544704904296003 0.16562967076005908 1.314161934655484
      0.46779148821034322 0.20227066347868697 -0.27258089654132039
      -0.65293105937115414 0.016882664021436889 0.44260723854609785
      -0.01183583387546076 0.46154595632562134 0.025317265759159394
      0.040820981559896719 0.84238011703742832 -0.32346245686847785
      -0.51323300482029022 -0.14309615077909588 -0.72309588671816905
      0.49816455350671746 0.015870448722943287 0.07702017238742398
      0.33962925055274051 0.71021097448010351 -0.63298928382108566
      -0.59500180258060298 0.22644191696263674 -0.66478330622830129
      0.18554785443078992 -0.99920939463406411 -0.026869956114050662
      0.7338626582251131 0.26057397060538573 0.77089272470361436
      -0.68893958503438468 0.43737047440414889 0.30302108928672566
      -0.15975057684037863 -1.1868424005158198 -0.53108971857199716
      0.89968807152731978 0.37746465498968834 -0.15775002327803517
      -0.64013568701521661 0.4396894295029497 0.051344641069567133
      -0.46765871355206934 0.2890620563484082 1.0501768231036441
      0.68131405833099334 -0.10649126285973334 -0.04335778081516091
      0.44203282156805068 0.16021766457278766 0.20306510680953022
      0.27077742341684347 0.64192620744179496 0.52887686308863147
      0.58120582383619868 -1.0921193717473068 0.26487793763046102
      0.16195211976273385 0.73383011495860018 -0.34236439918927164
      0.37860645039798335 0.318997747713126 0.46660743889869932
      0.97094660962519952 0.43697565218602319 0.0069021135587958773
      0.23355778563242507 -0.25365472182216003 0.13366059763186616
      0.57752474346158078 -0.049187063237873765 0.40524640098765485
      -0.43818525068304559 0.26200364287560357 0.76677322091960443
      -0.47770285916601651 -0.86294376056291422 -0.51382710051657632
      -0.82651477707317478 0.32721609017599596 0.062742928554944927
      0.71790475244015728 0.90817713640638686 0.98474470638812273
      -0.46507304625249524 -0.73013976881294218 0.50639179406258372
      0.023169890054362326 -0.01000031381664092 -0.66553294734517165
      0.012078347841464734 0.58630486527599124 0.37836468322792027
      0.73063543704250844 -0.42848483515758068 0.010971293543808503
      0.1230485464015664 0.16204546009104248 -0.89615043347480439
      -0.6127993383910384 0.92400495741445299 0.55234326718894844
      -0.2287230199588044 -0.40289531935398482 -0.11463059430212914
      0.024884928794501101 -0.33941238169326782 0.28109213134365257
      1.1124487892927748 0.47782383869015566 -0.08951970669253162
      0.22263576685575148 0.49301075822105256 0.27466605163308411
      0.1895618501504005 0.56845835270866185 0.28216750942172747
      0.47876457887002666 1.191084503863806 -0.47078505287156452
      0.32282180525752607 0.10983244529815997 1.01151018567656
      0.17133690494628867 0.02531897618595573 0.10736397976620214
      0.30597973143312662 0.79153027351010474 0.079264437820896386
      0.34465118409523948 0.034052656537374368 0.39304835407925992
      0.13168949993707685 0.16963907732296002 0.00043113965507123731
      0.13320138350231947 -0.47487228178304997 0.31294962852126995
      0.55031171981413984 -0.38453867668782143 -0.86932615002150626
      -0.15196818158068867 -0.4778107428768954 0.17610065819739426
      -0.083283394084456314 0.41802294744818169 0.47241994166350426
      0.75023803470733874 -0.86958980500637284 -0.37241797652533898
      -0.070814929717416944 0.3083077709160692 -0.064803691662713978
      -0.60292207211144822 0.23532843244436685 0.30696869488506306
      0.25898149343257892 -0.12400455262650548 -0.019746818470171932
      0.23726585099039585 0.34713837496736261 0.18721451600108108
      -0.43560805547942133 -0.54806711927006879 -0.089702758254375486
      0.28807387863058698 -0.16707298099807755 -0.92294784749670922
      -0.16527983385615863 -0.24014464378527861 0.012883944412479894
      -0.13417102261972111 0.65418532236380078 -0.069476402579446692
      0.77625781304537478 0.43232211918389035 0.35669848168923302
      0.29524048337778186 0.3735123145047613 0.67480755846979312
      -0.53661038996920674 0.49411386597079354 0.94675386619803181
      0.64179414796467649 1.014992763264746 0.64892280990169438
      1.0333218516670284 0.76135032816683701 -0.42695812599476213
      -0.17974763022923609 -0.81912051708058453 -0.36514561752825331
      0.12680235246796839 0.029078061062435295 0.021990397251331034
      0.62272031990781729 0.017673497841434075 0.11673026059292396
      0.24151404642186922 -0.147828187182836 -0.11582098461349609
      -0.3679705657990382 0.45748821054332917 0.26182616165403277
      -0.43233156071661422 -0.074852450629210546 0.30299222309085183
      0.15902008144927376 -0.3583982856605874 0.053647636647815203
      0.19889285191553585 0.49090193695731305 -1.3392937760529979
      -0.32991094590522285 -0.081278049970438429 0.73027969496879652
      -0.033923187541896417 -0.50454315329065991 0.4597212899817934
      0.19140451094741215 0.070996521962340325 0.14279319407966182
      -0.11984660373091119 -0.049322020359581616 0.060455531895719401
      0.0028134418914646415 -0.26580644684071453 0.35845244221170197
      -0.14428987541982691 0.24472196208802607 -0.023267450629802962
      -0.64701052090348499 -0.12474658867729771 -0.25373619009176446
      -0.21779271242348602 0.16392446506969818 -0.17050800561864857
      -0.0196925577086704 0.39846347419517397 0.39767787551768385
      0.44004993527443825 -0.1063635924153368 0.10133843772998624
      0.42524383001606947 -0.48127492818200873 0.66573858842320344
      -0.15671545259240524 0.78396999885196539 0.093709390362066686
      0.10986403639603957 0.56370995250766498 0.78055162006501022
      -0.13772011884547541 -0.22888160980801969 -0.95240087006864749
      -0.64362062186397417 0.37097880072874817 -0.19799090217481732
      0.0071959675259686499 0.4614061977441396 0.44020780621113109
      -0.2497420010378999 0.25510355642190397 -0.30837670186484922
      -0.03828555857605672 -0.40224598531540467 0.32195678873027478
      0.29087873191839847 0.18428160336886074 0.027091311890393249
      0.29745088887732024 -0.30954808492036912 -0.4278742541461783
      0.54695902128837048 -0.10232018811879436 0.1012526196717136
      -0.62335785231429564 -0.21164720592027073 0.22311054838051347
      0.60966867663160562 -0.40157117458855546 0.025080430187717658
      0.26711936620280302 0.34772804154022885 0.087854798473698995
      -0.44659816274778419 -0.50251655580733368 -0.29358545579710121
      -0.14883897940382196 0.30419606468146104 -0.15443415889489542
      0.089058448351818503 -0.20639623402841295 0.40236518598628845
      -0.072643711806686717 0.36389997227707593 -0.1374921710500617
      -0.18689459902144367 -0.0056438691476521545 0.012192282821459293
      0.057789134836946351 -0.02647867749106253 -0.23635137290075395
      -0.51060249837268257 0.24772134406609483 -0.14118915643243071
      -0.16169657629149226 0.21417507319184403 -0.18358984514090207
      0.48773608826619336 -1.0113800008551739 0.25113819648600066
      0.71611187126026699 -0.14017774889556112 0.25437446000307978
      -0.090592339442738173 -0.50631624661560504 -0.72146757900929215
      0.3085767919495811 -0.34772712567452063 0.30193007893698676
      -0.31093104479445194 -0.34070001782249776 -0.49885140953776602
      0.75150034489800688 -0.78736385347694815 0.61743078169913723
      -0.56112476847087855 0.12208010125694571 0.2954204199311094
      0.18249400624407933 0.79825833424011317 0.37027947913041154
      0.21237900282983554 0.20039237891098097 -0.11502980474960453
      -0.095787135352420519 0.93354434584203339 -0.0061000110864795369
      0.23265676527454207 0.31091876780748656 -0.18971045167841005
      0.076774840437421998 0.29107112544770231 0.8642457603607886
      -0.10262481454406863 0.14009689601118824 0.27164274929448162
      -0.0090667801092945404 -1.1518288995770041 -0.22883867652786033
      -0.38843100246900369 0.57193803796889864 -0.28708134826636506
      -0.51086521104188409 -0.16847157570537205 -0.40578777612071337
      0.70193230235130744 0.092934898713634737 0.21854495230471305
      -0.76619490209910379 0.10334305694855868 -0.91032672840782403
      -0.056902460472043823 -0.023211157751220887 -0.2238600324684599
      0.4517021324062363 0.47973338855731285 0.51709071343987234
      -0.20976170202128505 0.039516978290405583 0.33720934665742375
      -0.30224432410148022 -0.036703662663457037 -0.76388577616769293
      0.49300906873555939 -0.10595593413845375 0.10053515783013642
      0.52293119150601441 -0.050180417006577445 -0.44261603622569928
      -0.30902694557458277 0.24547696960258755 -0.17111136937318644
      0.12389513733170721 0.15024556179438336 0.025780229243026167
      -0.45523397306206836 -0.074777707232717788 -0.32383995822916978
      0.282872043950678 -0.15560980161575369 -0.2661894350375914
      0.40091105370918484 0.061842455935639931 0.30512414561516132
      0.080333839552307482 0.69718184367906044 0.50289715798292789
      0.1663566729090982 -0.46611504759640732 -0.36134867743861854
      0.11350565416948667 0.58223742297933656 0.31519952417578234
      -0.36533209072115408 0.28056389665345655 -0.070856430985042726
      0.41105528057281188 0.12918347190174154 0.34383412246964412
      -0.054598926792894166 -0.029111795389721484 -0.57177846467189042
      -0.25383673260668832 0.083959087088376613 0.26246059454152582
      -0.10518828459349758 -0.25128641616226166 -0.21269196699335799
      -0.51161633921599714 0.54327972634385435 0.57532144412608721
      0.12905074132528555 -0.40725654716407922 0.30530604011352791
      -0.54635663900225939 0.016077081618547168 -0.0056517077853276664
      -0.41079059651246486 -0.19836336574426813 -0.23559694435386078
      0.36353670046980618 -0.37086549060262219 -0.00029552092822609713
      -0.15419005414506234 -0.53190693404851541 -0.22332047158756685
      -0.80264056086394142 -0.30787483983167357 0.032258740757182894
      0.20977084218898426 0.78405091721850073 -0.76187716543676964
      0.94593539388714165 -0.059578277552507469 -0.61954978442679676
      0.81281581909221645 -0.20140376227683576 0.23347201252069591
      0.34572663300691236 -0.24353125469599055 -0.22781255605759518
      1.1848518813917939 0.055259055742633949 0.072964922209175831
      -0.26540147461102875 -0.062270010395481981 0.093858612329974167
      0.38543097548112981 -0.72675001241242532 -0.16944005623706457
      0.2003221763497138 0.011616922107944919 -0.0067541175563763231
      -0.5865479290058675 -0.13627423125933971 0.68200251835180614
      0.099846616562295112 -5.3362103063130411e-06 0.26462950062573537
      -0.90171811482045749 0.25027572152439925 -0.14503319657918509
      -0.26035000903867078 0.53330720338591531 -0.19771404109416924
      0.30162221682002099 -0.29024692696587162 -0.19729498439439033
      0.023052739562203613 -0.24638459728067064 0.3175614674363279
      0.12685365586479755 0.44405766244558514 0.63933927894538212
      0.749919970963699 0.18646535643951132 -0.81846350280813662
      0.36545828362420257 -0.18574595121054058 -0.1033743026937702
      0.18367360413436709 0.075019827672758374 -0.097138726992535104
      0.51367013399608807 0.4999571905164929 0.093443435670499009
      0.10975852886447487 0.14899263141023411 -0.47822919099778838
      0.00066610269218075749 0.84919147200759615 -0.07212601871738146
      -0.34263793882483934 0.10229057432455595 0.94171713463190554
      -0.47406206518830918 1.1600835005134296 -0.61760520976790068
      -0.014080472773175149 0.28239411614411652 -0.37241720171918219
      0.96508439304960281 0.60274500909537432 0.60324513187689599
      -0.63051008435862976 1.0400360070485979 -0.131126093595132
      -0.12492835942941943 -0.41142901243421448 -0.36397881773709695
      -0.037299746823302608 -0.32734148728812829 -0.82675365063640605
      -0.12350305656373593 0.52295566119332093 0.0013637370114995225
      -0.106081411569278 -0.22164935851227366 0.63134290431704732
      0.99073277269283067 -0.35641825689730366 -0.12996069154763246
      0.19899328645585085 -0.5450214359184079 0.07636402306366806
      -0.015386267803221424 -0.16791653781688345 0.35513398292104492
      -0.4954560952860475 0.2899202151795145 0.39129047585083537
      -0.15451144667687927 -0.033639442406969519 -0.19172656417366155
      0.75762396366899498 0.093531042963491531 0.67616267758285753
      0.10262789584467681 0.75545203706589348 0.13288816058916261
      -1.3683171488965091 0.40233069165784785 0.12533553915581075
      -0.16159002209829032 -0.11950128032248698 0.37157413245797272
      0.21498194814545551 -0.32915709527439402 -0.42931527983934276
      0.048135803559377632 0.4038133527717086 -0.39282962093755852
      -0.2153759116798056 -0.12739942610875707 0.40349733594094167
      0.22160359784384207 -0.084614838005497239 0.20562827283661755
      0.74343820161531449 -0.60378163504505444 -0.17243933228684927
      0.08872155204135844 0.56104149313180274 -0.041004501960157758
      -0.36730012901022535 1.0334795142488995 0.56488726048295768
      0.42265175528013604 -0.19191021891543367 0.89997728197357774
      0.18876485687788244 0.1581243644155986 -0.24266906754017711
      -0.62213393053996502 -0.58658571260540959 -0.22671644224514861
      -0.48027890500149606 0.034936315335865227 0.63635377239849833
      -0.5398011664189285 0.23828181587406908 -0.68363406083906697
      0.49891687561663067 1.1786902398929637 0.099331692842050262
      -0.048955514555839463 -0.33792692114687756 -0.31683095192089777
      0.10779638614322923 0.17336324594618546 -0.19980566459302151
      0.88366505424231878 -0.29578785533891494 0.46989257109236532
      1.2848897255220098 -0.020594385932961107 -0.48649776161943153
      -0.39230041104714869 0.16996126559083083 0.41365451380765744
      0.51584984449727067 -0.022369216980873047 0.64217308232300452
      -0.13102265113630215 -1.2661237450370504 0.45493878958287104
      0.016938503670288534 0.16634363893696139 -0.68051158459334071
      0.44172599077034319 0.36458894953113979 -0.65406842415090105
      -0.096350102541336621 -0.25297054449867762 0.62195482297711613
      -0.46298643616731699 -0.65825050570167365 0.027081552360125188
      0.36223030937991213 0.56059461014764556 -0.14481862157708372
      0.1679766472201015 0.7862834245312903 -0.2531302061702162
      -1.0784125112629817 0.48732527325900205 0.66792417806945181
      -0.0029373470097846248 -0.060924793666132203 0.58506561809908708
      -0.14046114306246282 0.35015195563048312 0.073806167274854562
      0.41964371403576278 0.38704102846300875 0.3033261633546494
      -0.21468266326158206 -0.71141738326347781 -0.46988442519256579
      -0.39157642616138577 -0.46954658556243922 0.42089395672884761
      0.47130292909882704 -1.0268013429639247 -0.04539616725006957
      -1.3869179679413592 -0.0080898520835843285 0.6916066607894098
      0.18117689265150239 -0.52580547760678975 -0.53022524434961515
      -0.31510535966134073 -0.55801921153912892 -0.013077742597913066
      -0.34353544343875492 0.94320102994170829 -0.049581623556779232
      0.42096644880795986 1.0396543144697452 0.21590202430771993
      -0.063054272295292424 -0.68223862249435818 0.47719128069927402
      1.1341260253240684 0.29084105768754015 0.18823913384823393
      0.98419899726896187 -0.28255250839198981 -0.77532849390747305
      0.56548660733446032 0.22274166844080534 0.38573088971204006
      -1.1551178310643897 0.17395540106096852 0.27187117269734107
      0.19077267266804393 -0.8073267037871813 -0.3561512920476943
      0.27076187048019568 -0.19951215971935579 -1.1870122705063959
      0.49323305995856209 -0.33626746953077313 0.47400185917744836
      -0.61843980006633192 -0.29359902902414359 0.26712587136515864
      0.16480297842141442 -1.4359351066017463 -0.65273862913217007
      0.83090143955575269 -0.070623074557076712 0.19731892143891092
      -0.2331421394604789 0.15250811619072266 0.94954384782794887
      -0.21426579243956334 0.27227481648719781 0.30268427700030331
      0.2862611495769205 0.030982372395218793 -0.91407731473144282
      -0.62808114324026287 -0.40206509467687673 0.26124964974000647
      0.7665162655451121 0.10948037997705866 -0.91578815554677129
      -0.07852820526777908 -1.0884926398174588 -0.52962958506291113
      0.38200781801124506 0.37783803813523609 -0.59695064210506465
      -0.26939180718990885 -0.27156513766083185 -0.40743766784333046
      -0.12983740352275633 -0.068249864620804124 0.8960165066471153
      0.34285708967990652 0.4564995380182873 0.87379828424169959
      0.24254098118505873 -0.40936154227983174 -0.67862831618518915
      -0.90575767169522436 0.087474239616568528 0.00090283926451345065
      -0.11942232411581361 0.40460698791213057 -0.2245358753687357
      -0.26342231055506116 0.76562300854673937 0.42231419930210617
      0.53321866859722544 -0.97484506798406068 0.10146570383706879
      -0.1477137734756388 0.021343868902634577 -0.79767269924801887
      -0.42467259010285047 -0.12058881436005621 -0.35681018557094096
      -0.66075020204175516 0.62522721708111773 -1.192145507645165
      -0.01673071663660896 -0.068285140979671186 -0.36696091925387048
      0.47439940417804183 -0.42223315204862233 -0.25151462208964337
      -0.34831799020412046 0.54315501856650517 -0.086089158187961035
      0.95991031408190619 -0.53107118426050492 -0.025304468856132453
      1.0841729746688777 0.19664607983979931 0.12286027453356045
      0.44274094636176109 0.34280286636368978 0.64074677478093689
      -0.48600645349921218 -0.37743101032071386 -0.66569193586402953
      0.55345570980304437 0.4463401532034304 -0.15187777411780254
      -1.0161555098416823 -0.28068490043459016 -1.4803329902988869
      -0.81062022557653179 0.72885668008574456 0.066702890836375997
      -0.59638654829367033 -0.27135205482927932 -0.38361612856196659
      -0.36202108145475531 -0.65355157611902648 -0.23134986994142417
      1.2058293108862401 0.78642198595869051 0.50782741408086274
      0.42837001033342553 -0.10802573042946507 -0.29548470678336614
      0.14680816536742908 -1.033323600162477 0.35878074736762489
      0.2742531463590322 -0.3185169351340853 -0.099163004603792071
      0.21871801689666498 0.24574974468241539 -0.0018015951649235703
      -1.4995474359088052 0.59485370635012425 0.32466180977954728
      0.61106263707258535 0.5048127469716811 -0.078573123147345006
      0.27441730446909635 0.25523594507144648 -1.0323749303401619
      0.20357027318913851 0.19804388632752398 -0.53387098982504533
      0.39678558884194326 -0.61943885935635612 0.26968391662015606
      -0.39268590189723501 -0.22992129718751506 -0.010731288026723471
      0.48060825508785304 -0.10877583030027567 0.56434893517553475
      0.64933567186173591 0.092319065342392204 0.062607364373006846
      -0.22171933816624009 -0.2782976934219713 -0.31629024559725072
      0.37493642444322506 -0.16863110159361402 -0.063301371602701856
      -0.069053018472603783 -0.25099153958371578 0.8629515221565276
      -0.63087116815985989 -0.12587020263320495 -0.20709681745276781
      -0.26906743466358679 -0.058094076433492348 -0.60224029253917122
      -0.88400327066549611 -0.097031751677121053 0.65776614750197004
      0.23459936074206025 -0.095978490301161734 -0.16339313303766959
      -0.69745428805878862 0.024048392446019442 -2.0420689097799221
      -0.64746804383897649 -0.39238530990088699 0.045499429387283158
      0.71568426561153431 -0.20396281948244674 0.58224023461372021
      0.19569801864451028 -0.19403893693507374 -1.0733308212543382
      0.83082324559243781 0.66430247658891306 0.077763843058860305
      -0.19410976674376582 0.61650184765697902 0.53986752571096219
      -0.49974384706686187 -0.65978433013912563 0.23218053446613152
      0.92063477138050287 0.5720340359075996 -0.33835825451391954
      -0.41910350752729486 0.2381134151824493 0.30797797656050446
      -0.87395837832676582 0.29226649192088822 0.97988917826535804
      -0.3870597099423968 0.53152727454527615 -0.83700796707171321
      0.46692754082345905 -0.21344493335881543 -0.13851215849619122
      -0.23603589054879759 0.34052191262465265 -0.19112195937599044
      0.40682195727918014 0.87628763009264921 0.045379017137037979
      0.013860882226779699 0.031936863119968184 -0.41451645804405945
      -0.21422843924696838 0.26843322257759394 -0.17110582483287007
      0.34587761577609932 0.19888921290666164 -0.20406679113866683
      0.48335242897142883 -0.26841707552884736 -0.10688424049310331
      -0.48919527593941642 -0.14924000390903333 0.52372027491960471
      -0.68823069103847545 -0.013447091316992132 0.25363145053529262
      0.56573423707361115 -0.049682584588312519 -0.33884700304942622
      0.21454459882008925 -0.48300721540897124 0.26499635005856959
      -1.0336250476442679 0.01237363936568265 0.34711874416933564
      0.21234124623280831 0.61147927588966167 -0.81926419020024421
      0.3489403475201826 -0.029095185481153488 -0.19399847520049432
      -1.3428849791566924 -0.017720759232580513 0.54499122486786022
      -0.056557056517751288 -0.34722924810454298 0.43055278799323293
      0.58191987667791378 0.075065817493306347 -0.45678876762303655
      0.32984301512005582 0.89131040613909651 0.70467880261179361
      0.075905240800079543 -0.17214706811944508 -0.19617653518158745
      -0.018919242179633672 -0.14905909668888057 0.069581379715943359
      0.9784494773789929 -0.19180532194090996 0.43624362322038346
      -0.70998305515700189 0.41445967914562204 0.061406209379377213
      0.50437744427470999 -0.26623388513920476 0.32403286044946511
      0.0023550999732218354 0.16337112591756744 1.1979875376128075
      0.19504052491993576 0.27884632470825776 0.056854762114706935
      -0.65897044995249976 0.15163175153072891 -0.16029847454510324
      0.10040731840560976 0.59396220857940429 -0.11967985376290013
      -0.077371924133540812 0.62685309403596079 -0.14349551212522865
      -0.082557192836091101 0.043559419616355177 -0.37941055122727929
      0.75065115247341874 -0.075801815752712443 0.1708894485099535
      0.25338823174271208 0.57532021716097637 -0.54388678018514347
      0.054027600408492762 0.33788488713684312 -0.40727588877035525
      0.45571903525436114 -1.1436027422913935 0.2164935165071569
      0.16701115738084665 0.077656147762128411 0.45488527226504466
      -0.696720454022283 0.56992289062447588 0.021906503183733505
      -0.34689279839815002 -1.3799541066488141 -0.7332424614661176
      1.0328620538375166 0.34172294338294906 -0.74136318784636845
      -0.44678426921622949 0.54724742593612019 -0.08808316204315593
      -0.30216593660948288 0.12996605295181185 0.96195329783354389
      0.74655138425953504 0.04050933789012448 0.01083374970404786
      0.3941086138279411 -0.024088219623682187 0.15356341011371613
      0.12523942028647467 0.77871158840505628 0.56866475591013887
      0.50205030235423487 -1.0467301648587186 0.68440990685800296
      0.19492075144702087 0.67337902217709922 -0.53929397612193708
      -0.12981261041017758 0.60399607811731704 0.055468825950769539
      0.98886462207331127 0.095537827422523244 -0.37171257778319772
      0.29134800222396967 -0.81741506123040697 0.026692575461155069
      -0.1660315368866366 0.18104498274021993 0.37485032676136337
      -0.23890301117600493 0.13965213216321479 0.85980995690168571
      -0.062464448549451247 -0.3388476407207146 -0.3387095020634725
      -0.6129672326850194 0.85279097762611722 0.042361673594058444
      0.65610029539221215 0.85185656052587044 0.83772099177345327
      -0.40104681473131781 -0.60231341688321893 0.4119803648808501
      0.40738433947599584 0.31014049657012677 -1.0392869938689455
      0.40222918599283247 0.02992792220891945 0.14306322019141524
      0.26052552378936872 -0.21361096147971909 0.12706099204233473
      0.024996475918774162 -0.19467179995473335 -1.8022171521058943
      -0.49553499314321853 0.64399556120272927 0.47180181241193625
      -0.66786563908266827 0.13859310085204465 0.48002174095649036
      -0.12273737785364945 -0.10152786762702985 0.046546235940771133
      0.95026381688880968 0.56641288198954065 -0.243642836365839
      -0.11132812387993055 0.71982109159812646 0.037478523385214554
      -0.082532039118111578 0.45736683650416965 0.16506541271937855
      0.43385871949881361 0.21042103293641964 -0.50620793126834218
      0.879840800005112 -0.1446402663358512 0.85484941787496549
      -0.19508049484160148 -0.92273337666391808 0.50866000602327444
      -0.45338214198792559 0.546537015286779 0.042019622323135095
      -0.078118918780578153 -0.20526521896827288 -0.2289363450509827
      0.43348149071883285 -0.64083821537639052 -0.10120413750967214
      0.024705555171213717 -0.128559240374302 0.22918272897340999
      0.55544323889383396 0.28947997472666376 -0.27751304961563888
      -0.58789278548535995 -0.73615907033465766 0.5134207968148673
      0.0079019410276503603 0.38021499470753051 0.26191937042205071
      0.28929120412708675 -0.35780089701216972 -0.37693837127032037
      -0.13579238832832188 0.10155964637759488 0.24451391042681028
      -0.35800800043340147 0.14857546158791121 -0.11350244484205119
      0.57119129457818774 -0.60137357718811868 -0.1800452259946323
      0.15171871895026873 0.2677767402126574 -0.45023325370133838
      -1.0869100002219505 -0.32786548619025435 -0.16573529711465934
      0.16470818268614595 -0.5218804676348745 -0.21670184054808869
      0.52121285719510835 0.082975774401427713 0.21032539966142444
      -0.25082322700879622 0.53674276243867169 0.26581221826227514
      0.39862784254626077 -0.018664278717150942 0.69795189481765474
      -0.083398550997324669 0.26204898782565478 0.58182016078163623
      -0.3278541121007329 0.44749773327991227 0.017051664143215482
      0.0087099653932793952 0.55019206895480977 -0.06967793497224202
      0.84905059991615661 0.3397826216174924 -0.68244771618500277
      0.016361206894938283 -1.1311974465302299 -0.18772511790896204
      0.20774336900824994 0.0049000535783058309 -0.4934930277244528
      0.082455181243426406 0.50389837284456596 -0.56350737013386465
      0.15261092119038355 -0.11592321264728893 0.25637364896241455
      -0.26448407385772232 0.50475402254871748 0.23344580504727902
      0.034338442143164033 -0.61932398988192749 -0.04877266427612352
      0.37544876740887162 -0.052535983381196548 0.19277921327157752
      0.1377957230816742 0.13206610735022203 -0.54039260066880979
      0.22227043343581299 -0.16684320307443323 -0.19933084443101601
      0.1888016356435557 -0.27432706315109456 0.17565882589267995
      -0.25426643418439432 0.26741729032958195 0.057932969967121231
      -0.6077751085704165 -0.12188719202501867 0.027881225939607263
      -0.33513105850559188 -0.74475709225309306 -0.16638592214179565
      -0.1792828449035781 0.31891243655041784 -0.49371184113393551
      0.14101762554243846 0.10090624486934881 0.23082170086862971
      0.052005260671681125 -0.088653684973683075 0.21708115241270662
      0.13008392985604253 0.29223074506516178 0.10226122857035741
      0.24279697917690202 -0.32413362722051631 -0.13018529609010676
      0.31690686717896616 -0.37985245471456941 0.24253791053074847
      -0.42027425288071008 0.3803275115885652 -0.33173825207945618
      -0.22002502847582764 0.68848729652083474 0.63571832842295484
      0.063084520262406296 -0.21961250054606105 -1.0538385563001174
      -0.42339290033400789 0.20111534720764659 0.010512696053490613
      -0.42691720592827759 -0.33987592484710744 0.81484860232725342
      -0.5555628066562377 0.0031035518242760571 0.067371732169065973
      0.0013400751442976123 -0.027618081555631162 0.069357382214327634
      0.20668970349362681 -0.038607059828527461 -0.40580033380221564
      0.028659213757939551 -0.13368925421717148 -0.10677936849927279
      0.6413145591428473 -0.074338113423311744 -0.41621093579223101
      -0.3454605622754201 0.47652885262609035 -0.17220032493514989
      -0.038540078722286417 -0.14770116740893174 -0.037174112043796503
      0.11491579650107396 0.53592499843741315 0.01202818528219305
      -0.016898907083994698 -0.26327475416861529 -0.31898878355240523
      -0.20298366446848987 0.11222838502053477 0.2035351421086499
      -0.032510202521411541 -0.55764759006565034 0.38715912467337898
      -0.48690029895700088 0.97584007737398082 -0.14699036613949662
      0.37794281516914441 0.3717622058458564 -0.034997551037619479
      -0.17899026118305714 0.17098053012643979 -0.24461051557174426
      -0.47234614349265835 -0.78037597654318169 -0.15238509286011928
      -0.32524548129625219 -0.17576866129622526 -0.24855828311773182
      0.025688427734653341 -1.2060184336672313 0.1011841260442868
      0.095632868851004652 -0.24576295492413069 0.57703066985468332
      0.10498733568820032 -0.48229522032316052 -0.76926127304580039
      0.1527933887953202 -0.21095481993393028 0.053005181920086228
      0.37064093581673596 -0.35313526227444703 -0.6770553822696932
      0.84837648492006446 -0.48283571515017409 0.50810955185633366
      0.10140213230296841 0.13785202376123656 -0.010590072378570755
      -0.37840562738528 0.14951162819196201 0.15481411931006198
      -0.091705975032554385 0.30973514793356066 -0.096127117891812636
      0.69256742124522763 0.78849089007345352 -0.17314822358836404
      -0.12184924579649177 0.5645121646012029 0.82264817226951759
      -0.16290129936441081 -0.2371843333306087 0.76009281188897071
      -0.3344508133018898 -0.16225436093808471 0.73924961929249855
      0.045666163604474883 -0.25914123106769138 0.32848423634301677
      -0.36257006466130381 0.076592241985265958 -0.29740350234492968
      -0.012220567069020253 -0.019959442117224585 -0.62924926836336803
      0.58453432731262789 -0.16942220901666299 0.99827202741163557
      -0.82943768693449105 0.37124124770535583 -0.17960659731047321
      -0.20960386529737587 -0.33931932396098885 -0.26418849694500568
      0.24068434127668495 0.62024067554308904 -0.26507199996487696
      -0.34894314545817634 -0.23108219602606103 0.01087463760902244
      -0.24449247339307006 -0.53054207902980877 -0.66915851851769459
      0.49765919667303848 -0.43882836993466856 0.009372178331266412
      0.46284812089836502 0.086584936476849117 0.11268771213372818
      -0.4990721219501647 0.43890825411899859 -0.050177729903917154
      0.01288953760545152 0.58124836274311076 0.083756627147456034
      -0.14568937585139047 -0.15585606663547635 -0.22185241800541777
      0.050437240117520862 0.17659143242320921 -0.23790729203104985
      -0.2088918815324968 -0.14804551843401478 -0.1142194486400273
      0.20528743571194191 0.36514778331917369 0.63310964721945207
      -0.1482479197401424 0.36586877951057101 -0.071488889715457721
      -0.047423189076511177 0.12979130121882401 0.87122769825406166
      0.65606117736304781 -0.13071133291679124 -0.82005000095569047
      0.1276851224731671 -0.42265601727006158 -0.098391522965536674
      0.17862449024878357 -0.0032944064782045993 -0.0059214156448223034
      0.45319356680853395 0.31078666417355338 -0.19209916307803523
      -0.28620566056000596 -0.58886027528298579 -0.37464805450766114
      -0.7613132199277135 0.68970521519711947 -0.1587943205208715
      0.71317643883597082 -0.6271864558454443 0.061779899017951313
      -0.095322656406804776 -0.21470780656970972 -0.52441422053636477
      -0.27659296070346323 -0.045480335531415728 -0.096840047377201574
      0.27192857143358318 -0.43544450870791196 0.42024016412815313
      -0.34766596940889893 -0.26868208693802104 -0.26963068771869181
      0.42562815534857945 0.19934341160521035 0.12066606498160545
      -0.092050881921793309 0.77272906910634387 -0.49236923425480406
      0.10023591359155642 -0.080029404434551615 -0.015858880919155369
      0.70196658756642505 -0.19247930747593256 0.18060487321231627
      0.064088168172967572 0.18503716790530575 -0.57006618426804978
      0.94618688481564206 0.066058676353817167 -0.10718287487589764
      -0.12172257053100605 -0.60309228325101283 0.32834331879523782
      -0.22417026311797963 -0.078405920380180502 -0.10298644991988674
      0.75484876566991688 0.070370346689186167 0.29510539434692551
      -0.090906027819942836 -0.084307153611494573 0.56644327864238253
      0.88812397669046539 0.48533992240155494 -0.15461023552191111
      -1.1377481340474382 0.23479722929696353 -0.13054595132918614
      -0.23078436509328432 0.24508733450583231 0.045987615853638378
