<?xml version="1.0"?>
<opencv_storage>
<opencv_ml_ann_mlp>
  <format>3</format>
  <layer_sizes>
    450 64 13</layer_sizes>
  <activation_function>SIGMOID_SYM</activation_function>
  <f_param1>1.</f_param1>
  <f_param2>1.</f_param2>
  <min_val>-0.94999999999999996</min_val>
  <max_val>0.94999999999999996</max_val>
  <min_val1>-0.97999999999999998</min_val1>
  <max_val1>0.97999999999999998</max_val1>
  <training_params>
    <train_method>BACKPROP</train_method>
    <dw_scale>0.10000000000000001</dw_scale>
    <moment_scale>0.10000000000000001</moment_scale>
    <term_criteria>
      <epsilon>0.001</epsilon>
      <iterations>400</iterations></term_criteria></training_params>
  <input_scale>
    2.7402706204801177 -0.48302149514591519 3.1787197683439832
    -0.43164076771007204 4.7918672426197455 -0.29241498829663437
    8.2406245527980992 -0.12459145723204185 8.2406245527980992
    -0.12459145723204185 8.2323197604696396 -0.12590889646682335
    7.9975501406067693 -0.13108665142162695 7.7783113047063148
    -0.13567366067634903 7.7730148697409502 -0.13387148374664912
    7.9460071206053451 -0.13335516773178463 7.5440440697437916
    -0.14084393623373981 7.2542245781680306 -0.14306246905686829
    7.2542245781680306 -0.14306246905686829 7.2542245781680306
    -0.14306246905686829 8.0004852185365358 -0.12973239614929238
    2.72709637487121 -0.51700997362891299 3.2993635951700835
    -0.42667029364472997 5.5378053988288878 -0.25685306787495504
    8.3486778541699103 -0.13230827366935463 8.9083407087683675
    -0.12363382632952613 8.9079746566098255 -0.12402675840999541
    8.8696608587227228 -0.12855376277037506 8.3472110547490761
    -0.13305963140076543 8.6044376862080547 -0.129589270263021
    8.7989995532916101 -0.13097718645401329 8.3304634998641802
    -0.13531223288039737 8.3060636759321387 -0.13714261714686829
    8.3060636759321387 -0.13714261714686829 8.3060636759321387
    -0.13714261714686829 8.8738975136675435 -0.1270597077424461
    3.2058891987572822 -0.47426952740188738 4.1073601946759464
    -0.34850201035006406 9.1062214187753803 -0.1738274121973209
    12.53510256700155 -0.11158397657518518 14.46303915764009
    -0.09921887032842483 14.46303915764009 -0.09921887032842483
    14.458017227324595 -0.10047640046186156 14.307970896051279
    -0.10444959030267527 14.384806194126062 -0.10184633730545152
    14.441214481751803 -0.10155084153517885 14.307970896051279
    -0.10444959030267527 14.307970896051279 -0.10444959030267527
    14.307970896051279 -0.10444959030267527 14.307970896051279
    -0.10444959030267527 14.757047388296048 -0.096975391188687129
    4.602656751150036 -0.39433943336851085 6.0645383777059303
    -0.27767792932790175 16.698079723685204 -0.11145253127865444
    33.261849822378629 -0.072707245941066978 28.353063351899653
    -0.076107105503385328 13.653150240007525 -0.17878539180194883
    7.8836236289191488 -0.19335477855967456 8.1311056446117664
    -0.19682555192885429 18.609708436683079 -0.15235457899361096
    35.028281218080679 -0.07247521312094253 31.108614856390961
    -0.064472152253053069 40.701435470970182 -0.059312982586059333
    40.701435470970182 -0.059312982586059333 40.701435470970182
    -0.059312982586059333 40.701435470970182 -0.059312982586059333
    7.3216496524451768 -0.29565418436501262 9.7038607163315582
    -0.21028283704531914 28.886414713503466 -0.065823558111040362
    28.235626519090754 -0.089669260569308476 8.3206619029406887
    -0.27742689919271624 4.5516548156766579 -0.40099867878821061
    3.5860515547040257 -0.4574463614430529 3.5917285561106032
    -0.45607194991288902 4.4209087153191007 -0.41210458413559709
    9.8175533322380097 -0.24864859698211134 20.425089604538293
    -0.084521003027852093 28.749137168500017 -0.051282166011901179 1. 0.
    1. 0. 1. 0. 10.326631328580699 -0.21785109106928294
    14.174363057201163 -0.15355499356873431 32.8194409703042
    -0.081215302486263269 9.3626962300085594 -0.24533415155047919
    3.8443513784524046 -0.47341723933033664 2.8561315136437004
    -0.63003638233389936 2.528983384474726 -0.71841191062656529
    2.4940312387200168 -0.75404254639400137 2.7640147618047823
    -0.65228488411038354 3.8620577180691691 -0.50519812561498612
    7.933799355900562 -0.23633290718048824 14.085124641701634
    -0.11129453834525452 23.922948575620051 -0.080002165077485407 1. 0.
    1. 0. 15.862405786036973 -0.15226994156641982 21.850651626069343
    -0.10581557014669063 25.713817456799532 -0.078567420131838622
    5.23794826650649 -0.28867179424936329 2.7210372751926855
    -0.62924601510627842 2.3861751359836854 -0.89634008173729451
    2.2421010330694067 -0.98780982602428802 2.2145341089300001
    -1.039142482639823 2.4050869995976467 -1.0383978037747261
    2.6624915431700922 -0.7262222498580666 4.5252779986290026
    -0.4311499536210423 7.9364645274532775 -0.20237023534797483
    10.224024348252941 -0.13876604025076586 21.040903640558721
    -0.10804114561792784 1. 0. 19.877676775025748 -0.09660269166970524
    28.34948995812389 -0.065769299445432555 21.509162889280031
    -0.12234767104268494 4.1758270369830113 -0.37453346459822467
    2.3877628530642601 -0.82049984697668432 2.3492592493715874
    -1.2740768098398729 2.4094282806722567 -1.4273640286968321
    2.4293526278017876 -1.5358972732644331 2.5276444326140575
    -1.618455208538474 2.4638059985945011 -1.0956487134604036
    3.0861003111917644 -0.5623192984661407 5.2312715484916934
    -0.26879590118339924 6.7093291184676298 -0.19646847438655782
    10.598878533226195 -0.11835423594141886 55.08993617636829
    -0.072707245941067006 35.023456122957839 -0.07053924556737165
    47.193646402161733 -0.056446493729195656 13.640333936899037
    -0.19713565559336466 3.5836027173991729 -0.49105414211568704
    2.2355186090055392 -0.99379945513008716 2.4639840312074486
    -1.6324428891367793 2.6000734282731437 -1.742658223432777
    2.7741223796851449 -1.9928811746517041 3.0102081179303259
    -2.3470529357681587 2.3715163866547688 -1.4075292791806893
    2.569087895188888 -0.63645531706639991 4.2646055007170531
    -0.31085134892371463 5.2959628385721969 -0.2342415365098886
    8.7890415471851071 -0.15330338454098269 27.761859235982858
    -0.072707245941066978 95.250873114219601 -0.041903773709505612
    43.788952842372446 -0.049966258728161045 8.8646354445461863
    -0.25150819239111893 3.2045823502653499 -0.5974772029477956
    2.2313993476569838 -1.1303517313463844 2.4535438474322393
    -1.6888052125028206 2.4308882736117345 -1.5075592907366226
    2.5049949763919575 -1.6584942853634641 3.0745412787463118
    -2.450545352774129 2.4063919480597686 -1.5784154675600797
    2.5067540394581735 -0.70171537483191593 4.0592951917139111
    -0.35866839086362046 4.766270304247441 -0.25406020302079918
    7.3908378397355445 -0.18205610822303891 19.986435015538419
    -0.081057187410829831 1. 0. 26.522628669259248 -0.067182820625421941
    6.5639130612154197 -0.28583382100273974 2.9382424420568745
    -0.6683768167885844 2.2425504178649454 -1.2067018498183708
    2.4096020593296057 -1.6068071799549923 2.2805934667042052
    -1.1861155392273979 2.3588631626095333 -1.3103200985068046
    2.6519365697327277 -2.0124840335912619 2.4810828562277805
    -1.6543878089381072 2.5566148701828495 -0.75633904152964082
    3.9282282393729453 -0.37920691171624032 4.7321322725592054
    -0.26534941256858646 6.6214980540295683 -0.19360067436972667
    13.139449532395915 -0.092035532121612196 1. 0. 18.51283257035157
    -0.088506301048267289 5.3271131681765969 -0.30684157369208387
    2.8141900917816662 -0.71834848829900844 2.2489554125679598
    -1.2401313153015394 2.3740305173437624 -1.4828807162580615
    2.3039280481087783 -0.99972684762383579 2.2488617862174949
    -1.0229652640908413 2.5074352151547128 -1.8018320647868233
    2.4578373172532642 -1.6044388325445089 2.5744452881963871
    -0.76876331660455377 4.1339847743307203 -0.37940504898661798
    4.5730017200150002 -0.26166016333601294 5.9460651072371773
    -0.20620301222830079 12.292491147021634 -0.1025800161343048 1. 0.
    13.452746871071588 -0.080544019122840621 5.0109800419995381
    -0.31281274030969741 2.7845793033807209 -0.7339601900064241
    2.2864805357078919 -1.2618530921219708 2.3752549056143657
    -1.3994374457888259 2.3788239530810036 -0.88747944870233508
    2.3017480595112265 -0.91005100634213665 2.3476965806071157
    -1.5814706465073252 2.3387875207044382 -1.4594683649347022
    2.5678225392073797 -0.73985908371365883 4.0635719939543371
    -0.35580608803362823 4.4087714407679055 -0.26405200623043312
    5.2689600154803671 -0.21446716333429475 11.180822196656091
    -0.10636873696964112 1. 0. 15.396314846887345 -0.072707245941066992
    5.4162404121194117 -0.29349021847476131 2.8415503400091739
    -0.72787168318531026 2.2902828748175623 -1.2328586702397972
    2.4029067542231148 -1.3780695644326357 2.4795786716908368
    -0.85691641463379997 2.3277569155776292 -0.84850661961232088
    2.2696781415960854 -1.4540433985711567 2.2679201781851805
    -1.3706514349729624 2.5484330124830041 -0.69587361011987969
    4.109933848566456 -0.34597999655656114 4.1698859794302479
    -0.26526583009693289 5.1693525751805005 -0.21668444955563076
    11.027700846489319 -0.10620067630332862 1. 0. 1. 0.
    6.5449449603694791 -0.271758451402206 3.0029623522563513
    -0.68767120621949485 2.2971717257265918 -1.1981642862812094
    2.4073695251362088 -1.3461180016485559 2.531237272308509
    -0.86144976111000693 2.3229825633971797 -0.84928124488662748
    2.2488378111381482 -1.4326771392144975 2.231375305517139
    -1.3183639123366031 2.5694606453328346 -0.68050900853282603
    4.1574059853685528 -0.33445860022060298 4.1700645761726207
    -0.26484722140951894 5.1678362628332835 -0.21496905808270034
    11.036571831899499 -0.106134378134968 1. 0. 1. 0. 8.4267235367466728
    -0.25405722174630729 3.1302353692755598 -0.65838708398886225
    2.2971470409048669 -1.1634678103144622 2.3767113968524423
    -1.3258791130909613 2.5200719111966232 -0.88433559352765811
    2.3136320571804787 -0.8875224745372563 2.2661804500162748
    -1.4637817643011548 2.2485559642740349 -1.317092497792048
    2.6034290247798939 -0.66108691542603382 4.1962094367146356
    -0.32832124545287494 4.1755834728453065 -0.26348992993219955
    5.1922618692967246 -0.21159508855093875 11.179949642573694
    -0.10278690966252776 1. 0. 1. 0. 8.7264829977999323
    -0.24533907629963234 3.2038027174492014 -0.64464754499365906
    2.3021176403388499 -1.1447962507643454 2.3549321067966154
    -1.3271164030678513 2.4587578949198488 -0.95771178650402855
    2.3036516702233416 -1.0002086536096051 2.33608529498908
    -1.5579763176312853 2.2630543527588158 -1.3078432673536071
    2.6428305671199253 -0.65213528213570893 4.2889351782090195
    -0.32182307579184782 4.1755281723216919 -0.26342903587198191
    5.2041127351739478 -0.20980647311804995 11.319693800481753
    -0.09928634525220939 1. 0. 1. 0. 9.2102454954687971
    -0.23380547949672245 3.2529139286320046 -0.62259892766697011
    2.307433142760253 -1.1267011543738781 2.3540505088612034
    -1.3755687507920216 2.414287872014572 -1.0618286277936122
    2.3376107374568162 -1.1730514835199708 2.4568642650581825
    -1.722410005055786 2.301336565965812 -1.3305918256539164
    2.7221054436296881 -0.64143097670982663 4.4048716277743019
    -0.31721494892646035 4.1755281723216919 -0.26342903587198191
    5.2040498296888371 -0.20973239265237595 11.319675433156196
    -0.099130563162796295 1. 0. 1. 0. 9.5277859813382015
    -0.2243469326097047 3.3095163954754168 -0.60255026467011941
    2.304807547097012 -1.1121822276244149 2.3560335126134739
    -1.4200819848199218 2.3767574033274976 -1.1826237759170037
    2.3663209938105974 -1.3220264691268775 2.5991906338662383
    -1.9130143153736294 2.3356948411198406 -1.3500557849117545
    2.790666488873272 -0.64547261076013029 4.5048100459556002
    -0.31496743827294732 4.1755281723216919 -0.26342903587198191
    5.1982801838007084 -0.21108996368776492 11.319675433156196
    -0.099130563162796295 1. 0. 1. 0. 9.5393799510889714
    -0.22652154530225743 3.3459639803957626 -0.595685203743895
    2.3160488052831814 -1.1121062130543451 2.3785298103720316
    -1.4834184676767512 2.3448162775191803 -1.2450563059313695
    2.3812269885857673 -1.4114594015990567 2.7062358394520252
    -2.0465469673356274 2.3247471696035427 -1.3462128253478225
    2.840069559217997 -0.6456740111711663 4.5656959617120831
    -0.31224147541089714 4.1730525599841766 -0.26454934432980803
    5.185561902424709 -0.21283696878227379 11.175661722493775
    -0.10470641132869901 1. 0. 1. 0. 9.521208366810674
    -0.22334122849764856 3.3485486566378815 -0.59811336496232004
    2.3104300583154065 -1.1193263589381717 2.3868842569707094
    -1.5038958254103747 2.3301653235130337 -1.2461345060116684
    2.3749267458965786 -1.4071944026677596 2.6858175946793819
    -2.0173979052909083 2.3164870509747342 -1.3570742392418342
    2.7754140599638371 -0.6492134738041706 4.4824933355205232
    -0.31772081715915851 4.1696392756189287 -0.26487753340682596
    5.16734566744507 -0.2159254477498341 11.027700846489319
    -0.10620067630332862 1. 0. 1. 0. 9.557352216113971
    -0.22819654595356881 3.2974162837229644 -0.60101590297967855
    2.3144590664658602 -1.1305375491423706 2.3796049425208006
    -1.4920794912433673 2.2901586190783854 -1.182794063924042
    2.3328654995265512 -1.3023091116830199 2.6140680571177368
    -1.927863404451748 2.3146672697317476 -1.395514734826532
    2.6423269371255551 -0.66132869715352038 4.3821098140505184
    -0.32971816395023906 4.1696392756189287 -0.26487753340682596
    5.1530006398771153 -0.21672516007141929 11.027700846489319
    -0.10620067630332862 1. 0. 1. 0. 9.3182734423470759
    -0.23366543642829465 3.3014169948783088 -0.61694986726154277
    2.3200690402987529 -1.1385964885509614 2.3794921213399238
    -1.4542090505176197 2.2912537377019633 -1.1016413909403462
    2.2821763602251419 -1.1656822469184553 2.5339174722208813
    -1.8098017168932776 2.300933512673339 -1.4269575882099608
    2.5665026118816843 -0.69117520072833261 4.2696035281313192
    -0.34302986554112547 4.1689869400325197 -0.26492206603764884
    5.1530006398771153 -0.21672516007141929 11.014164611454721
    -0.10629745056525691 1. 0. 1. 0. 9.2149381892862081
    -0.23737678349377439 3.2406749655187439 -0.62176007228143604
    2.3137788190870441 -1.1337838342739481 2.3701353167984451
    -1.3853180535952956 2.322546794987729 -0.99295850990629875
    2.3102896491715228 -1.0321763311109629 2.3967123538663646
    -1.6287643852529405 2.299108556775328 -1.4536564402522063
    2.507775071279871 -0.71868780411307243 4.1483766568113332
    -0.34918765409507779 4.1696392756189287 -0.26487753340682596
    5.1530006398771153 -0.21672516007141929 11.020926423214368
    -0.10624907242831345 1. 0. 1. 0. 8.426445345897486
    -0.23160379982144094 3.1419095875363192 -0.62216191987113234
    2.2820478220466125 -1.1211136929173462 2.319541798205532
    -1.2982992597758483 2.3875086326995389 -0.90366818581895658
    2.33034815780919 -0.8959852514490203 2.301159767145633
    -1.4940237600662658 2.2826866877281624 -1.4612474238853439
    2.4551922273909024 -0.73880650068818188 4.0981002187536602
    -0.36042098168135578 4.1696392756189287 -0.26487753340682596
    5.1536468538049238 -0.2166991995713857 11.027700846489319
    -0.10620067630332862 1. 0. 1. 0. 8.081402269411516
    -0.23789661852047703 3.0598937738970107 -0.64199348991061533
    2.2887539962058394 -1.1600271050589817 2.3445853215822532
    -1.3107936705408016 2.431442535928924 -0.86706450448715111
    2.3566407601647024 -0.85134867873679532 2.2391597685835181
    -1.4185000774924912 2.2674514727912323 -1.4732998878352059
    2.4215160373000884 -0.76715672251332001 3.9395866547561624
    -0.37374992924486489 4.1696392756189287 -0.26487753340682596
    5.1536468538049238 -0.2166991995713857 11.027700846489319
    -0.10620067630332862 1. 0. 1. 0. 7.510127617292679
    -0.24815647413656361 2.9636126274072483 -0.68211320324742231
    2.3103376877485595 -1.2684762767665354 2.3818451021360074
    -1.4115310758423376 2.3935348044972811 -0.89934321866994427
    2.2947203775986216 -0.86329533187609164 2.2230280690954904
    -1.4231184604687563 2.2760033177849865 -1.512391709481719
    2.3811355184851029 -0.80106913212102437 3.826979160021394
    -0.39057008561713763 4.1697111068700785 -0.26574196372890058
    5.1536468538049238 -0.2166991995713857 11.027700846489319
    -0.10620067630332862 1. 0. 1. 0. 7.252354161039734
    -0.26022779292012554 2.8721513387794619 -0.72338076423727449
    2.3719344469481625 -1.408951318590131 2.4530140519495673
    -1.5536809539852507 2.3573196059096539 -0.96090619830699953
    2.2177355116795829 -0.92092943107750136 2.2378849798065343
    -1.4720022949323242 2.2956419813028677 -1.5576643516523545
    2.3750608149278376 -0.82584902440104757 3.7569985096872678
    -0.408685202067819 4.1579769338373636 -0.26776654056700783
    5.1560901541025483 -0.21658927967889616 11.027700846489319
    -0.10620067630332862 1. 0. 1. 0. 7.0550952445432706
    -0.27274221564318912 2.8555328698141329 -0.76174041990161778
    2.4247484345915988 -1.511451943663719 2.5670037458643358
    -1.7059363500915061 2.3196899889709819 -1.0125139264471812
    2.192315102932799 -0.98612926147259006 2.2827354521921173
    -1.5544929844504298 2.3078986414946026 -1.5810836893334028
    2.3687023554317301 -0.83411571364288717 3.7703060428999384
    -0.40470322960778349 4.1604111464951528 -0.26758011992122216
    5.1710015648689689 -0.2147452764771326 11.053505153700751
    -0.10599329583168426 1. 0. 1. 0. 7.012590833562018
    -0.28476486300733622 2.8607467488520091 -0.67394279262164192
    2.3088707897823979 -1.2109797368484816 2.3175507812291962
    -1.3364299905547365 2.3187817093105543 -0.9284690306198019
    2.2028932763954656 -0.88306526598831414 2.1256880045082491
    -1.2339883524475204 2.1365819616495481 -1.2389832855393252
    2.3672567789940793 -0.75843667415931726 3.9738490776861992
    -0.38292796726286082 4.5927992108626272 -0.2392413426280727
    5.4662200032775194 -0.19852398748838701 11.197543496594481
    -0.10248683934322755</input_scale>
  <output_scale>
    0.52631578947368418 0.49999999999999994 0.52631578947368418
    0.49999999999999994 0.52631578947368418 0.49999999999999994
    0.52631578947368418 0.49999999999999994 0.52631578947368418
    0.49999999999999994 0.52631578947368418 0.49999999999999994
    0.52631578947368418 0.49999999999999994 0.52631578947368418
    0.49999999999999994 0.52631578947368418 0.49999999999999994
    0.52631578947368418 0.49999999999999994 0.52631578947368418
    0.49999999999999994 0.52631578947368418 0.49999999999999994
    0.52631578947368418 0.49999999999999994</output_scale>
  <inv_output_scale>
    1.8999999999999999 -0.94999999999999996 1.8999999999999999
    -0.94999999999999996 1.8999999999999999 -0.94999999999999996
    1.8999999999999999 -0.94999999999999996 1.8999999999999999
    -0.94999999999999996 1.8999999999999999 -0.94999999999999996
    1.8999999999999999 -0.94999999999999996 1.8999999999999999
    -0.94999999999999996 1.8999999999999999 -0.94999999999999996
    1.8999999999999999 -0.94999999999999996 1.8999999999999999
    -0.94999999999999996 1.8999999999999999 -0.94999999999999996
    1.8999999999999999 -0.94999999999999996</inv_output_scale>
  <weights>
    <_>
      0.14988543665907611 -0.09447479628824991 -0.045710410595470083
      -0.17943574223034239 0.090322197588408232 -0.14580560655228747
      -0.056804818729516454 0.14283734913826671 -0.10407241133622631
      0.074580790639661387 -0.088145267792591686 -0.040977225391098569
      -0.053296004374006375 0.048461964932483399 0.13995065680224222
      -0.082878010008602856 0.079730037013224231 -0.1490473690004516
      0.11034719892204274 0.20787223122136278 0.098786552050108667
      -0.099104333746299053 -0.12057282819513442 0.15861030399909332
      0.033699237477352068 -0.17478778852484669 0.11579266617223861
      -0.092116279149511843 -0.09886169306448829 0.083300631264014532
      -0.23426431702599421 0.04409430737124951 -0.099124627203282425
      -0.12220106666909601 -0.0048900201781424653 -0.012185186644730303
      -0.19943878301511808 -0.14467481363721962 -0.073225180332048223
      -0.22988591403479494 0.00027716176394929103 0.0022747266845186851
      0.13039697121045693 -0.046290137101079133 -0.026589194891443475
      -0.021422445307864878 0.1072436538114067 0.083213128399206665
      0.060321978614995705 -0.081499338381833833 0.10127708713629935
      0.18817420341511637 0.29903014855854032 -0.20347029180059825
      -0.14494096705058052 -0.31059065899667665 -0.027325208597363881
      -0.13214354799197672 0.051661649321355085 0.30082313677034173
      0.027963443639328248 -0.20544267025084187 0.19124048175146613
      0.029990282915560336 -0.18218048447836219 0.1075118721228452
      0.16541169570819009 0.055576345356310376 0.066810927560632061
      -0.060200760140595375 -0.032545666796709893 -0.0097540925722987889
      -0.045111864034511784 -0.081181441988376069 -0.046227506611778567
      -0.075915348667929858 0.074522059556757947 0.23697046052753243
      -0.096016439654299388 0.26154862166727844 0.2430083602157978
      -0.13526005124168961 0.29388756055363863 0.38009195743625745
      0.011376764881711004 -0.12486339338741825 0.0099068805201688107
      0.19722553150565281 -0.056319432001697395 -0.027611432297002941
      -0.10940652428440358 -0.14688261008263545 0.099561837152786575
      -0.042208434561461117 0.04187220493871819 0.063251992180215322
      0.11722042101369863 0.1881413473445388 -0.043552717269893224
      0.091053454380560048 -0.080358526236188235 0.053825589923252093
      0.12086485475872331 -0.030399438775562098 0.27065449244874956
      -0.056416521745136242 0.1146081302346222 0.060884458138747662
      -0.13078767847650646 -0.21367894383362696 -0.039295621100758897
      0.3461350448913319 -0.020092958556719397 -0.087388065047400959
      -0.097949828415406268 0.091815140916270327 0.24096844731208436
      -0.13382614571924928 0.013453768913483538 -0.071746214107484205
      -0.10062745899303685 -0.055663093414693075 0.19607367430154848
      -0.05647411380769915 0.094381328357969502 -0.12330485957439852
      -0.028037851322907165 0.23930832437721639 -0.36129138491433832
      0.29199319038006877 0.36134857999134901 0.22804159808329155
      -0.11218061810253555 0.027187418820046553 -0.12518172651425929
      -0.025592005759172021 -0.18784506005976476 -0.17281731097228176
      -0.029968236640009211 -0.16595079111285371 0.11647918112640405
      0.56296520073844092 -0.1116238290239118 0.51998435055341485
      -0.0011715634661328138 -0.280689367786771 0.2650931227867917
      0.43184082575279559 -0.08352007409700718 -0.068391438140867122
      0.10357693196441299 0.36717761201972676 -0.22313827624594226
      -0.013732807687901805 -0.38668915623900535 -0.24489869282400409
      0.48823031842369352 -0.09142839077652995 0.33021546514110145
      0.2053072275161531 0.19960680729665886 0.056681223260945955
      -0.056129881114631394 -0.0015893082891915648 0.093891248564683782
      0.20910720706463026 0.25939172755127082 0.01239573033085787
      0.33342994629518818 -0.14496962824504242 -0.15477356451730045
      0.19824308695268658 -0.16854201572387828 -0.24410983143727277
      -0.2174892255856602 0.34716080841875457 -0.14309218388894895
      -0.11424011937468223 -0.27775369773678416 0.093171383470399646
      0.34252121569785499 -0.016496999090709025 -0.089865574031677664
      -0.093506702017788088 -0.12109807465201165 -0.1782932107092198
      -0.0017297829453056103 -0.11029005573747555 0.055123653089364587
      -0.022652312811712878 -0.33877122803589471 0.18864329273883731
      -0.091626970480016862 -0.052494081023946912 0.16148586370909046
      -0.011344005115497074 -0.0082667206850442192 0.023263117007126098
      0.13332144302582952 -0.048083800788893835 -0.1159552692082718
      0.07903357205598846 -0.17818940428236771 0.10065666444566364
      0.1021658620126929 0.36877438724836448 0.16482346933295461
      0.13621776084645779 -0.18718720753250767 -0.42304495106769907
      0.44816148225520086 0.24667879776437807 0.060603843017882734
      0.15805678147546268 0.19813257657340563 0.34123337668057396
      0.12916135086725491 -0.29885625436267621 -0.29201196058068501
      -0.057053001602699174 0.26917812989921613 -0.00049945228332124239
      0.033339209283716018 0.037468659191197136 -0.21508993910602189
      0.16715742330516295 -0.15352516789217605 0.023167361818198954
      0.17069742393557485 -0.11698440164000008 0.32117692393100011
      -0.24486873305126633 0.036939963137550796 0.042985482595137736
      -0.010625572659175979 -0.083920847660753459 0.098740744194993735
      -0.046140739231762193 -0.25765306328010434 0.064886285699641527
      -0.070437261390749031 -0.10485025194254562 0.017460339203662911
      0.31659565320955313 0.30570345261418513 0.085501718879868821
      -0.056287647503896643 0.065827151963514102 -0.084923151962277912
      -0.26675292387244676 -0.023876808039435423 0.051810260017765584
      0.063254157628081398 0.18445983771350905 -0.051352419551908585
      -0.15475889903185458 -0.091196525022264607 -0.048404045804734314
      0.15957457255974689 -0.0076625524071894909 -0.0037251743190998428
      0.019042481974311638 0.1334985241758764 -0.042804512023404573
      -0.1125551334556464 0.078800127350172944 -0.17784697827263851
      0.1034789003392295 0.095126759135933603 0.36821044771202699
      0.16147901466480516 0.13120487268087602 -0.17978352553627103
      -0.42078999476577555 0.44242152984058597 0.24631277889890113
      0.060280821702053185 0.1586594761396358 0.19771548528409874
      0.34112066799454732 0.13018650261608983 -0.29707159276925926
      -0.29200487935681063 -0.056479678604275982 0.26781069022444964
      -0.00032498862607710846 0.032473627569179361 0.034478433059968394
      -0.2218778206784375 0.16161969320843753 -0.15230977843723598
      0.024654017492092378 0.16389303962602592 -0.119107015460046
      0.32169464162762013 -0.24538386013163471 0.033355114729278913
      0.041540422214695158 -0.015945561728951545 -0.08116343561433885
      0.095010893228198279 -0.044940725681908225 -0.25460431174052511
      0.070318025939446471 -0.06704992124766096 -0.10011879101907388
      0.020483376863032095 0.30979153755030936 0.30793172505511873
      0.085337697618664721 -0.059009671886488382 0.069048501927803707
      -0.089577340023162491 -0.26746673849681285 -0.020242475289905488
      0.058363594646752663 0.062912562930757698 0.18552747480234011
      -0.051437878335014425 -0.15249462400885544 -0.090248514733236362
      -0.04718039927929768 0.16433100311505169 -0.0087925696396141118
      -0.0024827018432829868 0.049092827488807833 0.13020263283864913
      -0.05040299660373522 -0.1125183103328226 0.076064018471803191
      -0.17204823161324179 0.1065599586449473 0.094998043755106926
      0.36502118218851676 0.16255070635681787 0.13427467814426894
      -0.18045049007752567 -0.40556907209468551 0.44794398584451062
      0.243113332811802 0.058938546775152714 0.14471465334574679
      0.20012524296953066 0.31370557441223912 0.13226953794697596
      -0.29624968829625331 -0.29100238152320274 -0.053704323408850216
      0.26543072762049763 -0.0042936336460731549 0.033509545228364225
      0.038964782984840511 -0.22304548826238399 0.16821229370747068
      -0.16721410758912308 0.022229951093909874 0.16281893123729463
      -0.11636960663253787 0.29392717357011794 -0.24667471218299566
      0.038977186840435281 0.044073849378400101 -0.011617544620861875
      -0.082785647443940666 0.095294196865084377 -0.041187223822387146
      -0.24351032549818044 0.067434894473462056 -0.070279689775185269
      -0.09700505738778524 0.020226265305859765 0.31285815095270259
      0.30619279895775414 0.089413708735128147 -0.05329254308532054
      0.065790164671630402 -0.057358006315648684 -0.26501048239917185
      -0.023051419158885648 0.053871898887311934 0.062629910114370843
      0.1782915183857659 -0.055233344564972781 -0.12191867457258543
      -0.080984823672233378 -0.050441429103805148 0.17074292972366256
      -0.027273529034604352 -0.0045265514590703852 0.13935508100802099
      0.12192464972273701 -0.059369600896327451 -0.11114737994762283
      0.07844237338733577 -0.11612997134382651 0.11250724426038824
      0.096178280617443587 0.31418107519460992 0.17427322658376973
      0.13151381762045694 -0.1371594443102655 -0.31709415657295298
      0.43408354441155084 0.18616138338028437 0.055882994341928956
      0.067311909081317858 0.19221195999223256 0.21140971797734795
      0.1267987001471772 -0.2873283017950809 -0.29430956197420255
      -0.070291525192139395 0.24843973122839239 0.0011454558034989799
      0.05116174434143575 0.046475662775148321 -0.23155729586920634
      0.1552640216052488 -0.21479958979476463 -0.0010343100536178815
      0.1447758685837357 -0.11687236651118597 0.15159286570772831
      -0.23525202437421591 0.04554995050825221 0.046918744885473637
      -0.012772461596464007 -0.084126631716913078 0.085467220227658472
      -0.029030561072116299 -0.18940504965730329 0.10798729367528334
      -0.075736221587728608 -0.10516739989819775 0.01954128630164215
      0.31582945038410715 0.2886727036707597 0.086447655811915228
      -0.046229209128603684 0.029364250369645052 0.045542522134707497
      -0.26599744279400023 -0.028261591500667736 0.051161011785261619
      0.066591837167530477 0.23318610875815085 -0.053650611709668922
      -0.015210976134777647 -0.079953758309920506 -0.053207760332489897
      0.11070104804181513 -0.075642460382379595 -0.022716687553950926
      0.053082793327299004 0.067206432230664317 -0.072616861637116142
      -0.1173166366838681 0.10543682513408677 -0.18501204016528788
      0.11170176123549308 0.094629834816684674 0.17687848151719862
      0.15880303128533188 0.12469804584228954 -0.15784220749551545
      -0.36715291664765232 0.43289913663653118 0.095398099241449597
      0.011570545255695324 0.11043733735932029 0.17489938746394537
      0.25721139390862768 0.12057917222210622 -0.2725908823782528
      -0.27420484557294944 -0.15874481174433644 0.22452964310246959
      -0.0054149844892448914 0.1429964840056509 0.091744842373691862
      -0.16022217034406916 0.10971649045133205 -0.16744514768921961
      -0.10543295922710193 0.12551530643038036 -0.10143388218580321
      0.23507343781214948 -0.15789761742488787 0.090658670819205145
      0.052341840669110677 -0.0024334009162854404 -0.094713778355974124
      0.090758734330231766 -0.0092416768728847114 -0.24315849564397335
      0.27460214913932274 -0.069423164445808414 -0.16483967615039283
      0.031852331396812213 0.34186137088018154 0.30376093198349713
      0.084817987984657325 -0.038503474452901774 0.011706773116105592
      -0.10575008176865509 -0.25998582361833716 -0.028790647575205837
      0.044230260587486872 0.078273479359140641 0.45010917732301342
      -0.033433452592050175 -0.13783130332070151 -0.086559867597267012
      -0.054981582198265364 0.13450186069181977 -0.016657980228853508
      0.010009529841143327 0.053066976234751657 0.13868961876068539
      -0.069740459594699516 -0.10620775140395827 0.099003403382834407
      -0.1495086144462294 0.11334064211028662 0.10136176392356903
      0.17572204733709199 0.17594965406826593 0.12484680935295815
      -0.15006005155127264 -0.37213506504728044 0.42319054936817108
      0.22434260247238028 0.066270191758150854 0.12093273781755166
      0.18240594953924058 0.27951465099856421 0.1240965514241352
      -0.2917034234676848 -0.2847011235218061 -0.048838654219794768
      0.22644192237325439 -0.004439589556692324 0.030861594551587136
      0.037277110510336726 -0.2102037324920743 0.17230870981136462
      -0.16081022779690965 0.035050734030196533 0.13443825313809943
      -0.10768779703489338 0.20229073828908753 -0.2451424419786411
      0.034126246940522208 0.054077024503021577 -0.0038533658274968836
      -0.087373043315018509 0.084118025191942947 -0.040411445439191014
      -0.21472073428020694 0.059739777057377007 -0.071941868255850264
      -0.082139151563744683 0.016314433842314024 0.37795519499089864
      0.28038415772950348 0.087179348593518335 -0.039810478189545251
      0.054310651252819767 -0.050642263430876432 -0.26055026620123156
      -0.027113423787931981 0.05180169862523399 0.06691215220525118
      0.15646823592123382 -0.034826526918871802 -0.086677881046105076
      -0.079566166253187631 -0.051722066163844005 0.15986037019901897
      -0.038483720374995048 -0.0075780330930601087 0.14996472586924986
      0.1073822934685905 -0.059787662720238659 -0.11180399050033712
      0.087296724155458486 -0.11438328950213793 0.11213596329526025
      0.099263599316881931 0.28024235377291018 0.16981410109450867
      0.12784099421759521 -0.13909103060346092 -0.31362937024306303
      0.43444655296628659 0.15731254516087156 0.04381309347885215
      0.053838984941902389 0.18585691730974171 0.19035084109061495
      0.12137347554623468 -0.28334621586689845 -0.28729730840553902
      -0.088977046471138757 0.23640385586908924 -0.0046776131594819786
      0.072581003612167905 0.062306448611355342 -0.22355186800075483
      0.14857682271793785 -0.21941825032250031 -0.028186486332923862
      0.13556409339416894 -0.10857901584988765 0.14051101824732742
      -0.22872533364452913 0.060969966429412867 0.046871915527019123
      -0.0059792729163947117 -0.076824229733741936 0.091387272472769093
      -0.023441903337555862 -0.1880339689834058 0.14987526780123736
      -0.070920676801145055 -0.12279066816585391 0.017979860415242389
      0.3159884996596885 0.28821394976755549 0.090273736353915529
      -0.045621749698072603 0.02600782292348746 0.039474683611584495
      -0.26656036311465414 -0.030262078011418749 0.054260289944899703
      0.066478761919279802 0.28496868788804647 -0.053192920125346432
      -0.016180972070834167 -0.072644495512056872 -0.045634481678013608
      0.11008869695348257 -0.07245994028560758 -0.011117831333912755
      0.15711837005525406 0.06612631603138279 -0.080389627095365693
      -0.11430145678336887 0.099592850232623598 -0.11559832248421914
      0.11725660712397082 0.098168028430388743 0.17078124808746184
      0.1546078617449948 0.12186493711907154 -0.11646580726728652
      -0.27670143843545636 0.42601816783043273 0.072186302631868274
      0.011533186651583312 0.02187738358209244 0.16682704195139
      0.15194552683185594 0.11333670839431895 -0.27966075697150089
      -0.27904057194864285 -0.14823853219138167 0.21160006787917787
      -0.0042870430658622435 0.13176625358237284 0.082683068062749568
      -0.18291083970067332 0.11653073741745668 -0.22683859484074342
      -0.10544973021835881 0.10899578347735023 -0.095604142727490682
      0.088366518872639063 -0.12702023266872595 0.092072650079659299
      0.062193108438836651 0.0035839684402223532 -0.11429039336357373
      0.081378450140253661 0.0035312440251420029 -0.17527219438624006
      0.26670580562536816 -0.075226104460140886 -0.15135747704575703
      0.029605963536242567 0.33123624780752803 0.29949786947532026
      0.08592027103106982 -0.026059054971985386 -0.037757128437926564
      0.020036986479647134 -0.25904655962678941 -0.029838540429562126
      0.04315118993392305 0.087122862117387734 0.4343348584955451
      -0.036489774708279764 -0.0085575531074409267 -0.073435566215233117
      -0.053000771240001507 0.079778765809476765 -0.067193845125314164
      0.0013361985234086212 0.14707097047926318 0.068480786419452003
      -0.083430322798671561 -0.11518268036618728 0.09635075458028107
      -0.11901296938637043 0.1214568898267246 0.10066169499410643
      0.15657829532465159 0.12692707680574597 0.11632153098119469
      -0.099171929984166934 -0.25982919840803886 0.4296696333163369
      0.067118635471490884 0.020038405351960272 0.0022039072623930601
      0.15920104216724598 0.14878230864446196 0.11083418202126191
      -0.29960427296133868 -0.26521792014569673 -0.13826867663074591
      0.18808202975797089 -0.0079905008754732054 0.1225087380876943
      0.084133224380863389 -0.18073907345392287 0.11623106926721816
      -0.22029198103718195 -0.091639284199729873 0.094816845131543467
      -0.091911144136805567 0.078382451969017386 -0.025415967159126026
      0.089071156131094731 0.057331753119380026 0.0035048414109080527
      -0.17688691422175012 0.074696725704252245 0.0024412693348124449
      -0.160899132655386 0.25251390372381705 -0.074689272465921761
      -0.14382744585460491 0.022779613426605439 0.32018936493261413
      0.34871400783283174 0.089160573860629089 -0.0215270807683451
      -0.10704519263448053 0.012107243360377449 -0.25807549641652056
      -0.032500270665307869 0.048797917427492073 0.092254994450649358
      0.4127197902102101 -0.032747806704068648 0.0021356095713170472
      -0.077005618887702021 -0.047268631283785653 0.0796071877649491
      -0.070925793723707511 -0.0018780501697503954 0.14389109227631239
      0.06590128745348868 -0.08422388047744718 -0.11480840484820609
      0.097070773824907766 -0.11678600224450567 0.12437171924857536
      0.10622471606496597 0.16316077978669155 0.12343282244477922
      0.11072533404051232 -0.10001213287216223 -0.25704092706414927
      0.4306454532707833 0.067797419340995035 0.016190799736118363
      0.0061857851531338494 0.15155661293745867 0.14583649977484664
      0.11031699364310835 -0.29963459886927046 -0.26945271960727341
      -0.14065783381582334 0.19154076684356908 -0.0088307998932834718
      0.12180290941225902 0.083533032885017386 -0.18435344239966431
      0.11820960074490541 -0.22113415054713864 -0.095950730453856228
      0.096103052849028273 -0.092517833770489014 0.078755959438476589
      -0.019603265476298658 0.086591898428609898 0.062531778814461675
      -0.0038629366621389283 -0.17878005841454794 0.077223885939789086
      -0.0010686617792322601 -0.1663655550512648 0.24992432899357256
      -0.074057557712543673 -0.14004244742495056 0.027863284693084887
      0.32226418785601746 0.34541523242471245 0.088116895531940104
      -0.021298503306685805 -0.10671386199485897 0.013823990081846154
      -0.25718684318833046 -0.037668939595090052 0.051894548402951039
      0.097957132174908951 0.41179384576912514 -0.031908527263396678
      -0.0028325754148474228 -0.076627349904248521 -0.049899911394252039
      0.073580180202503842 -0.068481202334506816 -0.0033150371523724838
      0.14635474305951565 0.067873965353574595 -0.091025688530854229
      -0.10865260519829878 0.095299110716298832 -0.11713964481666311
      0.12356957472693648 0.10031653661633325 0.16334436624995799
      0.12337231389487745 0.11654510483402761 -0.098903866488159603
      -0.25584133666426578 0.42872605383795259 0.067395670083795822
      0.021747635406660762 0.0025312750697663129 0.15160715538178474
      0.14761936786794844 0.10564121685530709 -0.30012452167819087
      -0.27169906988805692 -0.1366249698068758 0.18881121591599853
      -0.0071039005454621336 0.12514240502877799 0.083731561614648328
      -0.18432884923743459 0.11491695223380438 -0.22260668878951051
      -0.087804927972128285 0.09614914408702542 -0.088959942247606172
      0.076466655820316309 -0.017828854467753594 0.087938356144870444
      0.05957848544196058 -0.0019677585884001368 -0.17315403037177915
      0.073353621025513779 0.00078135958601550253 -0.1672467302440441
      0.25316573521252544 -0.074809088730531062 -0.14563630518513695
      0.022073686878160161 0.323152889169388 0.34517869022995212
      0.090852273756256707 -0.024475116970365265 -0.11305999073460385
      0.012519048772397437 -0.25419268815631241 -0.036071461666123135
      0.045846427319279966 0.092156487976795431 0.4125996822974356
      -0.0306004105403027 0.00077653409025869684 -0.0077915538277416171
      -0.06822333444956645 -0.085460493686489891 -0.064155788067183306
      -0.077250061072861129 0.053419891628078302 0.13114341650504591
      -0.063923290563948895 -0.00031419800797829594 0.11237420195152585
      -0.18873681064768288 0.15779662234271402 0.11138314303382768
      -0.17165226346947043 0.09520680972009847 -0.021834206419598521
      -0.15228576073713515 -0.3237405045575652 0.094324270812543493
      0.054205148001191375 0.029134820603660527 0.089276815413699251
      -0.059764672067344718 -0.045251604957690317 0.1033280046233564
      -0.081996939844048197 -0.32667838720249115 -0.058757613826970534
      0.14995536620350289 -0.087511245215421821 0.038979535359004121
      0.094646572514183666 -0.16634923843816765 0.098124113777673327
      -0.10020393898855567 -0.045253008741385985 0.1232339296215703
      0.10577831751284396 -0.078676383200949343 -0.0059795453192029047
      0.063693055037386426 -0.0054928408221234142 0.011425334277286823
      -0.17597963866924182 0.061965894515088882 0.077662463339686821
      0.026972136765719641 0.17542273584101031 -0.042198709549506122
      0.041864526350251667 0.10509744539968838 0.058301599713696493
      0.18116254695067735 0.10373651951881563 0.015610336680937057
      -0.10469247938522269 -0.16398540698389921 -0.086354033706043609
      -0.29141061990310857 0.035102409424786596 0.079717461830333181
      0.23880330669511041 0.10230674935244374 -0.069533070642288988
      0.02547708238899743 -0.19645177392113744 0.04156280860942517
      0.0294868000945686 0.046442223829256737 -0.18378081498573157
      -0.058320331964800798 0.092609717525436452 -0.0069840782863829515
      0.038628569946206691 -0.25749769835822456 0.16101988040629286
      -0.04087398351452854 0.21431630538975971 0.083694037345676375
      -0.080074793732635652 -0.052781039289314179 -0.16691286887006121
      0.10940578811646144 0.34576624234658926 0.11652306180479634
      -0.30923639359325072 -0.033261862110850832 0.10482781805664319
      -0.048549536644209364 -0.1506393348247263 0.014750455175599484
      0.010494990179978255 0.012290687530457943 -0.11285342096839793
      -0.13070560340899551 -0.009375601539905673 -0.15546337502902588
      0.027886057889569112 -0.07187264980033084 0.002831293367040038
      -0.076545293891223748 -0.15719322950954814 -0.083903924184524512
      -0.27032878900168505 -0.08857837369148211 -0.073965873205788096
      0.001451017251298335 -0.17126705289638899 -0.046611134663998251
      0.019599710200596605 0.045538827763418874 0.0015962833998742843
      -0.07143023598310827 0.0086316458439464235 0.15993101429481246
      0.21421982608397458 0.11730213910599735 -0.050300527555452341
      -0.026217043452496973 -0.11179651956214551 -0.08509590587243368
      -0.16256641359649948 0.046356327892784141 0.21593772923806914
      0.23893054247784062 -0.25262328433168041 0.11350443095904957
      -0.047072649940931806 -0.27968198495435603 0.084038164378781491
      0.33874813964310091 0.27618122652908933 -0.018541939018154756
      -0.011043404993970659 -0.077107723575734116 -0.0071507380755668629
      0.0052929896277135388 -0.028166524716536023 -0.1195276297598243
      0.024145847902703969 0.10098707422189616 0.46794715361759576
      -0.039948200997450681 0.28692724646919632 0.048009010665431069
      -0.19293399416383938 0.3111765508781017 0.45760291436067707
      0.009711037006556459 -0.27888038127901138 0.15839841325827006
      0.16186634931190125 -0.16133268615315316 -0.0094287219935660846
      -0.13396397580910105 0.0036623239829086792 0.29029444466314847
      -0.16317897734227271 0.23689370215598199 0.10686335211076428
      0.060476344112790681 0.18263443848661876 -0.096843369871637802
      0.080664740559912573 0.038951741186769653 0.10202373854079105
      0.081171150546751572 -0.028212025159586551 0.22284758172333224
      -0.081554042761640147 -0.088382459813583822 -0.006499356648532793
      -0.20097914082025287 -0.19119222171105285 -0.1469804033950747
      0.24589643292561145 -0.13402447511173837 -0.017282508979978482
      -0.11578700406964725 0.14987808252730392 0.12240527048407429
      0.065304156249612375 0.092969083534204605 0.10074792545165015
      -0.007994459511557573 -0.020061524637263073 0.052777264721658106
      -0.054142104359619705 0.16205342464532599 -0.10907694252986853
      -0.22251252404233551 0.16855211915791035 -0.27026357837295656
      0.16074887922289932 0.39312465665994428 0.18198913358301036
      -0.085524791538188261 0.012863863592997501 -0.057869284557438228
      0.011440113799970286 -0.1396236275095144 0.071516472900509526
      -0.047943000912059455 -0.035202433084025452 0.11055930709968213
      0.29342987650131586 -0.027376546788201228 0.24255050323140753
      -0.14460988957670337 -0.35071132734289118 -0.031326955585563969
      0.24237192435829111 -0.15600228671745073 -0.056918353742119246
      -0.090964348710601106 0.21759164013873561 -0.13388441965197903
      0.043757122517487826 -0.3062669300380636 -0.08349230762254671
      0.28055214848579529 0.03668707378380448 0.32238736536296292
      0.14800899072964202 0.077112059091872492 0.01500213694057464
      -0.028113212294513933 -0.2914717430140894 0.10289137406060139
      0.13663556309553465 0.071593481312304696 -0.096569023699826617
      0.27862684650292208 -0.11129987693660258 -0.3125549381071685
      0.078075223698097565 -0.078198483972408708 -0.24452126805263555
      -0.054502749007928113 0.40162335173553521 -0.14946530334402641
      -0.082022938972199588 -0.16890774615972082 0.13787874292580329
      0.17712309783169408 0.13720751823383323 -0.1295519340666017
      0.0084433282247652307 -0.13363594547598714 -0.17675737101700031
      -0.24911174530526856 -0.065830413198397039 -0.017141688968774837
      -0.06376541679428803 -0.19775027986812724 0.16007190590002185
      -0.13960700475440718 -0.045557698966587921 0.28148132936056225
      0.061220527543695606 -0.011405638072571904 0.060135005385820249
      0.035308902007002027 -0.015857982750577503 -0.013017386443981552
      0.38137313475973844 -0.18832047627562615 0.15368268254167131
      0.02261335284879494 0.1647616112540321 0.18858660691588253
      -0.042399491841120546 -0.23862465356965581 -0.35660112958935092
      0.21825206781057266 0.10473584502555998 -0.064030773154442236
      0.16443288930048611 0.040626300919277894 0.096310273462264312
      0.16117034474601358 -0.11527360486665447 -0.30037719062046414
      0.0046071154666611535 0.14849800496987606 0.039330477623132125
      0.084391473667926681 -0.15981248139418602 -0.22179329742673801
      0.25714906805179888 -0.12158995547057196 -0.21180652578638309
      0.17877473923543763 -0.036642617034712124 0.060923412621469643
      -0.24840342160095635 0.075213417450127398 0.020533428759922707
      -0.18137942987364652 -0.11160216221055537 0.10761668479284145
      0.022174978808672793 -0.092306274487972961 0.019116341463783
      -0.048741344530048109 0.068473813434305281 0.12520997662976888
      0.16624694190836184 0.13523080884833932 0.15320302380615819
      -0.013724278224876634 0.36020240106564744 -0.11303844415198906
      -0.1389137783512974 -0.23320612481397796 0.075495298395682559
      0.14051255869538107 -0.023133658046507483 0.034105566816199001
      0.015423357732045815 -0.14662928850822543 -0.04710691464908854
      0.33085114822538353 0.075514646329798957 -0.030175100134923409
      0.076619343482651814 -0.050800578004948298 -0.067321572712565766
      -0.011106839258824878 0.38120099751905578 -0.18471577010416756
      0.14199921167110469 0.023461728026672058 0.31139569386005733
      0.17348730305801249 -0.041599989454893745 -0.26655017571612671
      -0.04995848804402029 0.2249412003187925 -0.059120952367163103
      -0.082405506798025746 0.17463115631138587 0.047709295843995282
      0.10129469938277394 0.17628589746634685 -0.11817140431690433
      -0.16711523997533989 0.020395457704964749 0.17740599389211184
      0.039581392112225548 0.094716534123315724 -0.17107994281329761
      -0.21921575492062775 0.22071042367450586 -0.13430584191371056
      -0.23965945094896676 0.061656700693169669 -0.033117977102246648
      0.10677247206143488 -0.2509775796767959 0.089727762260138691
      0.0068980735096841545 -0.20592256135824699 -0.11026394564837687
      0.047914269994889215 -0.016563703910805937 -0.10412558022091135
      0.024889928585404977 -0.052903094727743669 0.059218294935090551
      0.1343507472838591 0.098291930329971675 0.15666471180281527
      0.16135632858509821 -0.038744656267076627 0.27379309749483566
      -0.096309198896703113 -0.13157043471246799 -0.24340984132713367
      0.059025115289484176 0.13854628889672779 -0.075188865455928997
      0.013371765013297671 0.063029556094073777 -0.14260307073812781
      -0.041357233044365393 0.32721012560083335 0.068943904533034492
      -0.027355468680272207 0.08324391390665864 -0.049441673500449673
      -0.071009388981564975 -0.0066707207964983705 0.37889815636657126
      -0.18361357291269662 0.13783468125261625 0.020311559174394332
      0.31204312834267717 0.17243846399501161 -0.040498916881425318
      -0.27073682912705399 -0.048564953217926726 0.22744890148106633
      -0.054393114044449062 -0.075978585092784878 0.16732144307742142
      0.050730974401023698 0.096490023318994464 0.16893837265612341
      -0.12132934501308228 -0.16162910445896322 0.021691143793850551
      0.1789785139245707 0.041928535402429877 0.090099432697997792
      -0.16435354520686227 -0.22055242512619838 0.21930404341006871
      -0.1392829401959722 -0.23698578994956762 0.065108081919942426
      -0.028951016771029778 0.097076845268261269 -0.25048513365154274
      0.087683267645468244 0.0070738702357922767 -0.2032826441367219
      -0.1084738284471808 0.049945516858786655 -0.016634235577727644
      -0.10132625591057598 0.026324559663481083 -0.050642201405659885
      0.0598745621982038 0.13546407570265845 0.10438805154598096
      0.15589459932212074 0.15757764333685056 -0.034832029979502431
      0.26885981469644871 -0.084136423115630521 -0.13265179597847906
      -0.24182447033687163 0.055912780270733854 0.14297996229209692
      -0.07558430093767797 0.018302906230234704 0.067188569109965138
      -0.15299834563670819 -0.042696035653334984 0.3263527081301672
      0.065244560827850864 -0.019337711808192552 0.10168162860743578
      -0.043008463262162205 -0.075513178756422425 -0.014386880754487347
      0.37781215707675719 -0.16787175643952582 0.14641405825213485
      0.018189188864085149 0.27821334210163517 0.17604212512037345
      -0.039644126123147119 -0.25495155085477955 -0.026087973150121273
      0.22511520613473796 -0.072238547216588511 -0.084706535439048103
      0.14419534543784096 0.04734941614763457 0.061879864893487631
      0.19688194594563468 -0.10879458154936543 -0.16853775452573155
      0.020533439401312192 0.16704898026678339 0.041171952100781589
      0.098329368488289451 -0.15544203634591292 -0.24769009456710914
      0.21774576181452643 -0.15960058378709041 -0.24832699698203137
      0.053288024164643552 -0.03166136335432284 0.057621640276440428
      -0.25167372041797242 0.090209484693305475 0.009218527966945389
      -0.20119475061212169 -0.11489554631262491 0.040651435427802612
      -0.012335969844457161 -0.079381933998288537 0.036660380799576495
      -0.046554338758222111 0.05998218323886962 0.13244031254198677
      0.11686890885680995 0.1500971508015172 0.16053469971025683
      -0.031781738627770069 0.26656416868414179 -0.060035547552522335
      -0.13352144371927435 -0.24285346611648603 0.060956140657955848
      0.13993652060782266 -0.061157964082130145 0.017985925272952123
      0.10231832848567404 -0.16358686016249163 -0.044813477286165436
      0.27722915562699446 0.044143795159408236 -0.0046044247328252243
      0.060570587223972926 -0.03885226561709941 -0.092061503960242055
      -0.015246814276823681 0.34225884468317019 -0.19076617757106762
      0.14890253316628221 0.020446940174020226 0.12834514170558323
      0.17952447201243218 -0.046200684387986468 -0.24518690764845238
      -0.043210434010609047 0.21862500839360027 -0.086546719155088589
      -0.094289279635746598 0.13671675351431292 0.040984364065289408
      0.075934592725195149 0.26129678277548618 -0.082917548830257884
      -0.1564196120902947 0.010704800022385268 0.14723631215123212
      0.03594100775418857 0.11582004857954012 -0.12193396907905019
      -0.3148693974528759 0.20686743387213027 -0.14248243529355692
      -0.25045933364744227 0.028496725994555171 -0.026714130935009375
      0.05634376478845763 -0.22030912498763394 0.093463689143891554
      0.025373421810545527 -0.18359020721361388 -0.11569657245958916
      0.042909617006125639 -0.017646866125108105 -0.07468696249779419
      0.077018014074079447 -0.048764216266271913 0.040739948100647447
      0.12442855298337058 0.19064080558449356 0.14226772244362243
      0.15499465844089913 -0.015828758437465909 0.24740296966205377
      -0.11340082087025197 -0.13588374061835329 -0.23422483068693367
      0.052887376348122045 0.14362955044287271 -0.0072859476818497356
      0.03634061764087005 0.065792858498643983 -0.14459351573150869
      -0.046978076169441656 0.29985754154082328 0.070151006628358367
      -0.0164442111027839 0.08058120288314008 -0.044840678940920753
      -0.080205202452894364 -0.011515847969069093 0.39800464344676267
      -0.17852503027585451 0.14404906537495329 0.024459489062331981
      0.12564592211855988 0.17601921383708155 -0.038532480451561192
      -0.24964735671894889 -0.042490152308030736 0.22188683432090206
      -0.059167719244583201 -0.071095778363233803 0.15883866288480508
      0.051023471341896658 0.084129641857226239 0.16877347989023583
      -0.12095348558206943 -0.1572611253869759 0.014366503473221992
      0.15993754388092762 0.040290765927373351 0.093004610683544015
      -0.16174528822682846 -0.20155598096580193 0.22295266199500913
      -0.13148993047857982 -0.2201006094372259 0.041551579825478725
      -0.029578360897429594 0.043127723949241289 -0.24369722313977815
      0.08766465083534955 0.018316142361934042 -0.1931783037195299
      -0.10457319846633087 0.043662163982384893 -0.01926846944088487
      -0.093499375329827231 0.024785430858216804 -0.047619954319975774
      0.064027554966548883 0.12633725621718775 0.19618804184568334
      0.14077336131120677 0.15432435375528725 -0.027098320159706955
      0.26016471324972851 -0.092297925072879677 -0.13622554522468611
      -0.24194659143544878 0.062696664017730039 0.14267831138024714
      -0.078026399699353363 0.029832542243615728 0.07602819305015375
      -0.15163140947849255 -0.039898964894735045 0.31630411644906553
      0.062336975220391264 -0.013658914199810435 0.10358103913522251
      -0.045244740480351014 -0.083319640257817518 -0.01223619830483022
      0.3675560187389072 -0.17487763541484216 0.14553895507858855
      0.025038836533521472 0.23723791493813795 0.18165869293049763
      -0.047562246464962078 -0.25378411434191472 -0.022619753643162602
      0.2297106129564106 -0.074316663515968218 -0.087676963690056647
      0.13861687513922397 0.052461002933944692 0.059500791158790839
      0.20836652685114701 -0.10496839875647962 -0.16970868805297168
      0.014249180984002597 0.16272990266916898 0.036318929229720742
      0.10429394935028237 -0.15099242273189487 -0.27078520802390227
      0.22129138838129842 -0.1618740388577842 -0.24945717485370592
      0.052329078091378378 -0.034227841136366205 0.046548317765524184
      -0.24968643713685404 0.094043899767235248 0.01355495380619634
      -0.19524303449495189 -0.11261548553838717 0.046877178784984867
      -0.011899943460849435 -0.079981602759392464 0.045046235871012773
      -0.048859047258253789 0.055438537291147415 0.13156223201580691
      0.14290488660081468 0.14709899456817488 0.16531678577135966
      -0.030691978050264319 0.25776128061706011 -0.069272653458626363
      -0.14067786016830655 -0.24651532965091952 0.056866292525900204
      0.14654768605658897 -0.05065047270829226 0.019490238631494607
      0.10379636617112142 -0.16639616179661185 -0.044237437719589476
      0.2783460546882856 0.047002394505149092 -0.003897972186045671
      0.090890539158438852 -0.035130406517001986 -0.097379262948574713
      -0.017117535172391649 0.34124455794008124 -0.17211869082108483
      0.14817085959856963 0.025051753607674049 0.12513693107907797
      0.18001329347390618 -0.047487746857651447 -0.23275222571371365
      -0.018626341143514243 0.21964207242567091 -0.094828557119075535
      -0.099536452140110462 0.11418049043537346 0.039253705706169643
      0.05107638723550198 0.26342234225610939 -0.087974742550509397
      -0.16308138754782228 0.013765136180354375 0.1437176171687955
      0.04079506094981239 0.11095780044655176 -0.12248519510032899
      -0.32390051357830396 0.20567838927541093 -0.15662425270158389
      -0.24903516615999285 0.024572843587738032 -0.026594499597642166
      0.015113489885733411 -0.20729305057759451 0.089100692130617942
      0.022122481637677736 -0.18699549324791276 -0.12791010186039697
      0.036247847914928855 -0.014464080466242177 -0.058518083957226075
      0.073309081795178921 -0.049166630455782172 0.045848930134993325
      0.12438644528196718 0.19100183431807569 0.14406906074631973
      0.15700170180128073 -0.016957571798331138 0.2318065229320557
      -0.080580517347296848 -0.13686275268663392 -0.23428209446379486
      0.054055212499570619 0.15286009489197963 -0.010146182577173247
      0.034609741567919752 0.10374636247541945 -0.16577224281649158
      -0.046256964040401034 0.26588727553040753 0.048985823436874756
      -0.004217472524625239 0.08189681730302914 -0.041241597183000384
      -0.096409323723510007 -0.02070780496012067 0.3369298885199748
      -0.16972282557639115 0.15678056781209715 0.026843893501978251
      0.12011988135953981 0.16983711664318166 -0.045204004276624195
      -0.22736161906994723 -0.015782995296511358 0.2231791002064358
      -0.098407223351175008 -0.094457932284745902 0.10637213837148109
      0.041339962253997005 0.053177962826423751 0.25991919945166941
      -0.096365507880147541 -0.16258157238623713 0.0084820133715507399
      0.14129850662478313 0.03842069397850869 0.11362372980952309
      -0.12617255697836718 -0.32632011378895082 0.20592757791022875
      -0.1555749349274996 -0.24369106730136786 0.02410190147119395
      -0.024733103206911796 0.013478463964893979 -0.17673013159578579
      0.091232199564182881 0.02136768088199217 -0.18697339385059825
      -0.14647242339332336 0.039646242552106921 -0.014796007285993793
      -0.055005995119653046 0.069771611496083352 -0.053970529410792924
      0.049285273757130203 0.12862957010733808 0.18643749656772354
      0.15892865022826747 0.1552763689467174 -0.013289170486506343
      0.21293839404395881 -0.079708695996332055 -0.14247319539987768
      -0.23561268872862989 0.053061874789693646 0.14865895769560508
      -0.0086867492126980906 0.033753852943174963 0.099657863631514368
      -0.16617820512239787 -0.039097833415132129 0.27176061801194151
      0.050208380540356076 -0.00081756730429342894 0.086816389377406988
      -0.040029908142373866 -0.098317601717592837 -0.018225405136101418
      0.34347153793505963 -0.17078103768625155 0.15124231254793094
      0.024164592230701019 0.12126932345375549 0.17345118988049771
      -0.040934712692015686 -0.23137458541896538 -0.014056168480540067
      0.22280197507398394 -0.094193161064032624 -0.091901606812693076
      0.10523959347569033 0.038079438390473751 0.051027911417822709
      0.25770404494903265 -0.09067911462895327 -0.16315599128206817
      0.013407671306626514 0.13523987958575587 0.040669424903487315
      0.11202699955977524 -0.12048272603963368 -0.32186215491398995
      0.20961910580189719 -0.15950255565956042 -0.24875162138792078
      0.028333765346330874 -0.02815401954765177 0.013248252265881404
      -0.18371023127783645 0.089289680568250596 0.024590632144949148
      -0.18083552644579948 -0.1470428414828702 0.039780768390624673
      -0.014614763028888126 -0.056696658709851307 0.07110158127695497
      -0.05589062216723182 0.051457634170005546 0.13011116927642827
      0.18505142581005138 0.15900561835220256 0.16074865910952249
      -0.019728842807021602 0.2103563439653785 -0.074735723874657448
      -0.13856299610627684 -0.23926085780597747 0.055411673655397391
      0.15555601737589839 -0.0044181249455256958 0.029134593769627699
      0.1039938739270322 -0.15856275042888515 -0.04188335552971615
      0.26963032786862623 0.047882218694955528 -0.0064898280928720343
      0.083791272956667467 -0.038348180940446952 -0.10065101853834811
      -0.019468815363176933 0.33916190608754287 -0.16877603577591285
      0.1532333205419128 0.031930912503503842 0.12495238633805131
      0.17576036022627253 -0.043054714853000671 -0.23044660076882295
      -0.019632956112336279 0.22595859921289499 -0.098220124530552053
      -0.094561030107617364 0.10989471764477564 0.041591585675689206
      0.049347738440963358 0.25784903742877585 -0.0918821751306753
      -0.16321859803136265 0.011379809118224686 0.13566534447705095
      0.034447479392087803 0.11290870068845262 -0.11804595722725665
      -0.32030338462616331 0.2085267818347632 -0.15675263321696753
      -0.24737222592161573 0.026063136019077147 -0.022781785182010444
      0.011737661681564456 -0.1800048829098255 0.090387565616141113
      0.026916465264482242 -0.18611243308149616 -0.14725531945930312
      0.036562265997096312 -0.017709200446253161 -0.056288662289140222
      0.070782413677842576 -0.052135413399966517 0.050248159212157743
      0.13059770965485454 0.18866766621002037 0.15516593660036124
      0.15387733975687465 -0.01266912456084235 0.21305090500673379
      -0.082909736018608057 -0.13651550169795384 -0.23916763849837891
      0.058309220291319568 0.15590589706544947 -0.0044901797669940242
      0.035524963570864959 0.10015847068890783 -0.041845399358801279
      -0.061905670091095447 0.2424482469459322 0.063196679300426828
      -0.033635605979915974 0.070491553742392757 -0.0322480935061491
      -0.074875123419561748 0.014038695940822849 0.3619634457331955
      -0.19771327727398352 0.20985335965083793 0.029494248502131473
      -0.19948846177434076 0.1541920040220755 -0.080816061329118172
      -0.269534659119951 -0.092086362655314627 0.13649400074277368
      -0.10609475988581071 -0.10706978212645453 0.14293778554595518
      -0.016928750190236857 -0.0052759823864998237 0.21994003411682966
      -0.027141599769225058 -0.15294748422272267 0.033588222829583049
      0.11353433070897208 -0.050792272865213872 0.095826468580696697
      -0.13520252268901228 -0.32951455450549622 0.2059727944074764
      -0.065091509024414171 -0.18235086503073447 0.045363085755679419
      0.06982969403073086 -0.035433815070100093 -0.17972695550280746
      0.080451588405079599 -0.0037289728222708106 -0.19551669061728608
      -0.15954419771781386 0.032273912844698681 0.052870075997870081
      -0.0035968589832483049 0.050918026087517075 -0.045737996232977182
      0.093788471327127435 0.16206015590842046 0.11923690868537232
      0.12398770594842677 0.16307759329794541 0.011519301846818427
      0.23157185185805526 -0.1555165575258089 -0.083000278739702074
      -0.3182743110523748 0.043315739094253673 0.14385569573985729
      -0.031605420989669272 0.070756715749378557 0.091462501370809704
      0.022272137837528704 -0.15600082513218638 0.15621870646327168
      0.049784948013026811 0.0011673320431205617 -0.1074665917782555
      -0.035469448316288739 0.065482908633907322 0.050748467167593153
      -0.029381801651313204 -0.22892349700936504 0.26709292589202333
      0.036355230182063041 0.20398361005362858 0.022477480868872923
      -0.0767747977654437 0.0074900044822653966 -0.17552514575924302
      0.079599538483115656 0.33476966120629875 0.12227601131638323
      -0.38537454135780025 -0.0043688258280929647 0.077755088618973497
      0.023014666954342733 -0.10928469056623585 0.047612080714022884
      0.084970004861395096 0.067455598573161829 -0.1026586649004701
      -0.086130732839267241 0.12105347467985401 -0.25151763931528132
      0.081139166102354707 -0.1725734589063182 0.083228778504638765
      -0.014759400767347063 -0.19465082710548151 -0.10515120935308585
      -0.28617526873329119 -0.080274214463873894 -0.10167074381051212
      -0.076937750603384425 -0.31141218051475544 0.015656501709640301
      -0.053210226209135882 -0.043738244759623887 0.14284182365777093
      -0.10270336292210903 0.0022444066972813629 0.16233956836577004
      0.18156429815856381 0.02291663960175825 0.03258596748790267
      -0.014530181424776989 0.023774822279489918 -0.079224788154020884
      -0.13932872128702856 0.0050711641177533621 0.14852708647294671
      0.12910004830926086 -0.25753689965535836 0.07059897769517802
      -0.075637512702971851 -0.30411612357787898 0.16487695280283737
      0.39354628969137256 0.27426287138940997 -0.12021927635509365
      -0.027939256696019571 -0.064043473155711489 0.012852152325818749
      -0.046099388567138369 -0.045030966460630664 -0.024023544143213095
      -0.070187588180404964 0.051459354699857629 0.36114415934725258
      -0.10761204146662297 0.37698167999908905 0.010352658911231542
      -0.14418941009898931 0.15509836903952612 0.39511863456860175
      -0.067163063618823918 -0.21477695239494307 0.013539267543029008
      0.21790464758110653 -0.31375502988482745 0.034601774605941542
      -0.20687399385808694 0.053659201970546994 0.30565475071832271
      -0.091373714160079653 0.3526384977429442 0.11504111179607052
      0.13769892355638239 0.18531462110945643 -0.072790059074454572
      -0.06811428728702848 0.069794424471364871 0.14722868643964923
      0.038340027083989349 -0.098064799997195765 0.2775233011988561
      -0.15780481212372025 -0.12987035743024616 0.033094267962381491
      -0.16484738308428745 -0.23431221470849001 -0.13506303353780968
      0.27950178492623917 -0.1651254647118135 -0.05928897596793764
      -0.14932803774986353 0.082476599679727383 0.13409893420676466
      -0.025013357644410115 0.050398696013391336 0.059982598071239054
      0.044589279402747137 0.0080020337997171766 -0.053063917016973029
      -0.13308550408283817 0.10290894274481738 -0.10590195354259506
      -0.28237860421551253 0.31717168449423611 -0.14487938696568115
      0.072365144155223618 0.26061617035887719 0.08977386764950282
      0.0018473200917058499 -0.031177991802134999 0.049995489359941012
      0.0048877797479739554 -0.070060534783980943 0.2368247438362833
      -0.15187424105492497 0.14570825903853657 0.1253508266394156
      0.0063471552978368673 0.11416929655244061 -0.020582917683741517
      -0.11491019780518766 -0.68977402714753044 -0.08558466901102868
      0.12779734118512745 -0.12602390200223551 -0.10299501561305223
      -0.089593236188162645 0.04135336100425327 0.16716694893208781
      0.0012188479535204112 -0.25025702821025486 -0.08315731081605314
      -0.006430278261164938 0.024807780116004097 0.17435018303645977
      0.021940870684245873 -0.26231913249836258 0.15587329397725386
      -0.061863077512215849 -0.32707413043044087 0.11532764135328719
      0.088160146547555926 0.025935238858349353 -0.10963277796396061
      0.15513270757697264 -0.078551091231418332 -0.33169242667045135
      -0.13272960229591865 0.082969933408564581 -0.11242351055278468
      0.068923430861957402 0.14726904008190012 -0.072727006722764331
      0.068529230441239042 -0.0002196460646357741 0.16040138433271695
      0.091733196999441644 0.20596629772720351 0.034605730534216839
      0.26920161616076466 -0.17906575038579159 -0.092519494025798232
      -0.31254745086501384 0.015291250443586998 0.10511330069056657
      -0.14644184046530839 0.036793157513735117 0.035219699272939629
      -0.09703448530011638 -0.016797509128650464 0.35882763381261668
      0.0066218833313429603 -0.072648437445209157 0.14592556242637725
      -0.053496853490987435 -0.066100657120848852 -0.0013255974346917572
      0.19713295824501351 -0.14402600441708183 0.18138565334031373
      0.045877931778405795 -0.030653823650308464 0.16098804808173273
      -0.1065757913037422 -0.029588339129689313 -0.20231232238631575
      0.073197865131144124 0.052798458579701925 0.025498611811178861
      0.1029328038236292 0.0013430772318903676 0.0074655474578106968
      0.19794767843033745 -0.04851491453152381 -0.22360479840601194
      0.025469137585130284 0.046030564544850716 0.033449804821895114
      0.13733830526216767 -0.073128355303899384 -0.23218869353258592
      0.17356819292464579 -0.1870478747922861 -0.31148152977841964
      0.082317417586217065 0.045740920759689628 -0.020301196060207652
      -0.18039558332838398 0.086725124395261741 -0.11104022057903777
      -0.072242917833972367 -0.067614859827187707 0.026246976784684555
      -0.0039624778815633248 -0.048444043996703524 0.011091061117702401
      -0.035815261744628971 0.11973508118776457 0.19776721759281135
      0.11140544498519803 0.16216498215046488 0.11029509348086788
      0.083454119448305136 0.13490797171795152 -0.11382509875771575
      -0.076087496668602844 -0.27614152588201762 0.057035800015563423
      0.11011422816523514 -0.0084632435230771047 0.076223315994907351
      0.10315440563596008 -0.11058270814430712 -0.0085312966180741256
      0.45334161476765167 0.0084174298350345855 0.01503081768361467
      0.074925189548063639 -0.20534064556727405 -0.10624705586531519
      0.00089872151622598145 0.18594558092194785 -0.13923309977364548
      0.1612255127071355 0.014021355151440026 0.18850865059095789
      0.13507411924001023 -0.1336345439778015 -0.064351292767205096
      0.08175015418916598 0.074421042015824626 -0.099532922787891706
      0.0057155638556102189 0.1170826400016743 0.019350221972087411
      0.00022291131371855364 0.092965739047035229 -0.045084468603599714
      -0.11678237124672453 0.036727445776311637 0.08750279831936178
      0.036703078203353612 0.16181213613357268 -0.1039633306769015
      -0.13109300796188947 0.13354032711927505 -0.23205596198908282
      -0.38488216377035445 -0.011899765139351447 -0.063559594852411444
      0.034728095222363108 -0.1890428368901427 0.1110039997330351
      0.10717019667025048 -0.092425413842168958 -0.067221166502858615
      -0.023188683609800406 -0.050685096287765796 -0.064364774916343293
      0.025832117927580316 -0.030725188352506566 0.11505733711749806
      0.12787230264844263 0.0099831799937418718 0.21349737243140213
      0.083875887918989686 -0.034982516845395675 0.060644644812853338
      -0.086904833338370444 -0.068505603400474305 -0.1969948051064517
      0.053669216054608219 0.11848015812530611 -0.14126472515385397
      0.029405830465664178 0.14545764545388221 -0.1145852443049751
      -0.012020138081369357 0.44850813924197247 0.0049267221662822784
      0.018104823572168454 0.082218249765547577 -0.20695314341870896
      -0.10981526149914494 0.0022749848581919037 0.18845392969262326
      -0.14055533105661938 0.16010395281805892 0.018902627468554579
      0.19587706032670205 0.13437485993556242 -0.13456051008191891
      -0.060309675713333559 0.076583608983783746 0.079174580326052207
      -0.096528509372137569 0.0093159673580892818 0.1169162883891597
      0.026989582081889115 0.0035875954599180987 0.091307892151528486
      -0.042542383499884026 -0.11415941873476057 0.03543180599575594
      0.091778515122039203 0.036453924626834833 0.16594714477390035
      -0.10081093455013304 -0.13372875960199956 0.13824264796604863
      -0.23429611950322696 -0.38230284388309921 -0.015436666851562402
      -0.067467440599261144 0.027933983483581969 -0.18824477492146627
      0.10885219541154387 0.10323194559627229 -0.086104357287896005
      -0.067973143476423081 -0.024035368176569316 -0.047270916913892208
      -0.062904604956121143 0.032893179234252848 -0.034019982669990352
      0.12039100016764451 0.13066703933217794 0.011191291486569829
      0.21533137529454141 0.081585819373057741 -0.031763642642608801
      0.068419206148134626 -0.087291018360232356 -0.06691778673456629
      -0.19792435608730438 0.049351642065067459 0.11948297954086189
      -0.14681924160424625 0.029775976284887592 0.15313184481840383
      -0.11532431464383187 -0.012453414865807434 0.45169078060276957
      0.0082326713278409389 0.016643205104844412 0.075036672104793325
      -0.20292294627355628 -0.11307787204404841 0.0027317226186071115
      0.18357734392769873 -0.14390156771455803 0.15957259355422879
      0.019014550270859007 0.18177639668275811 0.13444808057003046
      -0.13590820746283433 -0.056883810036964147 0.075223456744484746
      0.080842682668395033 -0.096427559346664082 0.0057834616393783334
      0.11176416214369188 0.019471798281510584 0.0084419553337509168
      0.10663856936315678 -0.040297862321038047 -0.11895719908840108
      0.035244827821400572 0.087968120234195951 0.033534023137286109
      0.16832380559578064 -0.10095021563203081 -0.14331502456313217
      0.13228780699840892 -0.23701490889780857 -0.38077795385333996
      -0.015239442589852614 -0.064562398018568501 0.027298332154792222
      -0.19148121954563299 0.10953172201956186 0.10974996956644936
      -0.08936130610822203 -0.066981233306136825 -0.024208350072013045
      -0.044106262271171898 -0.064640787496368382 0.030939861620654811
      -0.032313570553324837 0.1196991262836171 0.12387499715171896
      0.015483415802917287 0.20808658005717143 0.088603348655442782
      -0.035957805172744162 0.066942973773723574 -0.090607518040671645
      -0.066539551984910211 -0.1988719155457695 0.049046138417218707
      0.11901217329386149 -0.14157886025214522 0.03047277941735475
      0.14818320928652068 -0.11843869827829812 -0.014188842502594654
      0.43858198572337248 0.0048588527257266614 0.017429815280095701
      0.075932612875435498 -0.19408305789725971 -0.11591529402555721
      0.00014295268179959192 0.18078363569334663 -0.14439055856544603
      0.16343356951864207 0.018011900722758181 0.11780815002193651
      0.14364285545316385 -0.13505181347019585 -0.057676457734179176
      0.077154165792319471 0.073728665204732924 -0.093284150833352952
      -0.00090879634687276967 0.10313039679620621 0.018872576937301339
      0.0041170213719465927 0.13526019792754967 -0.027669952148321075
      -0.12194483260601929 0.03396622422642008 0.084364297129896682
      0.033775956640971459 0.16302400753766874 -0.095522139324954514
      -0.18188611693515336 0.14255097047096338 -0.23477187677124128
      -0.37180805830045488 -0.023570755604058136 -0.066466283961283956
      0.015504410442244106 -0.19097058082159182 0.10325213221360847
      0.10979451229267921 -0.085836023534203526 -0.065539104934110567
      -0.023202580412746726 -0.050426694788690718 -0.056614487414400276
      0.030674580940015708 -0.033457423358696586 0.11833663977909233
      0.12570342487444106 0.049260918325827824 0.20714141910958886
      0.082117259227856551 -0.027614875555271867 0.067137147666064906
      -0.10084769103222177 -0.071966477320877867 -0.19980833770330322
      0.053835163670957947 0.12170346255360442 -0.14826486915918854
      0.036271798815376122 0.15256730738319402 -0.10926513112769162
      -0.011269620439972291 0.44250516601405326 0.0047956960123908725
      0.01808393080018517 0.079122543372136464 -0.19973787692163109
      -0.11767387901341432 0.0038114842432534768 0.19846498667877072
      -0.14106418317772501 0.16703647160682855 0.017979661246200172
      0.11294775833789976 0.13562542416646803 -0.13147455008327133
      -0.062778145746428357 0.082023805316047943 0.074349959465614304
      -0.096834312806918232 0.005877122361211632 0.11816006894823652
      0.022192338642212543 0.0072325540971693953 0.08871398660042952
      -0.043888175228707249 -0.12128135499579815 0.040266699032399315
      0.087105892639684018 0.033322650559197586 0.1668866754062619
      -0.10083721378630704 -0.12662322612610183 0.13819641001140301
      -0.23513096985085746 -0.37881974020189785 -0.01538203873434936
      -0.066077870032160951 0.014150844986345126 -0.19157761164745538
      0.11149049985777992 0.11061588210898976 -0.092512144615033806
      -0.063654780445990253 -0.023723744470156651 -0.042346410658737406
      -0.066960167917917188 0.027669377064893787 -0.032199211923350617
      0.1196640349416727 0.12313668522384161 0.04841768964300372
      0.20912684843491411 0.087630387850485034 -0.026610991546679175
      0.062186085303725672 -0.091498978483891213 -0.070500376618866309
      -0.19815792409281208 0.055097645884818518 0.12315499465364463
      -0.1474457955948198 0.037779955436514912 0.14551641727803721
      -0.11278034616864638 -0.0087289048229675578 0.45159348530829113
      0.012570883278263717 0.020651868487652623 0.076036212732320654
      -0.20538672592453797 -0.11177587491627361 0.0059871225991367724
      0.18402308074987972 -0.13889105504669394 0.16814553148043804
      0.021958283125526765 0.16823464056627932 0.13719093647793623
      -0.13561267662965149 -0.058314485113762075 0.081459560816652163
      0.079661959538477711 -0.10009524652441211 0.0076616787587475968
      0.11000417016776647 0.023629240838779795 0.0083516341257147148
      0.11363356105789423 -0.03847617403469053 -0.11404418985987501
      0.039741531356457589 0.088558148341739723 0.032916198851228276
      0.16146531377463597 -0.10346574826213199 -0.15224127793393077
      0.1350821506464982 -0.23722185450606503 -0.37799050234712023
      -0.019435248496759181 -0.066000519193398041 0.021118329174744353
      -0.18870225322273015 0.10870527282774936 0.10855285945587485
      -0.089482002755566253 -0.06474411927253941 -0.026133257497929545
      -0.047533450097177937 -0.057468834669183427 0.027823713901108695
      -0.034108028355695832 0.12062677847806874 0.12730808328993551
      0.019649603951835629 0.20983463378442299 0.086228749821228592
      -0.034599879871655977 0.0636427534251503 -0.093854460029172054
      -0.067103345529283917 -0.19544019098201121 0.05210461230138938
      0.11640282420200208 -0.1467288058184939 0.031970842582356718
      0.15363620489202584 -0.12636370302255212 -0.01479348095539567
      0.43272757092421832 0.0089890458774910392 0.021672237762511665
      0.07476627674611408 -0.1966039768335312 -0.12147792787588528
      0.0019256133888964379 0.17219449992005889 -0.14837710781831595
      0.16604941384966637 0.01625704624092798 0.11752257612309452
      0.1447143705055918 -0.13740334108670288 -0.054857425215011996
      0.077214707575913352 0.077896651644802278 -0.098988987380510318
      0.00075340488931737294 0.10752689189358826 0.021599167089514735
      0.0087531740436042962 0.13484209381112477 -0.030270464510404677
      -0.11680774231548534 0.040698704826296443 0.07935273353692085
      0.036712133153329649 0.16318005352854595 -0.091102431870210693
      -0.18141808330610257 0.14027114503293181 -0.23818700153252936
      -0.37522207480858238 -0.019813161681493396 -0.064955523448831237
      0.012528188383742225 -0.18679972542538473 0.10518219369328725
      0.10477369282106284 -0.087843596862288792 -0.065464554602191083
      -0.029084233732036016 -0.043363139091492697 -0.056926088536677695
      0.030587854684130718 -0.035024920033102647 0.12433640134685503
      0.12346812765460094 0.04729208256980981 0.2025545285395928
      0.08434589478982428 -0.030896271113464775 0.05982914292147299
      -0.097818032469309202 -0.073076071480738566 -0.20071999863863302
      0.056133977182124442 0.11952576760581735 -0.14697657222858065
      0.03575895586371005 0.15230671358171632 -0.12533003614722774
      -0.013249567269376296 0.44098660377310162 0.010022771545154354
      0.022691290592725736 0.071691444931226672 -0.19840894013974603
      -0.11868862236873863 -0.0011522492961122005 0.17426570823575674
      -0.1417451721642643 0.16587387120112712 0.017857713664882816
      0.11815335484060777 0.14737521122047376 -0.14026363146075643
      -0.054349538855414825 0.075353382954081491 0.075582259791314277
      -0.097429466345483912 0.0074870299510108847 0.10761551250485514
      0.019912464505384943 0.0049878989543385146 0.13121362077038856
      -0.029594135581275913 -0.12068777204750958 0.042191308273460078
      0.080500278534124864 0.034863940600806907 0.16487563550741577
      -0.089091816652692474 -0.18162042904654802 0.14233890532719573
      -0.23146506252009838 -0.37720817196048251 -0.023787340958482367
      -0.063812693072188245 0.014150104462956031 -0.19021404653724081
      0.10333104464346983 0.11335035354348631 -0.088810065174958153
      -0.070079165058287679 -0.02623294701199853 -0.045418396412255008
      -0.053256670939745891 0.030743766419366502 -0.031525596181409279
      0.11736699319618622 0.12060943287144074 0.049270660605022581
      0.20132573766796921 0.083415449007705492 -0.030116450266315785
      0.059401623375332481 -0.094441414590671957 -0.072232840717514471
      -0.19467493805654493 0.052739385089676433 0.12354147722104844
      -0.14465635759812115 0.039627208886224119 0.14637938530875066
      -0.12040202630954294 -0.014064249517132449 0.43333206782902678
      0.012443297843705197 0.021854241304782345 0.077388847499519464
      -0.19492513807196035 -0.11687515843927258 -0.0033613974688785032
      0.17611121890658385 -0.14614114327286337 0.17010921138003632
      0.022394509009642374 0.11734845106296241 0.141889529219975
      -0.13424882707181252 -0.055239324191898032 0.076884118756456135
      0.074923397930389879 -0.096261150610812279 0.0039112182525813588
      0.1096040330480466 0.017808164172672666 0.0079452405207416227
      0.13781144860766592 -0.030924605880374385 -0.12142642293891437
      0.040902159073537371 0.083362143627354779 0.033549864375267059
      0.15851948582871753 -0.089712925899014834 -0.18089987161340695
      0.13560502847719014 -0.23399188214096847 -0.37508379203691045
      -0.022808112282868304 -0.061679591727317962 0.009286550739746248
      -0.18387149459144345 0.10669284285782003 0.11261995900650841
      -0.090543715239104261 -0.068807265205618973 -0.022076500510469332
      -0.047909392717293151 -0.052014749425496866 0.025171364524254791
      -0.031309919178674796 0.11793890295181798 0.12167611102532888
      0.050459203969804259 0.20422460991287147 0.085392723746045521
      -0.025776833553764172 0.061709304229472808 -0.10147775030400952
      -0.071609683551612804 -0.1941295505583088 0.051227920496114104
      0.12357471156497629 -0.14574295497689055 0.041455446670909439
      0.14859985698125017 -0.1194530471002179 -0.013947498002126246
      0.44098786488164377 0.0043054051500731431 0.022331788133199599
      0.077735941778560039 -0.20147407320497315 -0.12032154275032901
      0.00044058310455636523 0.17798859423732946 -0.14475751888886032
      0.17009936625004429 0.021539002115115991 0.12311598120150841
      0.14166806233589987 -0.13233739440523695 -0.060231029892164001
      0.080890722943556828 0.079775199331200197 -0.098105411293990558
      0.0019906025849847058 0.10773348601089126 0.017742348387207129
      0.003193368385400447 0.13269189003301035 -0.02362006810425353
      -0.11404045799278111 0.036287492156541139 0.077698681864330585
      0.036563463091786971 0.16101603790673966 -0.088551573359887559
      -0.18177088351952025 0.14263757119860515 -0.23065047048483422
      -0.37664596953493079 -0.024303347502402123 -0.06073084374512229
      0.0075346707570011469 -0.18836774829458505 0.1030168858791541
      0.10839063623635332 -0.087916118333345616 -0.062706167595910758
      -0.029218626462533752 -0.049279203869561652 -0.055108544740459946
      0.027753192665872107 -0.033179552279455501 0.12235125157838479
      0.12102799808035378 0.043818793075421178 0.20280145481360204
      0.085924428923156007 -0.02514086078944397 0.06166692341252801
      -0.09692147127802625 -0.0714310855492261 -0.19586290242873891
      0.056052244340783777 0.12161645278611119 -0.14844841157803937
      0.035676876004116259 0.14942454202651062 -0.024645402009855506
      -0.021059794976441896 0.45650222895098286 0.020899631161115859
      0.016343495495204152 0.086266889147732423 -0.20978326165070013
      -0.11087297945071457 -0.0034913274628108892 0.17807525798327861
      -0.1496725129944691 0.2088924647668626 0.015380188513196707
      -0.095119788987960821 0.13691563461070719 -0.14084929918004477
      -0.076202248404515491 0.022308156092859816 0.074267146220876018
      -0.09996263886389968 0.0010830339199323514 0.10497865408439176
      0.020350700961128176 0.0073111768088844698 0.097959616670829919
      -0.022517178221736656 -0.10284223082259018 0.027923490533095705
      0.070468642011643448 -0.025270051566074373 0.17875416981767236
      -0.098307046391364034 -0.17919678816826551 0.13033946068013016
      -0.17596938048840913 -0.32813446680196945 -0.011430644005724324
      -0.02526102522249939 0.01213910400775473 -0.18373090464093095
      0.098878712184377188 0.10667985043775889 -0.095154177613303595
      -0.081113256644835069 -0.027162998330135472 0.00013603385025596365
      -0.056531758306071996 0.02880929019881863 -0.034555672502405564
      0.11480695063197606 0.13457606685161211 0.051171098661889229
      0.22053494606001678 0.080273526072046256 -0.010973430846010124
      0.070778050082797292 -0.12146797291042323 -0.063297710926657286
      -0.19933396445971213 0.042380550651006044 0.10754945783316974
      -0.1226082273462917 0.03540649225267474 0.14920108401343005
      0.008898614636076517 -0.18819259897723256 0.14622963682620119
      0.09293200984020332 -0.0050705793807976794 -0.024924575971465149
      -0.03998411286508792 0.088950525197847782 0.0031265493963977841
      0.07817555802181067 -0.26101945545301297 0.22482212006235314
      0.14342565160132981 0.0087161294195345247 0.01486427823152495
      -0.11788108604991517 -0.065458263067451061 -0.084237815297588836
      -0.082475704146811005 0.2544386587842683 0.069799768717097643
      -0.25021445174107371 0.016777378576512042 0.077062643860008079
      -0.015195962399061756 -0.032701904621103881 0.17503535393307165
      -0.011748279871849175 0.0048715118355900444 -0.062886920518269288
      -0.027059548183056767 0.14048680531038088 -0.20154820682581295
      0.026891346318584718 -0.15379598730849128 -0.029976630134006879
      0.0067021618835005565 -0.067964573999762509 -0.091149591691757709
      -0.16533696014531502 -0.07433905572006401 -0.019077950694288227
      -0.17165240902192286 -0.2661870430761652 -0.072353398830788188
      -0.041187260004722441 -0.0754316278215173 0.14570289824088142
      -0.20400126839469007 -0.0018000969391621597 0.059852282034225698
      0.24233125122645224 0.066864858261315635 0.083992206246349801
      0.012447381328004678 -0.077212747549102373 -0.083349462233203719
      -0.16768926233019318 -0.016754605060923338 0.072651421054276744
      -0.00054324738527965146 -0.29913847771934549 0.060358876656946045
      -0.15534895490994027 -0.22178206461741565 0.14976650111093442
      0.40080831458114113 0.28869844909396564 -0.044763664593737748
      -0.13085718900588386 0.0061677733134714975 0.12443832814442132
      -0.18445438692547653 0.040694229228230155 -0.054861669742043026
      -0.077007701348711627 0.080609381902132599 -0.023117737380247399
      -0.069981640451013766 0.29317521426475956 -0.025132127005189926
      -0.26807088816448055 -0.074310378608755223 0.296471747806129
      -0.13379376156013484 -0.053420090926321134 -0.13334923042145638
      0.28731940965611857 -0.31136068528443933 0.075561858680427738
      -0.27036038638901649 0.061302343935511261 0.10149140892332068
      0.10571199344054123 0.30568980372192872 0.13453845034390682
      0.17781580095554791 -0.018313377828642174 0.018224634033414198
      -0.17550979309376175 0.1005865862137644 0.20509315833251027
      0.018796810818124791 -0.045860218973220623 0.23044895132995422
      -0.17285995373423571 -0.32368789406143605 0.096758367293456743
      -0.17153287645864226 -0.30413365002143278 -0.029850413454915015
      0.31161826171758022 -0.29307191193318521 -0.036415345990243
      -0.18674555415680449 0.14761029167979098 0.17100999552761167
      -0.088055812039256026 -0.0023638339591362766 0.029547660694286521
      -0.095126442736356662 -0.1126111566712257 -0.078022117782820838
      -0.12454236174166057 -0.15414148876984085 -0.17075062257383208
      -0.27474293584184961 0.33469440430652925 -0.0067608653350486724
      0.016467777437327288 0.11835915452262448 0.070802436457407178
      -0.068714380226395214 0.085185085909519606 0.18816599460559516
      0.088754376359076917 -0.069370838215734171 0.1458925398668624
      -0.11813802818979921 0.1591407989830049 -0.0083834345105512909
      -0.21045944806340908 -0.015749685131920921 -0.056177846473094477
      -0.18828244179967293 -0.53958827966753775 0.14249768036313284
      0.19973054755623032 -0.064383332747044553 -0.068648046347951616
      -0.11265438863609271 0.123877579865146 0.25825918316636853
      -0.039511073820219136 -0.17014049365512815 0.030712743428863022
      -0.19040629486470312 0.017602435894916838 0.037101187788355701
      -0.11645540608585211 -0.20166146314451119 0.16441526777336013
      -0.18900110855915894 -0.18599398696035491 0.15484735374427572
      0.14394360798493891 -0.01454983537030306 -0.099854005458725789
      0.028952674215407231 -0.18942149785466944 -0.21857973768169681
      -0.055454884800057287 0.064331557115053048 0.054574302952440479
      0.011826876920052961 -0.025445867702356736 -0.043585102957656024
      0.12637274308860114 0.17944411534193092 0.11274534572992539
      0.2107554455549272 0.092331525024124589 0.20676267215736682
      0.32239401860349437 -0.10084676853072276 -0.062478561547698319
      -0.22529599213507737 0.037294274956511955 0.027286180391152447
      0.015326645747561254 0.096684697147344165 0.0038651685802655626
      -0.0050943992707040689 -0.016971933830829906 0.37829588588060725
      -0.010729777541509371 -0.09099454917468229 0.19307630843045051
      -0.15100104276963908 -0.10026967914089792 -0.0051591851609127919
      0.055351951081086301 -0.068674611781829972 0.17488693419314527
      0.061211540425911322 -0.30406967460262696 0.10098959047006745
      -0.11058816002647889 0.12306357110185343 -0.017352333618058737
      0.021051218531476724 0.010663034092010134 0.04521533624598336
      -0.0052656358448247252 0.013953428099249271 0.0032689995916736474
      0.16725836483206433 -0.02871269524124587 -0.087474800721039525
      0.0072564063692958794 -0.093925348896268107 0.0046662765685740182
      0.17738631049803222 0.03710738783352531 -0.16789482472471468
      0.077334979439169602 -0.20141953942759694 -0.32044454247137866
      -0.042697305601682417 0.088511722687533656 -0.040134364167283554
      -0.07196151557416007 0.077269543389455519 -0.24114569498217853
      -0.0045283713115046777 -0.030855408117436919 -0.031862267405893811
      -0.00062920664278316881 -0.066330353808601597 0.038793883996856016
      -0.022100302544244926 0.096847571834108429 0.21229563616527519
      0.15615237251456204 0.20664360223706407 0.061975375498364613
      0.16956849094060855 -0.012704827966308726 -0.084249556393549516
      -0.052426623102547601 -0.17568092404082261 0.02860050528200541
      0.056200741073294688 0.0673120263659059 0.083098334699047802
      0.13894152032431742 -0.41604571392454787 -0.016015852524286688
      0.37874829232406348 -0.012284928055290158 0.076685618819152868
      0.040298651379859191 -0.18538256881275147 -0.087373278707908938
      0.11304378196078535 -0.00065253496246211237 0.58787828100102713
      0.1666189499738816 0.15384453726040062 0.28017780011461957
      -0.061317321147867414 -0.037214389490526321 0.057323347077169781
      -0.020039627909808129 0.054581004334496148 0.017273459350999339
      -0.032476399495623559 -0.051293650134022171 0.1214077797131612
      0.0085536016200694343 0.0052039001849952006 -0.17609712932700064
      0.10435853981138148 0.16199869422292296 -0.083525054524264286
      0.0038575053535816624 0.29971690923423 0.079584073638057487
      0.052383213947013597 0.087371241396277832 -0.16255652486357117
      -0.25561999469404229 -0.06171183996682502 -0.03632871777635617
      0.046759458297139136 0.085883437164591861 0.003270728682817808
      0.076622802324188027 -0.07347626298406347 -0.017457499674491797
      -0.052128365212264736 -0.017320911932151718 -0.056954407085940351
      0.031257351231242472 -0.025264752756054182 0.23946567119614628
      0.05669682796657053 0.0019047201637765049 0.33135606175757198
      0.25410598055639338 0.09688562751397263 -0.018175666022660443
      -0.099123195662953231 -0.053923171122709897 -0.016573019761170652
      -0.018958467226756617 0.057479747761587194 -0.046714244024055648
      0.012007346694280815 0.12475621853595741 -0.13470488483576029
      -0.23896045472969274 0.16681623917881336 -0.11395126475301484
      0.14119739719193247 0.05900798866538625 0.021794727441709984
      0.019884130164658165 0.13088727257784857 0.12863111352572779
      0.069129720622976398 -0.024605400954609096 0.11476651151242297
      0.054783365985115899 -0.10404646549062951 -0.22407350348113178
      0.15147342069679881 0.23216476232010974 -0.1035343320840604
      -0.042988175327914546 0.11712963588327406 -0.021669863333967303
      -0.014535743622712019 0.12179309891397296 0.36221251685699973
      -0.21461453725566434 0.015397415956154969 0.15210109416062009
      -0.14695059614707956 -0.10607777654612037 -0.030003099579165599
      -0.14013037297435593 -0.096993483300446715 0.18371927054634654
      0.014153356136811842 -0.099287649567298478 -0.034252422449131868
      -0.03792114097721281 -0.0054014553478079451 -0.11967961825946784
      -0.19809608059189462 -0.045058418976720416 0.12500621641859661
      0.013656758371972293 0.0072070285634959616 -0.085984469811234643
      -0.10630822856553838 -0.10533742294289054 -0.0094918894937244327
      0.32260045805835574 0.042884683543842159 0.050076932102453356
      -0.16614146670585522 0.05869934845958958 0.23149648820027555
      -0.15998002698890609 -0.043306639160784845 -0.045336052966968125
      0.024009810661379222 -0.22253635649735051 0.29147617346165855
      0.042790350096525744 0.17781375916574998 0.0062347718104682117
      0.079511257211965031 0.0040010322516930673 0.25578230579301731
      -0.064485918443336995 0.071451032496553116 0.053717260335341216
      -0.043135827069130057 0.078693058534548818 0.072153822562469161
      0.091475904283211132 -0.11510285315023429 -0.20301660661942661
      -0.040411134415173182 -0.037055516122251282 -0.045046832676040885
      -0.13658967967897206 0.061872836261825062 0.22083181040554908
      -0.1800437954721314 0.013673116600643449 -0.1150878792502415
      -0.028178527797930022 -0.12433487248491941 0.11218338877844429
      0.16620693820932622 -0.013076660878565299 -0.25731007769094633
      0.03979770619584274 -0.031109550456854051 -0.039914936291004559
      -0.041105549484283167 -0.10088287971651246 -0.024145369238307478
      0.13887982771010357 -0.044322084029056942 -0.028810951198974383
      -0.044808951583927149 -0.032920348354437134 -0.011765366012405794
      -0.18071363680748945 -0.055075129726949681 -0.18791511305409894
      0.33576045394621556 0.12023769239099558 -0.026421984485151699
      -0.096735521049780379 -0.2136674127167644 -0.08492588402619608
      0.035619622445002587 0.044521545643020861 -0.26829621210645183
      0.034570615031998653 -0.074457459610542523 -0.10302488531559044
      0.27187495610049373 -0.16651276813905955 -0.0044784112998144995
      -0.029371548853774413 0.10821045551930424 -0.11685341542054317
      0.021490766397309916 0.12400175383329154 -0.11724910383985734
      0.1613109348552664 0.078443793751988386 -0.11293445544384706
      0.18534177874063701 -0.092063542336971477 0.088685240686866312
      0.056884861518009838 0.0043385959567410473 0.071673393765079682
      0.049268317382819574 0.06642532043818572 -0.16278047603939413
      -0.078649566558136305 -0.083110501224325214 -0.033040510790534626
      -0.00079706675219588677 -0.20443966257501936 0.11880981561529824
      0.16897824417890206 -0.14877275094647716 -0.016307161877862093
      -0.041067063268283861 0.018558394286804083 -0.090222841905735124
      0.086723418697732535 0.16484228261562045 -0.023585207072626582
      -0.16878299966807214 0.018856397147971424 -0.032587944564484633
      -0.0697605276192374 -0.10399293174940058 -0.059579918631890917
      -0.034093914352900011 0.14177102015701695 0.0096773632768591081
      -0.020372921481958718 0.081497307766737026 0.0020629835628707348
      -0.01380698843687733 -0.15688614318370742 -0.087162180233900183
      -0.13886466914553014 0.24771929318711766 0.066030253593401353
      -0.0036086532851617044 -0.066026283735886454 -0.1337741643671429
      -0.10620491844309583 0.015790361245375389 0.14224298759256998
      -0.1232321178186742 0.035128450458125807 -0.075853149439741571
      -0.081590596818833377 0.31417984553190526 -0.18837887977816425
      -0.02477966240630505 -0.014279734374077051 0.075308850497109114
      -0.11715783156315375 -0.021567512457196611 0.098812409923964534
      -0.032699020763732989 0.15799925912192112 -0.063236452210434224
      -0.075660394340731199 0.29231613732979417 -0.018421810922021609
      0.068242307605948752 0.060869018944563535 -0.060927698673743778
      -0.073907352513333593 0.064986953300133543 0.018951715480519098
      -0.10412169649612378 0.20134492008264018 0.14109587335967874
      0.082876538359186874 0.019092264004093376 -0.1051572761957606
      0.061817915130166323 0.02691550407100024 -0.20919754187853493
      0.24826846901467914 0.014914061038581169 0.094690941076584711
      -0.012381796411073428 -0.01349762474971556 0.19419613007092487
      -0.027621389991731773 -0.075280057731300989 -0.074475166759912739
      -0.14460228981974277 -0.071099868218154311 0.025950581103280412
      -0.0058732464850558301 -0.076919888651546281 0.20209709809112433
      -0.039670532646846376 -0.1075095768695985 0.028987411810469238
      0.00491476917655381 0.018961039149487335 -0.14655882438325002
      0.011924819641005143 -0.1747675585829247 0.16236257866051107
      -0.016275956997661666 -0.044868198682750042 -0.025372088210079448
      -0.088213643086928625 -0.10412259868434895 0.026552629224321302
      0.22694992894053098 0.032709069860816307 0.1470399188622345
      0.030100435335820016 -0.1109657280252947 0.34089855860156687
      -0.087131693551394232 0.051628615908995854 0.010766426917116823
      0.076730973936752142 -0.14377239803217068 0.0044142096703135916
      -0.0095178565803144821 0.031959724435655701 0.16070266738780173
      0.18898870293747413 0.0086417310883536436 0.48912060407772218
      0.0087381521192354504 0.03706597507615958 0.080974859159279808
      -0.24413666610302501 -0.10750520533386873 -0.051414989011925483
      -0.0035392317478593685 -0.089378066051570296 0.056010365386479563
      -0.0031538326678374863 -0.015564758640129567 0.10089436949406763
      -0.13348876653984304 0.11941977947322484 -0.019111266815244127
      0.021116955057707078 0.039655717830038385 -0.0041930119721775008
      -0.0032066164080091775 0.10530376622195886 -0.20146756886725795
      -0.1901924692003282 -0.029079528295886548 -0.090190055099328093
      0.0098143581419239834 -0.089192492078058516 0.0048702466817514166
      0.035007605561247823 0.015887926276107658 -0.014117657250216497
      0.075677103816035665 -0.21632109729391863 -0.33945444564212401
      -0.060086863741633002 -0.076827269150020167 0.045346331919571298
      -0.030865601555189907 -0.054757030013423413 0.16973092906759507
      -0.02573393275304069 -0.054625350747212351 -0.026494466477652238
      -0.092091024747612424 -0.065738778853537058 0.10560554158780237
      -0.10089441158037055 0.093929100430147072 -0.087340933473349744
